tree
version=v3
num_class=1
num_tree_per_iteration=1
label_index=0
max_feature_idx=21
objective=binary sigmoid:1
feature_names=age num_ordmeds in_hosp BMI diagnoses_count_DZ01 pandemic_weeks sex_at_birth ordmed_count_A06AD num_diagnoses ordmed_count_N02BE laboratory_lastvalue_LYM ordmed_count_C03CA days_in_hospital ordmed_count_N01AH HOSP_BEFORE diagnoses_count_DG30 diagnoses_count_DZ03 diagnoses_count_DI10 adminmed_count_C03CA ordmed_count_A11EA adminmed_count_A12AX range_time
feature_infos=[18:104] [0:98] [0:1] [11.33:173.34999999999999] [0:64] [0:51] [0:1] [0:78] [0:56] [0:47] [0:406] [0:88] [0:1019] [0:37] [0:72] [0:59] [0:115] [0:238] [0:215] [0:119] [0:248] [1:12]
tree_sizes=3346 3368 3398 3417 3389 3404 3439 3408 3426 3442 3440 3453 3441 3445 3439 3463 3434 3450 3463 3461 3448 3455 3452 3455 3461 3454 3453 3451 3442 3455 3418 3440 3451 3446 3461 3470 3441 3441 3450 3471 3438 3439 3475 3457 3454 3456 3462 3468 3457 3445

Tree=0
num_leaves=31
num_cat=0
split_feature=0 21 7 1 20 1 0 2 0 10 0 2 21 3 21 21 21 21 21 2 3 0 21 15 11 19 0 16 9 15
split_gain=8.55318e+06 1.4086e+06 532111 142422 136531 123922 142712 111507 86589.3 69458.4 63465 61789.5 61489.9 47091.9 43112.5 43103.8 40732.1 34894.7 32350.3 32165.9 29200.8 28678.3 27729.1 26946.5 26823.9 26436.1 26278.9 26212.3 25691.4 25308.8
threshold=67.500000000000014 4.5000000000000009 1.0000000180025095e-35 19.500000000000004 3.5000000000000004 2.5000000000000004 76.500000000000014 1.0000000180025095e-35 83.500000000000014 1.9450000524520876 61.500000000000007 1.0000000180025095e-35 3.5000000000000004 21.885000000000002 5.5000000000000009 6.5000000000000009 2.5000000000000004 5.5000000000000009 6.5000000000000009 1.0000000180025095e-35 29.080000000000002 72.500000000000014 2.5000000000000004 4.5000000000000009 1.5000000000000002 5.5000000000000009 82.500000000000014 19.500000000000004 1.0000000180025095e-35 15.500000000000002
decision_type=2 2 2 2 2 2 2 2 2 8 2 2 2 8 2 2 2 2 2 2 10 2 2 2 2 2 2 2 2 2
left_child=2 5 4 8 7 6 11 23 14 -4 -9 21 26 -5 -3 -12 -8 -15 20 29 -11 -2 -23 24 25 -1 -7 -20 -14 -16
right_child=1 3 9 13 -6 12 16 10 -10 18 15 -13 28 17 19 -17 -18 -19 27 -21 -22 22 -24 -25 -26 -27 -28 -29 -30 -31
leaf_value=-5.2666495175605164 -5.368244794964161 -1.3472850696107574 2.8404802987482025 2.1665720936998003 1.9881968328329922 3.3820287856284903 3.3793787522525101 -4.0393392344596393 -0.84707547995633892 0.68535652104219036 1.404640210217682 2.1906677078839465 -1.1782455347009693 1.6252035534567257 -4.8683409958929493 -5.368244794964161 0.99170671296888102 -1.8081937831573751 -4.7217276529073384 -2.1957665072169612 -4.0776410239448087 0.40960554470685118 -5.368244794964161 1.6378900813378028 -1.7766081207318662 1.452297100709611 4.179032943667881 3.3968771813365102 2.3454126434681486 2.0948119312593185
leaf_weight=984.29773686081171 7.8696824200451436 18.652263723313808 17.055023852735758 23.225515022873878 6.7967644333839408 186.2798930183053 66.875306915491819 26.337462652474642 48.659978922456503 18.996956665068872 11.811805639415978 7.9376498870551577 5.9665882624685755 10.72432332113385 50.009622756391764 2.9323184341192237 24.371255397796631 23.876062758266926 7.7337471134960634 17.336604353040457 3.8741557970643035 6.9229900911450368 2.9663022570312023 1.4273205325007428 5.56849206611514 1.4661591872572888 232.52701941132545 1.1408854536712167 38.8920570127666 1.3399335592985142
leaf_count=200766 1621 2357 741 1319 410 6096 2192 4732 5667 1636 849 447 734 724 9806 604 1951 3235 1494 2482 699 634 611 96 751 104 3940 37 2071 78
internal_value=-5.318 2.03717 -4.83586 -1.65354 -5.07516 3.26924 1.81473 -5.12159 -2.53733 0.266912 -2.56894 -1.47668 3.63609 0.425007 -3.47904 0.0576456 2.74165 -0.744019 -1.11571 -4.05794 -0.121451 -3.11586 -1.32347 -5.22722 -5.23711 -5.25666 3.82454 -3.67803 1.87674 -4.68664
internal_weight=0 774.433 1089.44 193.824 1040.64 580.609 116.943 1033.84 135.998 48.8008 41.0816 25.6966 463.666 57.8259 87.3384 14.7441 91.2466 34.6004 31.7457 68.6862 22.8711 17.759 9.88929 992.76 991.332 985.764 418.807 8.87463 44.8586 51.3496
internal_count=258884 45965 212919 25668 208312 20297 7456 207902 20390 4607 6185 3313 12841 5278 14723 1453 4143 3959 3866 12366 2335 2866 1245 201717 201621 200870 10036 1531 2805 9884
shrinkage=1


Tree=1
num_leaves=31
num_cat=0
split_feature=21 0 4 4 3 3 12 8 5 8 0 0 0 1 1 2 21 4 5 4 8 0 1 9 2 7 16 4 1 4
split_gain=13119.2 9289.36 3448.99 2625.25 2500.42 1802.31 11196.6 8371.24 9587.89 1785.7 2907.92 9717.5 1724.55 1706.97 3351.92 1924.78 2611.04 2588.72 2954.25 2187.74 1735.45 1551.76 3912.78 1440.26 2028.55 3350.71 4357.6 16459.5 13424.5 8993.31
threshold=4.5000000000000009 67.500000000000014 1.0000000180025095e-35 44.500000000000007 22.215000000000003 41.070000000000007 58.500000000000007 2.5000000000000004 5.5000000000000009 1.0000000180025095e-35 55.500000000000007 54.500000000000007 51.500000000000007 2.5000000000000004 14.500000000000002 1.0000000180025095e-35 3.5000000000000004 4.5000000000000009 38.500000000000007 5.5000000000000009 14.500000000000002 38.500000000000007 28.500000000000004 2.5000000000000004 1.0000000180025095e-35 1.0000000180025095e-35 8.5000000000000018 1.5000000000000002 7.5000000000000009 14.500000000000002
decision_type=2 2 2 2 10 10 2 2 2 2 2 2 2 2 2 2 2 2 2 2 2 2 2 2 2 2 2 2 2 2
left_child=1 5 -3 4 -2 12 7 8 -7 10 11 -6 -1 -4 15 16 17 -15 -19 -20 -21 22 -9 24 25 26 29 28 -28 -14
right_child=3 2 13 -5 9 6 -8 21 -10 -11 -12 -13 23 14 -16 -17 -18 18 19 20 -22 -23 -24 -25 -26 -27 27 -29 -30 -31
leaf_value=-0.068495280450934851 -0.013991835614899166 -0.067034387313555599 -0.089670521199251896 1.4627948711189254 -0.050452203152435475 9.3618015211322128 6.2109964220604628 -0.17071425950195804 -0.050488380820918 0.044969571069486979 0.17069037588296498 3.5559932090342388 0.24352293361291674 -0.37826998125722677 -0.13573547853669529 -0.16095040607005437 -0.1666300936717432 -1.7839371831141937 -1.8785091042981934 -0.37210870131307333 -1.8612850663350846 -0.0044471247976748327 2.8603282014593243 -0.030521754803624186 0.00096297764129703886 0.020133631671653465 -0.05025804569540198 -0.13374247138982143 9.0979119942716711 5.0407513890635576
leaf_weight=477.62736227270216 2475.2238068510778 2066.4129558345303 756.5540949255228 3.1718139946460715 5.7237977930344623 0.53123336844146141 0.79853735631331701 2.8014473789371541 0.55140428058803082 3137.5847729183733 125.79065438918769 2.7725899461656809 193.41452479921281 189.36129940580577 1342.3783375928178 206.9726895019412 121.77979376912117 6.7011730391532174 3.1346788834780481 25.744273798540238 2.1173069877549997 34.273837451823056 1.7174997143447397 425.17724628327414 382.29949527233839 206.49279107153416 0.63339364714920421 3.8499351995997131 1.0931148165836928 0.98192409239709277
leaf_count=55702 103724 6912 3730 24 876 5 22 275 80 53404 513 49 18995 1697 5533 1023 726 246 121 228 81 551 2 2020 1507 311 124 317 16 70
internal_value=0 -0.0791363 -0.115473 0.0247196 0.0239259 0.0198986 0.348801 0.231406 4.56798 0.0526114 0.23116 1.12642 0.0119901 -0.153177 -0.178489 -0.281746 -0.353417 -0.453597 -0.831982 -0.626176 -0.485277 0.11038 0.981283 0.0436572 0.0836427 0.161407 0.307286 1.68536 5.74178 0.267754
internal_weight=0 6453.4 4721.16 5750.27 5747.1 1732.24 40.674 39.8754 1.08264 3271.87 134.287 8.49639 1691.57 2654.74 1898.19 555.811 348.839 227.059 37.6974 30.9963 27.8616 38.7928 4.51895 1213.94 788.765 406.466 199.973 5.57644 1.72651 194.396
internal_count=258884 100294 20297 158590 158566 79997 935 913 85 54842 1438 925 79062 13385 9655 4122 3099 2373 676 430 309 828 277 23360 21340 19833 19522 457 140 19065
shrinkage=0.05


Tree=2
num_leaves=31
num_cat=0
split_feature=21 0 1 3 18 2 21 1 3 5 8 3 3 0 5 0 0 8 21 5 13 4 0 0 4 3 0 4 0 6
split_gain=11421.9 5897.17 2289.25 2205.01 2164.06 2050.18 1901.26 1438.46 1558.34 2312.29 16409.1 1396.03 1212.52 1072.69 964.234 4468.22 13965.9 931.669 904.542 917.661 1041.94 1290.13 885.084 865.747 840.224 821.839 913.423 1542.88 779.079 1403.55
threshold=4.5000000000000009 67.500000000000014 3.5000000000000004 22.215000000000003 1.0000000180025095e-35 1.0000000180025095e-35 1.5000000000000002 6.5000000000000009 21.625000000000004 2.5000000000000004 1.0000000180025095e-35 25.415000000000003 25.765000000000004 51.500000000000007 4.5000000000000009 53.500000000000007 52.500000000000007 3.5000000000000004 3.5000000000000004 11.500000000000002 1.0000000180025095e-35 4.5000000000000009 86.500000000000014 52.500000000000007 44.500000000000007 23.745000000000001 75.500000000000014 12.500000000000002 75.500000000000014 1.0000000180025095e-35
decision_type=2 2 2 10 2 2 2 2 8 2 2 10 10 2 2 2 2 2 2 2 2 2 2 2 2 10 2 2 2 2
left_child=1 13 6 7 5 11 28 8 9 10 -2 -4 -13 -1 15 16 -11 -5 19 -7 25 -22 -10 -19 -25 -21 27 -27 -3 -30
right_child=3 2 4 17 -6 18 -8 -9 22 14 -12 12 -14 -15 -16 -17 -18 23 -20 20 21 -23 -24 24 -26 26 -28 -29 29 -31
leaf_value=-0.058410072007111548 9.5857134377618731 -0.070937586341210376 -0.16222560922578419 0.1170685277940645 -0.07040932344316532 -0.061482567372602173 -0.040614602740490377 -0.063206986293375525 -0.04475438226362221 -0.050254457500878591 -0.09973343329208112 -0.75738812386032295 -0.25998115875471317 0.02810629604272254 0.066022137563910135 0.21265491125100378 9.7765246790215272 -0.058592009738218945 0.0020963603896196957 -0.096481818605878691 -1.5294747475289849 -0.35905157963760409 0.045144092083780084 0.044774888690674926 0.56849610994731481 -1.3484866587155873 -0.24486892721158415 -0.026438603129719879 -0.35948673714637347 -0.11647184491057397
leaf_weight=488.4449500311166 0.51888923253863994 148.2015592106618 882.9015820492059 435.22547714179382 1031.9815333262086 232.66166402958333 1872.9669460034929 912.58649714104831 753.68022650154307 1.2493643388152111 2.7813898967579007 12.669302659109233 371.88785195164382 1344.372029223945 328.20839282823727 36.293147553224117 0.50881371367722739 212.19538887264207 198.85820462554693 109.80259864777327 3.130364477634429 9.4985853377729637 429.99794845283031 2729.2131099142134 7.679887428879737 5.2127398587763292 52.821314638480544 3.8271463662385941 100.69831584207714 144.93108334392309
leaf_count=56306 4 856 4161 10034 2908 612 6190 7112 88235 248 176 212 2495 23691 6667 219 2 18797 445 366 99 81 1069 26011 16 146 333 7 854 532
internal_value=0 -0.0720359 -0.0993 0.0225771 -0.128604 -0.160494 -0.0616124 -0.0133851 0.0158871 0.105518 1.42307 -0.196857 -0.276368 0.00504972 0.0936455 0.331909 2.7936 0.0487793 -0.0856507 -0.1275 -0.210844 -0.649167 -0.0120967 0.0387012 0.0462445 -0.178598 -0.324352 -0.788781 -0.161473 -0.216098
internal_weight=0 7014.87 5182.05 5850.14 2915.25 1883.27 2266.8 2465.82 1553.24 369.56 3.30028 1267.46 384.557 1832.82 366.26 38.0513 1.75818 3384.31 615.813 416.954 184.293 12.6289 1183.68 2949.09 2736.89 171.664 61.8612 9.03989 393.831 245.629
internal_count=258884 100294 20297 158590 11865 8957 8432 103732 96620 7316 180 6868 2707 79997 7136 469 250 54858 2089 1644 1032 180 89304 44824 26027 852 486 153 2242 1386
shrinkage=0.05


Tree=3
num_leaves=31
num_cat=0
split_feature=21 0 3 4 0 1 0 10 1 11 5 16 21 0 16 12 21 13 4 13 9 10 8 2 5 3 7 3 3 12
split_gain=9256.21 4569.13 2211.39 1798.26 1300.31 1220.17 987.885 971.397 902.634 1114.12 1301.1 881.757 830.928 791.716 801.195 757.098 755.56 952.484 1151.62 1676.73 741.926 1012.79 2541.44 1053.62 1300.03 2707.38 925.147 1199.68 12540.6 11720.1
threshold=4.5000000000000009 67.500000000000014 22.215000000000003 1.0000000180025095e-35 77.500000000000014 9.5000000000000018 51.500000000000007 1.0850000381469729 2.5000000000000004 1.0000000180025095e-35 6.5000000000000009 7.5000000000000009 1.5000000000000002 52.500000000000007 2.5000000000000004 8.5000000000000018 3.5000000000000004 1.0000000180025095e-35 2.5000000000000004 1.5000000000000002 2.5000000000000004 1.8899999856948855 8.5000000000000018 1.0000000180025095e-35 47.500000000000007 32.425000000000004 1.0000000180025095e-35 20.765000000000004 19.975000000000005 3.5000000000000004
decision_type=2 2 10 2 2 2 2 8 2 2 2 2 2 2 2 2 2 2 2 2 2 10 2 2 2 8 2 8 8 2
left_child=1 6 4 12 -2 -6 -1 -5 15 10 -10 16 -3 -4 -15 -9 17 -12 -19 -20 21 23 -23 26 -25 -26 27 28 -8 -30
right_child=2 3 13 7 5 -7 20 8 9 -11 11 -13 -14 14 -16 -17 -18 18 19 -21 -22 22 -24 24 25 -27 -28 -29 29 -31
leaf_value=-0.057019881691881352 -0.063385328054174864 -0.10950147333908844 -0.04001270373512112 -0.031050839229232175 0.044741167967701362 -0.047512007230737223 -0.0048363862515254834 -0.10329709395154417 -0.072510258292583604 -0.097101610387232806 -0.22770550660048205 -0.10659435935679425 -0.036780417065143102 0.070431335396595754 0.017951495754032057 0.0059750593685657452 -0.14170632221908463 -0.24624172991162993 -0.35767543399265689 -1.0688212289098737 -0.023365191610253331 1.8673619514756603 -0.26938233362130115 -0.024178909226864023 -0.22288211204497843 2.0307556404326825 0.017959426501650385 0.13132743408716227 -0.050336881632756729 6.6618906937846631
leaf_weight=475.66633739508688 926.57333778962493 501.9540705755353 251.60797909554094 348.13483229465783 993.20943790534511 560.8055803719908 14.89209873462096 607.27885703090578 267.01226537302136 980.04935459047556 421.10097899287939 203.26219975017011 1806.5479446537793 2082.2770345904864 1117.6070582550019 214.50844396324828 195.78128758817911 43.851489428430796 21.589167298749089 13.454131305217741 473.61784833017737 2.6033581048250189 2.9897280968725681 368.17017111182213 3.0695992335677138 2.355146661400795 203.4078586101532 260.93873907020316 1.154138422571122 1.4898179466836152
leaf_count=56306 97898 1951 24817 683 3846 1988 269 3377 774 3291 2458 719 4961 20647 9394 346 979 274 182 302 2087 20 28 1458 37 12 323 19258 174 25
internal_value=0 -0.0642392 0.0195065 -0.0864769 -0.0165037 0.0114493 0.00485011 -0.110066 -0.119334 -0.136397 -0.169425 -0.198208 -0.0525927 0.045387 0.052102 -0.0747741 -0.224972 -0.257576 -0.417012 -0.630705 0.0268998 0.0545472 0.725187 0.0501626 -0.0128572 0.755532 0.0990208 0.158231 0.558557 3.73187
internal_weight=0 7434.88 5932.08 5624.53 2480.59 1554.02 1810.35 3316.02 2967.89 2146.1 1166.05 899.039 2308.5 3451.49 3199.88 821.787 695.777 499.996 78.8948 35.0433 1334.69 861.071 5.59309 855.478 373.595 5.42475 481.883 278.475 17.5361 2.64396
internal_count=258884 100294 158590 20297 103732 5834 79997 13385 12702 8979 5688 4914 6912 54858 30041 3723 4195 3216 758 484 23691 21604 48 21556 1507 49 20049 19726 468 199
shrinkage=0.05


Tree=4
num_leaves=31
num_cat=0
split_feature=21 0 3 6 1 0 1 21 0 0 10 0 5 21 5 5 13 0 3 5 5 0 8 7 0 14 3 21 0 2
split_gain=8040.27 3292.28 1960.5 1392.31 1289.45 1212.24 1081.18 960.53 1402.55 1807.65 927.053 901.551 880.66 969.919 875.94 777.789 730.838 968.614 1513.39 1474.25 1990.9 5855.52 1211.09 8693.2 1228.96 9763.43 2093.39 2625.9 7719.61 10942.1
threshold=4.5000000000000009 67.500000000000014 22.215000000000003 1.0000000180025095e-35 2.5000000000000004 77.500000000000014 9.5000000000000018 2.5000000000000004 75.500000000000014 89.500000000000014 2.2150000333786015 55.500000000000007 6.5000000000000009 3.5000000000000004 11.500000000000002 45.500000000000007 1.0000000180025095e-35 80.500000000000014 28.235000000000003 15.500000000000002 14.500000000000002 79.500000000000014 12.500000000000002 5.5000000000000009 65.500000000000014 2.5000000000000004 28.045000000000005 5.5000000000000009 62.500000000000007 1.0000000180025095e-35
decision_type=2 2 10 2 2 2 2 2 2 2 8 2 2 2 2 2 2 2 10 2 2 2 2 2 2 2 8 2 2 2
left_child=1 11 5 4 7 -2 -7 8 -3 -10 -6 -1 -12 -14 -5 -11 17 18 19 20 22 -22 23 24 25 26 27 28 -4 -30
right_child=2 3 16 14 10 6 -8 -9 9 15 12 -13 13 -15 -16 -17 -18 -19 -20 -21 21 -23 -24 -25 -26 -27 -28 -29 29 -31
leaf_value=-0.047542078660844811 -0.06198759191224823 -0.006740437391373812 0.3688647112072323 -0.010539530296130618 -0.050168397207784765 0.041704793570610292 -0.044410143001022577 -0.023578963094874617 -0.31480417805404187 -0.044667509214583026 -0.071043361379380041 0.024986701422664851 -0.19470323266514006 -0.094004364195147738 -0.069814193094983407 -0.556006079183191 -0.0017852482942587932 0.023768547034363145 0.015286625527658275 0.078703217552675786 -0.073552053169320467 4.3436600397544449 -0.0012299970047907275 4.870151394652849 0.14610336521604078 5.6265905583297418 1.6363419021769905 0.067807293272254904 5.637783007079932 -0.29905593555987026
leaf_weight=662.73148153116927 900.76177914114669 186.01248240168206 22.876143592875454 876.54854832682759 316.77659369632602 1011.7461084835231 569.73907765978947 710.33396380906925 137.75964414700866 155.97511371597648 319.34454537555575 1212.0667211306281 808.39919358864427 339.57131803035736 2157.0150133969728 7.8091129697859278 739.60770251788199 1346.9417064674199 523.08749389648438 615.43433360708877 2.2049213610589495 1.1372042894363406 58.205030526965857 1.0156435072422016 142.80825933068991 0.88074615970253844 2.9634769987314931 49.490150534082204 1.7537663178518406 1.392255887389183
leaf_count=63994 97898 810 632 1706 742 3846 1988 2142 1046 336 922 16003 4214 1240 7043 96 8677 4557 18454 15610 64 2 651 2 1147 34 140 4825 53 10
internal_value=0 -0.0585055 0.0183194 -0.0765361 -0.100798 -0.0156888 0.0106814 -0.0606725 -0.114715 -0.181321 -0.127739 -0.000651848 -0.144486 -0.164916 -0.0526868 -0.0690478 0.0423711 0.0541604 0.0829227 0.122226 0.216301 1.42947 0.201892 0.254865 0.233766 0.391522 0.332768 0.28161 0.688228 3.01047
internal_weight=0 7890.34 5992.05 6015.55 2981.98 2482.25 1581.49 1197.89 487.556 301.544 1784.09 1874.8 1467.32 1147.97 3033.56 163.784 3509.8 2770.19 1423.25 900.162 284.728 3.34213 281.385 223.18 222.165 79.3565 78.4758 75.5123 26.0222 3.14602
internal_count=258884 100294 158590 20297 11548 103732 5834 4430 2288 1478 7118 79997 6376 5454 8749 432 54858 46181 41624 23170 7560 66 7494 6843 6841 5694 5660 5520 695 63
shrinkage=0.05


Tree=5
num_leaves=31
num_cat=0
split_feature=21 0 3 0 4 1 0 3 10 0 10 6 9 9 12 2 5 4 3 5 0 1 3 8 8 14 3 3 20 1
split_gain=6392.59 2645.48 1410.77 1127.5 1066.93 959.56 957.068 759.129 715.708 694.993 1476.11 726.56 730.427 721.068 750.822 685.749 1013.99 3041.43 4905.3 6693.75 7970.8 7606.48 4679.52 3307.95 6609.95 771.858 684.445 656.418 653.326 651.199
threshold=4.5000000000000009 66.500000000000014 22.215000000000003 77.500000000000014 1.0000000180025095e-35 9.5000000000000018 55.500000000000007 32.185000000000009 1.0850000381469729 67.500000000000014 224.79999923706058 1.0000000180025095e-35 18.500000000000004 6.5000000000000009 4.5000000000000009 1.0000000180025095e-35 41.500000000000007 1.0000000180025095e-35 34.160000000000004 38.500000000000007 63.500000000000007 1.5000000000000002 33.965000000000011 4.5000000000000009 5.5000000000000009 5.5000000000000009 26.295000000000005 16.985000000000003 12.500000000000002 22.500000000000004
decision_type=2 2 10 2 2 2 2 8 8 2 8 2 2 2 2 2 2 2 8 2 2 2 10 2 2 2 10 8 2 2
left_child=1 6 3 -2 26 -5 -1 -8 -6 10 13 12 -11 14 -4 16 17 18 22 -20 23 -22 -9 -21 -25 -17 -3 -7 -12 -13
right_child=2 4 9 5 8 27 7 15 -10 11 28 29 -14 -15 -16 25 -18 -19 19 20 21 -23 -24 24 -26 -27 -28 -29 -30 -31
leaf_value=-0.045778090729217943 -0.06049103195300605 -0.030350166057599659 -0.42171111787237447 0.038953405047688724 -0.021240786116556484 0.064154841566387247 0.0040123600387855464 -0.050459136526413456 -0.091007967186175431 0.013719130836073618 0.018938896425630975 0.085128948642239702 0.26160206394034385 -0.68267758126743894 -0.038477700422048643 -0.047263770790855607 0.0017264939517115541 0.11557733050199347 -0.063869542702740437 -0.050395199143838047 -0.050395860612036318 6.0308244654568872 6.0021394627546298 5.6778964865482857 -0.13440310838103556 0.39121487678613137 -0.098167824608454607 -0.068390567394142218 -0.33407901991910743 0.0025404351262482438
leaf_weight=654.08227599295788 877.49856442026794 2101.1459096653853 19.849098168779165 1028.5952247916721 409.97266228869557 117.13270046748221 764.78271667659283 0.52058311551809555 3556.5010740656871 1373.7730507729575 706.97714686708059 1221.0480044484138 30.375367380678654 7.9961045943200579 35.889082669746131 100.14770948141813 72.721854167059064 104.35051199328154 15.390512140467765 4.2600243221968395 0.74816617369651828 1.6444068355485795 0.82610011659562588 0.87286050245165814 1.1127154305577276 11.154298208653925 452.09360215906054 461.20703404024243 13.353736771270631 296.66933522745967
leaf_count=63994 97898 5410 483 3846 726 130 6325 64 13295 7764 39044 5676 29 165 146 427 2236 3561 1784 548 96 13 7 13 40 7 1748 1858 174 1377
internal_value=0 -0.0529749 0.0142431 -0.0149093 -0.0675688 0.00998155 0.00194084 0.0308803 -0.0837969 0.0337867 -0.00801223 0.0450032 0.0190815 -0.238651 -0.174952 0.0963723 0.151182 0.234964 0.725913 0.561338 1.67526 4.12921 3.66241 0.735201 2.42069 -0.00332097 -0.0423584 -0.0415458 0.0123945 0.0689853
internal_weight=0 8252.33 6190.36 2484.43 6519.71 1606.93 1732.61 1078.53 3966.47 3705.93 784.065 2921.87 1404.15 63.7343 55.7382 313.75 202.448 129.726 25.3754 24.0287 8.63817 2.39257 1.34668 6.2456 1.98558 111.302 2553.24 578.34 720.331 1517.72
internal_count=258884 100294 158590 103732 21179 5834 79115 15121 14021 54858 40012 14846 7793 794 629 8796 8362 6126 2565 2494 710 109 71 601 53 434 7158 1988 39218 7053
shrinkage=0.05


Tree=6
num_leaves=31
num_cat=0
split_feature=21 0 3 0 6 0 1 8 9 5 0 10 4 6 0 3 1 13 4 21 18 5 1 12 0 21 3 1 16 4
split_gain=5777.33 1720.31 1250.08 1046.6 957.598 899.348 858.811 841.144 821.53 678.292 610.727 1145.89 629.728 620.628 594.405 626.475 591.292 1165.57 886.605 573.06 714.895 651.668 566.513 6105.53 4470.26 551.427 559.53 549.921 935.134 536.527
threshold=4.5000000000000009 67.500000000000014 22.215000000000003 77.500000000000014 1.0000000180025095e-35 88.500000000000014 6.5000000000000009 12.500000000000002 1.0000000180025095e-35 11.500000000000002 67.500000000000014 224.79999923706058 44.500000000000007 1.0000000180025095e-35 80.500000000000014 21.415000000000003 33.500000000000007 1.0000000180025095e-35 2.5000000000000004 5.5000000000000009 13.500000000000002 37.500000000000007 2.5000000000000004 11.500000000000002 63.500000000000007 3.5000000000000004 21.415000000000003 22.500000000000004 12.500000000000002 4.5000000000000009
decision_type=2 2 10 2 2 2 2 2 2 2 2 8 2 2 2 8 2 2 2 2 2 2 2 2 2 2 10 2 2 2
left_child=1 7 3 29 5 16 14 -1 22 -6 11 -4 -13 19 15 -5 17 -3 -19 -12 21 -21 23 -9 -25 26 -11 -15 -29 -2
right_child=2 4 10 6 9 -7 -8 8 -10 25 13 12 -14 27 -16 -17 -18 18 -20 20 -22 -23 -24 24 -26 -27 -28 28 -30 -31
leaf_value=-0.03259346190614875 -0.046890387421543812 -0.095505341471212341 -0.19575195280138924 0.23947339294043324 -0.0062728881093843981 -0.042221696828599033 -0.03473998319604412 -0.095247175542629847 0.0087875117703928186 -0.034091709454566514 -0.034474683018929413 0.0059652585494487098 0.38929956555579837 0.078034272547487779 0.026929594712564616 -0.073538302398747299 -0.034265966059913402 -0.39448810356129882 -0.15597718088570567 -0.022960297985180147 0.15394796552490408 0.061496423420153483 0.12054629347119886 -0.050261930939154688 5.8123550398636779 -0.015128173249567438 -0.092123143182043093 -0.047064116952715729 0.16159017902054343 -0.18921903683306407
leaf_weight=1251.1391753253993 784.26781454216689 1831.1646720077842 73.277093131095171 66.089874221011996 928.32917399937287 1064.7129355613142 658.81176834367216 6.3263748208992174 547.99747614981607 659.93867104314268 381.08924179151654 715.32958523579873 10.876558711752294 1264.2758395532146 885.88160952739418 21.085357957519591 317.72228262573481 55.335572643205523 131.68722588988021 424.80094511248171 116.45693819969893 494.01756158471107 130.77216339344159 0.52550993650220312 0.85284173581749201 598.1034933978226 1120.8385141089093 226.46020495146513 70.388705471530557 72.319315003696829
leaf_count=75426 95245 7427 794 146 1706 2392 2330 1198 2516 1670 1321 39214 4 5676 2835 523 618 514 597 3487 329 2656 736 111 10 1576 3797 1235 142 2653
internal_value=0 -0.0496901 0.0133644 -0.0141507 -0.0616774 -0.0803078 0.00934236 -0.00819115 0.0362835 -0.0425208 0.0314927 -0.00730818 0.0117065 0.0419111 0.0391885 0.163764 -0.0976675 -0.107649 -0.226547 0.0179453 0.0372414 0.0224492 0.145094 0.561738 3.57718 -0.0566661 -0.0706173 0.0636546 0.00241191 -0.0589068
internal_weight=0 8645.45 6265.43 2488.46 6707.83 3400.62 1631.87 1937.61 686.474 3307.21 3776.97 799.483 726.206 2977.49 973.057 87.1752 2335.91 2018.19 187.023 1416.36 1035.28 918.819 138.477 7.70473 1.37835 2378.88 1780.78 1561.12 296.849 856.587
internal_count=258884 100294 158590 103732 20297 11548 5834 79997 4571 8749 54858 40012 39218 14846 3504 669 9156 8538 1111 7793 6472 6143 2055 1319 121 7043 5467 7053 1377 97898
shrinkage=0.05


Tree=7
num_leaves=31
num_cat=0
split_feature=21 0 3 0 4 18 1 8 21 3 0 8 5 5 0 5 0 0 21 3 3 1 4 8 21 12 12 8 6 11
split_gain=5060.49 1318.73 1105.69 960.967 801.407 775.972 763.176 633.834 593.719 575.134 539 511.879 520.998 572.176 1020.59 1971.43 682.521 762.199 1210.16 731.791 1284.85 617.054 852.551 1957.25 1191.79 584.382 1643.15 3231.11 501.842 491.583
threshold=4.5000000000000009 67.500000000000014 22.215000000000003 77.500000000000014 1.5000000000000002 1.0000000180025095e-35 9.5000000000000018 12.500000000000002 7.5000000000000009 16.985000000000003 52.500000000000007 1.0000000180025095e-35 43.500000000000007 36.500000000000007 53.500000000000007 2.5000000000000004 65.500000000000014 82.500000000000014 5.5000000000000009 24.285000000000004 24.345000000000002 2.5000000000000004 1.0000000180025095e-35 4.5000000000000009 5.5000000000000009 17.500000000000004 16.500000000000004 10.500000000000002 1.0000000180025095e-35 1.0000000180025095e-35
decision_type=2 2 10 2 2 2 2 2 2 8 2 2 2 2 2 2 2 2 2 10 10 2 2 2 2 2 2 2 2 2
left_child=1 7 3 -2 -3 28 8 29 -5 -8 -4 -12 13 14 15 -13 21 18 -18 -20 -21 22 23 -15 -25 26 -22 -28 -6 -1
right_child=2 4 10 6 5 -7 9 -9 -10 -11 11 12 -14 16 -16 -17 17 -19 19 20 25 -23 -24 24 -26 -27 27 -29 -30 -31
leaf_value=-0.021163369022693598 -0.056867193004952556 -0.041553476333654103 -0.039497181068845484 0.06061551974229306 -0.11711081277921509 -0.037064552393316637 0.063177701475682857 0.028278554096454196 -0.018795602197624186 -0.060812665932634895 0.10927179950156039 1.5656000152729141 -0.037393742569244916 -0.13064322649343099 0.01075612503165327 -0.050435906977745859 0.024512869082332762 0.027778372583259454 0.012164923050975216 1.0004669397104553 0.18475572015369546 -0.18125807735150656 -0.036971114786926627 2.073166188101061 -0.050463121118189118 0.02202107355174323 2.8255085999965046 -0.059669201461494473 -0.067669335934600075 -0.13128298337878616
leaf_weight=1140.5058701178059 843.11267057643272 4054.1661692839116 265.1862148521468 706.6557776578702 1042.1143199806102 899.22174003720284 116.22811501100659 706.78701740503311 352.92778269620612 478.83165957033634 214.48424543067813 3.0920473788864902 267.1331319489982 4.4912965432740739 1529.0527496240102 4.8432381190359592 314.27766804164276 711.66030208393931 76.94697382627055 4.729207966476678 306.62938841432333 55.302046939497814 32.059775946196169 2.353757291566581 0.91847032960504282 55.784444854594767 1.7361142039299005 2.2001504609361291 1011.3259816027712 111.23008864279836
leaf_count=74382 97898 10829 24817 1879 4510 1816 130 4571 1967 1858 611 33 1608 416 15429 680 805 1937 862 36 2659 2171 2160 24 126 439 5 40 3142 1044
internal_value=0 -0.045846 0.0124914 -0.0134203 -0.0559843 -0.0757987 0.00871778 -0.00957489 0.0341651 -0.0365947 0.0292894 0.0343738 0.0296115 0.0353742 0.0136913 0.579265 0.0566134 0.0649908 0.0997311 0.152495 0.181593 -0.073194 0.076873 0.546997 1.47709 0.171022 0.197786 1.21286 -0.0927607 -0.0309487
internal_weight=0 8965.35 6350.64 2497.76 7006.83 2952.66 1654.64 1958.52 1059.58 595.06 3852.88 3587.7 3373.21 3106.08 1536.99 7.93529 1569.09 1473.96 762.304 448.026 371.079 95.1253 39.8233 7.76352 3.27223 366.35 310.566 3.93626 2053.44 1251.74
internal_count=258884 100294 158590 103732 20297 9468 5834 79997 3846 1988 54858 30041 29430 27822 16142 713 11680 6783 4846 4041 3179 4897 2726 566 150 3143 2704 45 7652 75426
shrinkage=0.05


Tree=8
num_leaves=31
num_cat=0
split_feature=21 0 3 0 2 1 1 18 3 21 3 8 0 10 14 6 21 18 5 0 0 3 0 5 5 0 21 1 3 1
split_gain=4371.27 1102.58 955.286 887.732 703.51 686.791 637.022 696.684 709.143 605.246 588.323 501.633 495.51 897.563 527.853 509.793 472.58 564.694 505.996 471.116 747.039 769.76 559.9 469.982 1107.57 577.714 469.838 640.921 568.029 459.386
threshold=4.5000000000000009 66.500000000000014 22.215000000000003 77.500000000000014 1.0000000180025095e-35 4.5000000000000009 2.5000000000000004 6.5000000000000009 25.315000000000001 1.5000000000000002 21.975000000000005 12.500000000000002 67.500000000000014 224.79999923706058 4.5000000000000009 1.0000000180025095e-35 5.5000000000000009 13.500000000000002 37.500000000000007 75.500000000000014 89.500000000000014 27.345000000000002 78.500000000000014 7.5000000000000009 42.500000000000007 76.500000000000014 3.5000000000000004 3.5000000000000004 17.395000000000003 24.500000000000004
decision_type=2 2 10 2 2 2 2 2 10 2 8 2 2 8 2 2 2 2 2 2 2 8 2 2 2 2 2 2 10 2
left_child=1 11 3 -2 6 10 9 8 26 19 -5 -1 13 -4 -15 16 -14 18 -18 -3 21 22 -21 -23 25 -25 -8 -28 -29 -17
right_child=2 4 12 5 -6 -7 7 -9 -10 -11 -12 -13 15 14 -16 29 17 -19 -20 20 -22 23 -24 24 -26 -27 27 28 -30 -31
leaf_value=-0.026228034387179119 -0.055149704897027169 -0.0079844234080163386 -0.1637380698203319 0.085275754526352221 -0.025543837866933358 -0.027830699701598766 -0.081667540605880912 -0.031355382126474901 -0.12101843412116348 -0.022209065880360909 0.004342610006968603 0.029077128083236248 -0.03333417806515878 0.018972834502377113 -0.18168571038180781 0.066576710833532712 -0.022717704089617791 0.12924017097095908 0.050582480415396008 -0.20567029890238131 -0.043586430817693145 -0.015934471460684139 -0.64914126134817562 -0.085380622618183119 -0.079664100696215795 -0.64665116378194309 0.14050308588870455 -0.25274152229697644 -0.028149658665777951 -0.0052551168498523419
leaf_weight=1208.9074230680708 826.33899941458367 114.61930909217335 82.820686822524294 373.47793255653232 2007.0254891216755 740.01647848496214 1368.3579011149704 790.09486830700189 899.94745871657506 1487.8953539363574 563.08755438029766 620.43571965978481 382.24476417712867 712.78969075437635 34.354275633580983 1381.5757926106453 423.63290970958769 129.64055525511503 529.97939757909626 13.378915943205358 130.46845451742411 40.798334073275328 15.20760704949498 6.1632332205772427 43.22582071647048 17.900179818272591 52.739376723766327 30.360583290457726 387.16180440271273 265.32414529472589
leaf_count=74702 97898 771 794 798 3983 2586 4035 1516 3601 5097 2450 4413 1321 38475 743 5873 3487 329 2656 77 273 66 214 26 125 251 96 237 811 1180
internal_value=0 -0.0422316 0.0114239 -0.0127346 -0.0508185 0.00817062 -0.0602153 -0.0727177 -0.084651 -0.0366191 0.0366166 -0.00747087 0.0267617 -0.00756531 0.00974639 0.0359154 0.0144638 0.0313301 0.0180196 -0.0927814 -0.129164 -0.210856 -0.44159 -0.149833 -0.231017 -0.502896 -0.0668503 -0.0237353 -0.0444811 0.0550042
internal_weight=0 9234.69 6445.28 2502.92 7405.34 1676.58 5398.32 3528.66 2738.57 1869.66 936.565 1829.34 3942.36 829.965 747.144 3112.4 1465.5 1083.25 953.612 381.762 267.143 136.674 28.5865 108.088 67.2892 24.0634 1838.62 470.262 417.522 1646.9
internal_count=258884 100294 158590 103732 21179 5834 17196 10296 8780 6900 3248 79115 54858 40012 39218 14846 7793 6472 6143 1803 1032 759 291 468 402 277 5179 1144 1048 7053
shrinkage=0.05


Tree=9
num_leaves=31
num_cat=0
split_feature=21 0 3 0 6 21 1 0 0 3 14 1 8 0 10 5 10 21 13 5 0 18 3 16 3 16 7 0 7 4
split_gain=3793.13 906.111 848.933 817.989 649.301 628.308 626.587 601.216 500.031 491.24 471.773 467.989 459.153 466.536 676.728 537.022 445.901 425.797 808.263 794.373 866.447 843.405 527.243 493.258 744.741 639.436 598.717 1009.76 4781.01 509.172
threshold=4.5000000000000009 66.500000000000014 22.215000000000003 77.500000000000014 1.0000000180025095e-35 7.5000000000000009 18.500000000000004 92.500000000000014 55.500000000000007 21.685000000000006 1.5000000000000002 2.5000000000000004 1.0000000180025095e-35 66.500000000000014 224.79999923706058 33.500000000000007 1.3450000286102297 5.5000000000000009 1.0000000180025095e-35 35.500000000000007 82.500000000000014 13.500000000000002 24.285000000000004 1.5000000000000002 24.345000000000002 5.5000000000000009 1.5000000000000002 67.500000000000014 1.0000000180025095e-35 4.5000000000000009
decision_type=2 2 10 2 2 2 2 2 2 10 2 2 2 2 8 2 10 2 2 2 2 2 10 2 10 2 2 2 2 2
left_child=1 8 3 -2 7 6 -5 10 16 -6 -3 -12 -4 14 -14 -16 -1 18 -15 21 22 -19 -21 24 -24 -25 27 28 -26 -29
right_child=2 4 12 5 9 -7 -8 -9 -10 -11 11 -13 13 17 15 -17 -18 19 -20 20 -22 -23 23 25 26 -27 -28 29 -30 -31
leaf_value=-0.038092396980848348 -0.05338574135604332 -0.086515598344283309 0.093480221867762905 0.051465961887372694 -0.0066763989214151153 -0.032903450294810156 -0.038626293104329856 -0.01779914955985953 0.011870853554316727 -0.044637364370002514 0.017514518858065337 -0.060422484435664198 -0.15717055160859553 0.020420480749490488 0.039536752446992757 -0.051456255471824565 -0.39063049177834802 -0.013372692411052446 -0.11272969853322153 0.00072625704226360918 0.029672550724489932 0.13977214736294644 0.70238679577622953 -0.069898813203146823 -0.12425883576919744 0.13167900444338632 -0.091212570479887928 0.19058542684805357 3.2420646046081085 -0.060172192810536054
leaf_weight=620.13560045300983 811.3529241704382 1799.4873869626317 230.70654385723174 831.14762278180569 1309.0025136067998 610.05078232567757 251.36247328761965 683.89811984822154 1196.0240293052047 2442.3314052987844 227.98020300338976 1241.6560980826616 74.97799139120616 779.21854885248467 385.67074890900403 279.77830821415409 9.1011070096865279 759.07291862880811 133.50207935739309 88.243574025575072 695.09561734460294 101.9807006791234 6.5243437308818093 56.739350725430995 3.5187368718907228 128.30466626491398 21.562909818254411 237.23398431949317 1.5062464708462355 22.132639640942216
leaf_count=63813 97898 7307 1438 2328 2882 2941 565 1191 15121 6294 338 3167 737 2057 18264 19135 181 6076 543 957 1839 217 24 935 152 625 166 1378 9 306
internal_value=0 -0.0387871 0.0107287 -0.0121094 -0.0462915 0.00767703 0.0305462 -0.0604316 -0.0071112 -0.0313911 -0.0693503 -0.0483324 0.0250043 0.0208195 -0.0147651 0.00128008 -0.0431914 0.0295019 0.000944833 0.0417854 0.0670667 0.00476534 0.113009 0.133758 0.174178 0.06987 0.162127 0.182788 0.884802 0.169187
internal_weight=0 9529.62 6509.68 2503.91 7704.36 1692.56 1082.51 3953.02 1825.26 3751.33 3269.12 1469.64 4005.77 3775.06 740.427 665.449 629.237 3034.64 912.721 2121.92 1260.86 861.054 565.766 477.523 292.479 185.044 285.955 264.392 5.02498 259.367
internal_count=258884 100294 158590 103732 21179 5834 2893 12003 79115 9176 10812 3505 54858 53420 38136 37399 63994 15284 2600 12684 6391 6293 4552 3595 2035 1560 2011 1845 161 1684
shrinkage=0.05


Tree=10
num_leaves=31
num_cat=0
split_feature=21 5 5 3 0 1 6 18 3 0 0 5 8 4 6 0 0 10 18 21 4 10 19 9 4 3 0 10 1 12
split_gain=3299.14 859.151 760.305 736.95 752.546 570.094 569.035 554.816 503.939 446.752 422.264 608.7 441.173 527.744 435.742 408.654 418.174 507.459 513.902 475.964 407.961 403.802 403.682 391.135 439.832 388.712 369.104 357.63 558.147 440.186
threshold=4.5000000000000009 11.500000000000002 36.500000000000007 22.215000000000003 77.500000000000014 4.5000000000000009 1.0000000180025095e-35 21.500000000000004 21.975000000000005 86.500000000000014 67.500000000000014 23.500000000000004 5.5000000000000009 44.500000000000007 1.0000000180025095e-35 81.500000000000014 67.500000000000014 0.82499998807907116 3.5000000000000004 2.5000000000000004 4.5000000000000009 0.73500001430511486 1.0000000180025095e-35 18.500000000000004 4.5000000000000009 16.985000000000003 80.500000000000014 1.1050000190734866 3.5000000000000004 8.5000000000000018
decision_type=2 2 2 10 2 2 2 2 8 2 2 2 2 2 2 2 2 8 2 2 2 10 2 2 2 8 2 8 2 2
left_child=1 6 7 4 20 8 -1 15 26 -10 11 12 -5 -14 23 16 -3 -18 19 -19 -2 -13 -16 24 -12 -7 -6 -4 29 -29
right_child=3 2 27 10 5 25 -8 -9 9 -11 14 21 13 -15 22 -17 17 18 -20 -21 -22 -23 -24 -25 -26 -27 -28 28 -30 -31
leaf_value=-0.037730378789896324 -0.039929403430205505 -0.067794909263603639 -0.0015353270838376304 0.089836603289193573 0.17008136185309364 0.056722815866474853 0.0096541972070277714 0.018853587855853164 -0.07259015134921655 0.028967646356730489 0.02075324200250445 -0.035152362238119406 -0.033916904556296479 0.27412922619236041 0.05319593983350808 -0.055463546980450286 0.015007190357634263 -0.23497998009572174 -0.57949946318975021 -0.11132437221446699 -0.16120880104588689 -0.21993111180759728 -0.077376422123562244 0.16079385757079051 -0.048530416028135202 -0.040818440986480659 0.051312939679706786 -0.034198644738197496 -0.055119288565417618 0.020168065822596528
leaf_weight=1127.9799156351946 721.26969713787548 217.32946531800553 606.26350608747452 197.42665827507153 83.37933043204248 121.65821266034618 1445.5461880706716 117.41229775361717 145.65926991403103 422.0663992613554 1182.6854803161696 421.13837294373661 205.49254469026346 14.912753105163572 1652.5721421446651 372.11085956916213 38.924013409763575 139.98080934630707 7.7065055146813384 175.23940391442738 76.715162448817864 31.799347138730809 61.392939425073564 42.731599405407906 284.09257853589952 636.59839582210407 303.64545053429902 1765.549346600892 3282.1148812542669 471.8080059105996
leaf_count=13468 95245 19538 1066 6881 176 171 9324 113 1496 954 5802 25627 7100 1 6645 938 38 1086 100 1074 2653 403 408 29 1962 2415 622 38719 13856 974
internal_value=0 -0.035908 -0.0447768 0.00984202 -0.011484 0.00719839 -0.0111145 -0.0836918 0.0329039 0.00291134 0.0229212 -0.00797362 0.0355514 -0.0130743 0.0312669 -0.0963483 -0.122616 -0.155542 -0.176099 -0.166236 -0.0515887 -0.0481251 0.0485189 0.0116782 0.00733405 -0.0251685 0.0769 -0.0379877 -0.0419917 -0.0227339
internal_weight=0 9767.97 7194.44 6605.24 2510.99 1713.01 2573.53 1068.7 954.75 567.726 4094.24 870.77 417.832 220.405 3223.47 951.291 579.18 361.851 322.927 315.22 797.985 452.938 1713.97 1509.51 1466.78 758.257 387.025 6125.74 5519.47 2237.36
internal_count=258884 100294 77502 158590 103732 5834 22792 22887 3248 2450 54858 40012 13982 7101 14846 22774 21836 2298 2260 2160 97898 26030 7053 7793 7764 2586 798 54615 53549 39693
shrinkage=0.05


Tree=11
num_leaves=31
num_cat=0
split_feature=21 5 21 5 0 1 21 3 5 5 0 3 3 6 20 4 18 3 6 4 1 14 10 10 1 8 0 10 12 7
split_gain=2904.44 735.465 705.353 645.057 593.224 671.477 803.112 1166.97 646.317 618.608 576.541 502.22 8019.59 501.2 499.223 546.924 496.414 480.815 450.432 555.874 545.15 393.149 389.676 383.878 507.016 406.772 493.335 724.95 399.033 384.332
threshold=4.5000000000000009 11.500000000000002 9.5000000000000018 34.500000000000007 67.500000000000014 18.500000000000004 5.5000000000000009 23.515000000000004 23.500000000000004 27.500000000000004 80.500000000000014 24.465000000000003 24.515000000000004 1.0000000180025095e-35 1.0000000180025095e-35 3.5000000000000004 2.5000000000000004 28.865000000000006 1.0000000180025095e-35 1.0000000180025095e-35 2.5000000000000004 17.500000000000004 0.12999999895691874 1.1050000190734866 3.5000000000000004 11.500000000000002 67.500000000000014 1.9049999713897707 8.5000000000000018 1.0000000180025095e-35
decision_type=2 2 2 2 2 2 2 10 2 2 2 10 10 2 2 2 2 8 2 2 2 2 8 8 2 2 2 8 2 2
left_child=1 13 4 16 8 10 14 22 11 -9 17 -2 -13 -1 15 -7 -3 18 19 -6 -20 23 -8 -5 28 29 27 -27 -25 -26
right_child=2 3 -4 21 5 6 7 9 -10 -11 -12 12 -14 -15 -16 -17 -18 -19 20 -21 -22 -23 -24 24 25 26 -28 -29 -30 -31
leaf_value=-0.035021067609978244 -0.036476009665563372 -0.10561156803320537 -0.026394734919243906 0.00041427501501917929 0.10093540339401259 -0.079178046106147787 0.17097667783307297 -0.061302018563552885 -0.049030300392499067 0.093852025599293135 0.021796605214773054 4.2021117876737906 0.052816361478842257 0.0092251481561947957 -0.019382728947222327 -0.29450442364987556 -0.008747674853820199 0.017217664721413638 0.029400548476558732 -0.064589278130449984 0.14312714765868192 -0.41581201223703507 -0.051286768129350305 -0.032352102587971554 -0.092833839868718876 -0.62682025321538837 -0.048730338139466228 0.023053820102333242 0.0188307968237067 -0.044863827486318918
leaf_weight=1153.7885893974453 181.96604245179333 607.89537445618771 1147.6261607959168 652.91260151937604 112.3877815855667 116.3276000842452 20.726437225937843 75.198170652613044 633.72153187775984 440.99758074898273 1979.4930185973644 1.1692948420532037 284.65168233134318 1437.3523079582956 245.95898050069809 39.504472238942981 169.05310514941812 333.11419162573293 142.95427249372005 92.440377103164792 400.83419026620686 6.8195297196507445 406.11894067749381 1909.5360392765142 872.56955933687277 4.3418406983837485 1507.1065116878599 368.72344025364146 475.65816785511561 800.71106246672571
leaf_count=13468 20545 17318 47650 1102 484 340 2 540 64789 1297 5827 37 6814 9324 409 290 260 4483 913 1660 1180 76 1330 42838 7280 74 3506 2063 1019 1966
internal_value=0 -0.0333922 0.00926456 -0.0414429 0.016695 0.0248998 -0.00454946 0.0206713 -0.0161244 0.0712496 0.0378372 0.0284539 0.0697911 -0.0104769 -0.063745 -0.133765 -0.0845353 0.0671904 0.0894269 0.026233 0.11323 -0.0363689 -0.0404943 -0.0359763 -0.0399772 -0.0519466 -0.0359876 0.0154904 -0.0221452 -0.0698789
internal_weight=0 9966.47 6655.19 7375.33 5507.56 4406.06 1344.83 943.041 1101.51 516.196 3061.22 467.787 285.821 2591.14 401.791 155.832 776.948 1081.73 748.617 204.828 543.788 6598.38 426.845 6591.56 5938.65 3553.45 1880.17 373.065 2385.19 1673.28
internal_count=258884 100294 158590 77502 110940 18755 4208 3169 92185 1837 14547 27396 6851 22792 1039 630 17578 8720 4237 2144 2093 59924 1332 59848 58746 14889 5643 2137 43857 9246
shrinkage=0.05


Tree=12
num_leaves=31
num_cat=0
split_feature=21 5 0 9 0 20 16 0 5 3 8 3 10 16 0 10 3 10 3 1 4 21 8 4 0 20 12 1 10 4
split_gain=2523.59 654.82 652.517 605.631 657.661 595.954 513.179 486.611 477.937 432.322 431.99 507.854 732.083 428.975 422.296 460.755 418.681 415.182 407.45 401.817 400.234 363.943 677.034 393.961 363.197 345.393 341.813 482.059 335.585 330.391
threshold=4.5000000000000009 2.5000000000000004 70.500000000000014 2.5000000000000004 80.500000000000014 17.500000000000004 12.500000000000002 67.500000000000014 36.500000000000007 28.235000000000003 12.500000000000002 32.185000000000009 0.72500002384185802 3.5000000000000004 91.500000000000014 1.0850000381469729 22.325000000000003 0.32500000298023229 24.685000000000006 33.500000000000007 2.5000000000000004 3.5000000000000004 20.500000000000004 21.500000000000004 51.500000000000007 1.0000000180025095e-35 2.5000000000000004 6.5000000000000009 1.2849999666213991 3.5000000000000004
decision_type=2 2 2 2 2 2 2 2 2 8 2 10 10 2 2 8 10 10 10 2 2 2 2 2 2 2 2 2 8 2
left_child=1 -1 5 4 9 16 -5 10 26 13 19 12 -12 25 15 -9 -2 -18 -8 24 -10 -17 23 -23 -3 -4 27 -6 -21 -13
right_child=2 7 3 6 8 -7 18 14 20 -11 11 29 -14 -15 -16 21 17 -19 -20 28 -22 22 -24 -25 -26 -27 -28 -29 -30 -31
leaf_value=0.028391723633640027 -0.051757022239847877 -0.076268294029727568 0.1053284353248921 -0.021259755357104851 -0.032898463501753086 -0.22198101890370206 -0.0070043722942941394 0.00022841778815981778 0.040089935550371172 0.017029362581951115 0.0096351987512974593 0.1488119233592605 -0.35998303118673486 -0.0036127213080407207 -0.010953467688856166 -0.054117891669270439 0.011855863026996732 -0.094473003933145075 0.11367734599847856 -0.60457421184825322 -0.033780918815301854 -0.02343596103254263 -0.25036683907281254 0.17102633579921381 -0.0084610274262931148 -0.14126510452760188 -0.069107888443449575 0.063219505613957103 -0.13861430506863093 -0.042603145257523893
leaf_weight=442.98277132073417 511.89532753219828 255.5734129215125 606.66200824640691 1312.1856802189723 344.95052397018299 35.214583261520602 139.89827464753762 545.83292158693075 1350.03603712935 376.43969425139949 493.09170161816292 107.09285766282119 13.770691847428678 120.2624316259753 1141.463854521513 4858.2771976239746 1052.430059232749 100.58110181312077 139.86538776755333 4.6095252260565758 212.17973215365782 1323.4082309168298 32.552587101701647 26.567756674485281 868.84445597953163 14.540422852151094 229.46029597939923 209.77425705408677 23.893826583400372 28.553903810912743
leaf_count=2483 94668 51847 3059 4913 1667 294 338 765 3160 5076 3370 561 173 1173 1833 13308 40478 799 229 67 961 3742 219 18 21322 158 1225 392 209 377
internal_value=0 -0.0310599 0.00836528 0.0173755 0.029106 -0.0184316 -0.00815172 -0.0337684 0.0140689 0.0606678 -0.010264 0.0225896 -0.000406775 0.0828228 -0.0390913 -0.0438239 -0.0141263 0.00258043 0.0533294 -0.0285729 0.0300568 -0.0476768 -0.0250423 -0.0196089 -0.0238732 0.0995564 -0.0177816 0.00344943 -0.213969 0.108519
internal_weight=0 10166.5 6756.38 5056.25 3464.31 1700.12 1591.95 9723.53 2346.4 1117.9 1795.43 642.509 506.862 741.465 7928.1 6786.64 1664.91 1153.01 279.764 1152.92 1562.22 6240.81 1382.53 1349.98 1124.42 621.202 784.185 554.725 28.5034 135.647
internal_count=258884 100294 158590 22351 16871 136239 5480 97811 7405 9466 77926 4481 3543 4390 19885 18052 135945 41277 567 73445 4121 17287 3979 3760 73169 3217 3284 2059 276 938
shrinkage=0.05


Tree=13
num_leaves=31
num_cat=0
split_feature=21 6 21 5 5 0 1 21 3 5 5 0 2 14 0 11 3 18 3 20 0 3 6 4 1 2 13 10 0 20
split_gain=2220.9 614.049 591.022 565.305 533.573 511.206 550.524 676.637 980.88 511.085 504.76 430.794 429.19 599.507 406.728 401.687 367.538 356.55 366.685 363.632 354.345 351.172 355.055 469.81 432.548 332.71 330.309 328.042 327.047 317.685
threshold=4.5000000000000009 1.0000000180025095e-35 9.5000000000000018 11.500000000000002 37.500000000000007 67.500000000000014 18.500000000000004 5.5000000000000009 23.515000000000004 27.500000000000004 23.500000000000004 80.500000000000014 1.0000000180025095e-35 2.5000000000000004 74.500000000000014 21.500000000000004 23.000000000000004 30.500000000000004 34.895000000000003 16.500000000000004 83.500000000000014 28.865000000000006 1.0000000180025095e-35 1.0000000180025095e-35 2.5000000000000004 1.0000000180025095e-35 7.5000000000000009 0.12999999895691874 70.500000000000014 1.0000000180025095e-35
decision_type=2 2 2 2 2 2 2 2 10 2 2 2 2 2 2 2 10 2 8 2 2 8 2 2 2 2 2 8 2 2
left_child=1 17 5 -3 12 10 11 14 27 -10 16 21 13 -5 -8 -6 -2 18 -1 26 -13 22 23 -7 -24 -4 -20 -9 -27 -16
right_child=2 3 25 4 15 6 7 8 9 -11 -12 20 -14 -15 29 -17 -18 -19 19 -21 -22 -23 24 -25 -26 28 -28 -29 -30 -31
leaf_value=-0.053253354181208301 -0.058925733683410433 0.0097161722802826846 -0.043309643716019107 -0.17432335790199077 -0.018296574564304533 0.085702388381379391 -0.18426021956065264 0.15052320218314669 -0.06052137463175316 0.082979869280756013 -0.045536073560170386 -0.068781328328738331 -0.023274339200603247 -0.036744820163915747 -0.1012525053233474 -0.48309782515189775 0.044773829028912887 0.016985071851645134 -0.025093313525672806 -0.43991914741564275 0.024673526382654257 0.015542753499828286 0.022702723530415633 -0.064579608144897396 0.12150296605461162 -0.10717780426278539 0.17834075426065885 -0.04655329517486323 0.033300922017866441 -0.0037711907012201642
leaf_weight=3382.6721955082612 109.59269411070272 1453.7210998320952 780.12708008335903 169.74422092130408 3164.2651071341243 120.63315860880539 54.694537371397018 22.237149015069008 71.539013082161546 467.64246386475861 626.5891108623473 107.18050526082516 257.05600866116583 148.418048966676 128.9874392002821 4.6551293712109318 387.79280914680567 251.56823113188148 1516.4792202612152 5.2331136241555205 1890.1523463279009 338.24785106210038 148.44267242494971 91.414361959556118 436.61355561809614 47.741502691642381 20.219262139871716 418.59189326502383 313.46189250424504 237.40983268618584
leaf_count=24235 19246 9324 45005 10119 21520 484 280 2 540 1297 64789 1627 685 429 439 57 8150 266 33585 60 4200 4483 913 1660 1180 1432 14 1330 1213 320
internal_value=0 -0.0288858 0.0078814 -0.0167466 -0.0270211 0.0145025 0.0219858 -0.0040668 0.0187096 0.06394 -0.015683 0.0336379 -0.0713239 -0.110145 -0.0570746 -0.0189794 0.0219249 -0.0410758 -0.0440418 -0.0238336 0.0196586 0.0582306 0.0763451 0.0209153 0.096435 -0.0249404 -0.0224166 -0.036612 0.0147334 -0.0380888
internal_weight=0 10374 6799.09 5197.86 3744.14 5657.76 4533.79 1401.1 980.011 539.181 1123.97 3132.68 575.218 318.162 421.092 3168.92 497.386 5176.17 4924.6 1541.93 1997.33 1135.35 797.104 212.048 585.056 1141.33 1536.7 440.829 361.203 366.397
internal_count=258884 100294 158590 42134 32810 110940 18755 4208 3169 1837 92185 14547 11233 10548 1039 21577 27396 58160 57894 33659 5827 8720 4237 2144 2093 47650 33599 1332 2645 759
shrinkage=0.05


Tree=14
num_leaves=31
num_cat=0
split_feature=21 5 0 9 10 4 18 3 16 8 11 3 16 13 1 20 11 0 0 16 7 7 1 0 8 1 1 12 1 21
split_gain=1966.26 543.776 536.48 498.157 452.793 435.622 453.359 416.483 408.226 485.067 383.098 367.607 365.99 750.605 371.716 355.122 334.48 321.395 318.749 315.579 443.385 367.114 321.81 311.192 523.895 2228.5 6850.48 310.757 298.557 451.003
threshold=4.5000000000000009 2.5000000000000004 52.500000000000007 2.5000000000000004 1.0950000286102297 1.5000000000000002 1.0000000180025095e-35 40.545000000000009 3.5000000000000004 14.500000000000002 6.5000000000000009 23.625000000000004 7.5000000000000009 1.0000000180025095e-35 37.500000000000007 1.5000000000000002 5.5000000000000009 98.500000000000014 39.500000000000007 6.5000000000000009 2.5000000000000004 1.5000000000000002 16.500000000000004 60.500000000000007 3.5000000000000004 2.5000000000000004 3.5000000000000004 81.500000000000014 1.0000000180025095e-35 1.5000000000000002
decision_type=2 2 2 2 8 2 2 8 2 2 2 10 2 2 2 2 2 2 2 2 2 2 2 2 2 2 2 2 2 2
left_child=1 -1 -2 4 -4 8 12 19 9 11 17 -3 13 16 15 -15 23 -5 -8 20 -6 -21 -23 24 25 -7 -27 -12 29 -13
right_child=2 5 3 10 7 6 18 -9 -10 -11 27 28 -14 14 -16 -17 -18 -19 -20 21 -22 22 -24 -25 -26 26 -28 -29 -30 -31
leaf_value=0.027471653902459134 -0.039850125177738227 -0.010433670891450055 -0.12274065264971704 -0.02430904760161972 0.038529803405273101 -0.050277478779809141 0.18205088820931159 -0.0082670005768601656 -0.055266327967390776 0.027115186204729299 0.035051258768547693 -0.14964727839482042 -0.018814258039190995 -0.12779086015537205 -0.042192533596999392 -0.28874620218236235 0.082717364765387005 0.17532859699540915 -0.019845216615426486 -0.058468013840423022 -0.090976139140897097 0.10821477956425281 -0.13324453560029345 -0.057460321542168818 -0.012840772010506452 4.839085010378902 -0.11188813567908369 -0.16859933187952506 -0.055159933979320987 0.01232307377937218
leaf_weight=439.17863164679147 552.09392885596026 2875.862244032789 53.873310846392997 1489.8460370380199 3008.0051145027392 10.234945347299798 19.844657583162189 843.68201782717369 725.73474027193151 597.98181926296093 515.10509485099465 48.414049463463016 661.21048044471536 287.34257111581974 114.25489018671215 38.9099310785532 48.039844814687967 20.436715647578239 1313.7944417139515 192.90998891345225 67.575600048527122 74.185820738784969 16.952387952711433 1731.3661979075987 172.50412018166389 1.0226086415350431 2.2056848739739507 19.439182290108874 1067.4165977250086 382.78431269805878
leaf_count=2483 97866 51491 488 7473 24164 2201 24 24121 4449 1334 1042 1605 2193 2838 297 311 40 21 2388 2673 430 28 128 7344 9175 54 77 156 7269 4721
internal_value=0 -0.0269931 0.00741104 0.0115514 0.0212941 -0.0293617 -0.0411783 0.0231402 -0.0202357 -0.0151229 -0.00873225 -0.0208968 -0.0517607 -0.0608154 -0.119806 -0.146987 -0.0475936 -0.0216076 -0.016841 0.0310273 0.0356843 -0.0193977 0.0633015 -0.0508586 0.0106042 0.311003 1.4564 0.0276453 -0.0409756 -0.00586262
internal_weight=0 10538.1 6854.11 6302.01 4257.18 10098.9 4400.73 4203.31 5698.19 4972.46 2044.83 4374.48 3067.09 2405.88 440.507 326.253 1965.37 1510.28 1333.64 3359.63 3075.58 284.048 91.1382 1917.33 185.967 13.4632 3.22829 534.544 1498.61 431.198
internal_count=258884 100294 158590 60724 52032 97811 26942 51544 70869 66420 8692 65086 24530 22337 3446 3149 18891 7494 2412 27423 24594 2829 156 18851 11507 2332 131 1198 13595 6326
shrinkage=0.05


Tree=15
num_leaves=31
num_cat=0
split_feature=21 6 21 5 10 5 0 4 5 5 5 2 14 19 3 17 3 10 18 0 10 2 0 20 19 0 3 5 21 0
split_gain=1760.2 527.418 517.773 479.386 469.876 461.195 404.651 392.689 417.68 396.25 467.519 366.337 539.383 326.418 301.008 345.741 318.5 306.866 299.784 308.306 311.958 292.03 297.6 290.529 288.897 472.747 283.971 413.807 303.319 665.428
threshold=4.5000000000000009 1.0000000180025095e-35 9.5000000000000018 11.500000000000002 1.3049999475479128 37.500000000000007 52.500000000000007 1.0000000180025095e-35 44.500000000000007 6.5000000000000009 2.5000000000000004 1.0000000180025095e-35 2.5000000000000004 5.5000000000000009 18.135000000000002 1.0000000180025095e-35 36.405000000000008 1.2050000429153445 30.500000000000004 92.500000000000014 0.76499998569488536 1.0000000180025095e-35 70.500000000000014 18.500000000000004 3.5000000000000004 72.500000000000014 20.515000000000004 41.500000000000007 5.5000000000000009 54.500000000000007
decision_type=2 2 2 2 10 2 2 2 2 2 2 2 2 2 10 2 10 10 2 2 8 2 2 2 2 2 10 2 2 2
left_child=1 18 4 -3 6 11 -2 8 9 10 -8 12 -5 26 17 -16 -17 -7 19 20 -1 -4 -23 -11 -22 -26 27 -9 29 -28
right_child=2 3 21 5 -6 14 7 13 -10 23 -12 -13 -14 -15 15 16 -18 -19 -20 -21 24 22 -24 -25 25 -27 28 -29 -30 -31
leaf_value=0.023035794871692605 -0.033082399778065395 0.010131685365347155 -0.041356339193408011 -0.15955742117779345 -0.085068222598257012 0.014851857998422849 0.077583489402951109 -0.059394601457205168 -0.10141889179933222 0.050638009832587982 -0.07317083105057566 -0.020183747103393306 -0.031545925976861559 -0.15861763617544966 -0.015264937517638298 -0.057224199398964552 -0.38592537239913377 -0.41321358314606721 0.016909029505922803 -0.009166746785309203 -0.045178461159877822 -0.10636994833516847 0.030005249628450865 -0.16078219774044866 -0.071860170132882747 -0.42233950619977878 0.20224910438917476 0.019245107370633237 0.030271423617613365 -0.014660773841655173
leaf_weight=167.27971313893795 402.69488596916199 1466.2900745004881 768.3704662094824 174.15978810272645 119.30444908665959 720.1602309201844 78.209443123545498 327.7400012150174 53.442133744014427 1683.067530229222 150.18456698849332 265.49184263963252 155.99365212209523 29.063482163008302 2061.4379137880169 473.59584934229497 7.48613875824958 4.2111472729593507 251.93991661258042 744.3007095400244 4216.9186294683022 45.72569543030113 319.68813192471862 16.407791406381875 35.004888336639851 13.26854684948921 36.857721343403682 341.68562398920767 1626.9415832248051 868.69863723870367
leaf_count=202 67549 9324 45005 10119 740 11248 419 8102 442 11104 2431 685 429 222 8653 1525 97 54 266 1167 56266 1432 1213 108 128 131 285 2568 13393 3577
internal_value=0 -0.0253828 0.00701744 -0.0142085 0.0131219 -0.0234484 0.0152082 0.0189391 0.0364646 0.0402868 -0.0215477 -0.0639106 -0.0990735 0.00819201 -0.016071 -0.0241721 -0.0623391 0.0123633 -0.0363516 -0.0389437 -0.0439438 -0.0238568 0.0129401 0.0485968 -0.0465707 -0.168194 0.00970613 -0.0192556 0.0173617 -0.00583216
internal_weight=0 10757.5 6868.08 5328.83 5734.3 3862.54 5614.99 5212.3 1981.31 1927.87 228.394 595.645 330.153 3230.99 3266.89 2542.52 481.082 724.371 5428.71 5176.77 4432.47 1133.78 365.414 1699.48 4265.19 48.2734 3201.92 669.426 2532.5 905.556
internal_count=258884 100294 158590 42134 110940 32810 110200 42651 14504 14062 2850 11233 10548 28147 21577 10275 1622 11302 58160 57894 56727 47650 2645 11212 56525 259 27925 10670 17255 3862
shrinkage=0.05


Tree=16
num_leaves=31
num_cat=0
split_feature=21 0 5 5 20 9 0 16 5 18 2 1 21 4 3 21 3 8 10 20 6 3 1 3 3 8 1 12 1 0
split_gain=1562.1 470.153 465.941 467.02 423.424 423.062 474.065 417.696 383.58 360.112 353.997 343.384 402.565 340.28 336.784 326.426 321.388 389.016 318.018 435.755 304.413 289.293 421.536 406.862 365.95 374.469 319.599 288.539 391.388 287.747
threshold=4.5000000000000009 70.500000000000014 11.500000000000002 36.500000000000007 16.500000000000004 2.5000000000000004 80.500000000000014 12.500000000000002 36.500000000000007 8.5000000000000018 1.0000000180025095e-35 20.500000000000004 10.500000000000002 2.5000000000000004 22.325000000000003 7.5000000000000009 24.845000000000002 31.500000000000004 0.59499999880790722 5.5000000000000009 1.0000000180025095e-35 28.865000000000006 25.500000000000004 28.045000000000005 28.100000000000005 5.5000000000000009 29.500000000000004 2.5000000000000004 6.5000000000000009 67.500000000000014
decision_type=2 2 2 2 2 2 2 2 2 2 2 2 2 2 10 2 10 2 10 2 2 10 2 10 10 2 2 2 2 2
left_child=2 4 20 9 14 6 11 -7 27 10 16 -3 -13 -10 -2 -9 -4 -18 21 -20 -1 23 -23 -16 25 -25 -24 28 -8 -26
right_child=1 5 3 -5 -6 7 8 15 13 -11 -12 12 -14 -15 18 -17 17 -19 19 -21 -22 22 26 24 29 -27 -28 -29 -30 -31
leaf_value=-0.023688866234674311 -0.047923323315578192 0.056646599663335274 -0.068999124695695829 -0.024752422917111914 -0.17412561433905532 -0.01875263454951355 -0.031794828462494033 0.075092917371296919 0.033995041256095676 0.0075426417407771064 -0.028877935943541835 -0.13284850910275645 0.10426189915549929 -0.034091943769745434 0.0087736196236445404 -0.051011235633919308 -0.16880587067643069 0.06509701197543602 -0.19252605084532098 0.021672705762804664 0.0096846567651845544 -0.078165533794404982 0.1227720841996522 0.33395135279439742 -0.099547993907857124 -0.13777948310476251 -0.12561396231204797 -0.065106170328511084 0.05424354777262639 0.10343225484620336
leaf_weight=1286.3010268406942 473.57443423860241 1111.3480718634091 496.94220188917825 6929.2927866368555 41.481646887259558 1346.9559478471056 340.14491105917841 229.43576345266774 1378.7485743933357 177.73341318592429 355.24727210775018 51.913502506911755 27.322135478258133 211.67836315138265 685.72298609663267 66.102757806424052 174.00640131672844 19.798662459477782 47.565138692967594 47.409895468503237 1457.5031684492715 179.17796087334864 55.492005958221853 25.527149247936908 22.353475688258186 5.0370670058764508 16.893145583337173 228.39263519295491 216.19011714542285 79.757021201774478
leaf_count=13468 94657 9090 16674 54615 313 4913 1667 285 3160 215 1036 329 47 961 21777 282 4948 14 701 41 9324 15689 298 98 1970 217 380 1225 392 98
internal_value=0 0.0066358 -0.0237834 -0.0297814 -0.0163642 0.0140548 0.0237265 -0.00694185 0.0108188 -0.0582575 -0.0694381 0.0494767 -0.0510878 0.024933 -0.0123702 0.0468873 -0.0902979 -0.144911 0.00208302 -0.0856017 -0.00596092 0.00986635 -0.0370272 0.0242807 0.104429 0.256209 0.0648041 -0.0177867 0.00163943 0.0589969
internal_weight=0 6888.22 10896.8 8153.02 1679.99 5208.23 3565.74 1642.49 2375.15 1223.73 1045.99 1190.58 79.2356 1590.43 1638.51 295.539 690.747 193.805 1164.94 94.975 2743.8 1069.96 251.563 818.398 132.675 30.5642 72.3852 784.728 556.335 102.11
internal_count=258884 158590 100294 77502 136239 22351 16871 5480 7405 22887 22672 9466 376 4121 135926 567 21636 4962 41269 742 22792 40527 16367 24160 2383 315 678 3284 2059 2068
shrinkage=0.05


Tree=17
num_leaves=31
num_cat=0
split_feature=21 21 4 11 1 10 0 5 4 6 8 12 3 5 5 21 3 17 8 0 0 8 17 20 3 8 9 9 3 9
split_gain=1387.96 438.971 434.945 394.229 491.615 393.596 343.07 365.195 339.99 475.578 371.019 375.529 335.797 335.231 329.775 324.362 336.203 318.114 310.25 395.454 296.271 292.595 314.14 443.849 303.803 281.474 270.703 307.259 266.498 263.48
threshold=4.5000000000000009 9.5000000000000018 1.5000000000000002 2.5000000000000004 8.5000000000000018 1.3049999475479128 67.500000000000014 23.500000000000004 1.0000000180025095e-35 1.0000000180025095e-35 6.5000000000000009 14.500000000000002 23.000000000000004 11.500000000000002 44.500000000000007 5.5000000000000009 24.805000000000003 3.5000000000000004 13.500000000000002 87.500000000000014 65.500000000000014 9.5000000000000018 4.5000000000000009 7.5000000000000009 24.225000000000005 25.500000000000004 18.500000000000004 8.5000000000000018 15.380000000000001 1.0000000180025095e-35
decision_type=2 2 2 2 2 10 2 2 2 2 2 2 10 2 2 2 8 2 2 2 2 2 2 2 10 2 2 2 8 2
left_child=2 5 13 21 -5 6 7 12 14 26 -11 15 -2 -1 25 16 -12 -17 19 28 -20 24 29 -24 -4 -8 27 -10 -15 -23
right_child=1 -3 3 4 -6 -7 8 -9 9 10 11 -13 -14 18 -16 17 -18 -19 20 -21 -22 22 23 -25 -26 -27 -28 -29 -30 -31
leaf_value=0.0050848063113241755 -0.065207846287991963 -0.022320979894212136 -0.091147601590137461 0.15711714413840069 -0.015236632270922507 -0.077243721316713088 0.036762857587932816 -0.03828366038351854 -0.011471014747511563 -0.04498387105459839 0.053609346800794926 -0.0035994356989178704 0.041135332718345075 0.11436363982370426 -0.093083396157214282 0.086460144940206193 -0.063903793652169957 -0.044034607971974032 0.058784364619700359 -0.0042858147386903396 -0.010260312730325113 0.0045296249343805463 -0.13184851127002348 0.0033082785602653458 -0.04157376751677095 0.16843084959416241 0.085972449787348512 -0.11640378494328923 -0.040948675361981421 -0.03573917046201016
leaf_weight=1736.4670770837693 91.969200340332463 1124.8279887124663 507.16518535785144 42.85343449935317 1198.1202964568511 121.46001396834617 1742.0510110543109 586.73626145214075 1226.3035046628211 151.15508074872196 160.07810220867395 379.46020128810778 384.92718640179373 27.94840300292708 47.921509417239577 565.26987017411739 98.204820476472378 50.908102231100202 204.80315200914629 1239.0692800357938 643.71691125445068 562.68001186882611 166.98343122331426 95.473907481878996 791.14209557103459 41.558198280632496 66.519945755600929 73.970707111060619 2349.9527614376275 1460.7684067366645
leaf_count=17472 19224 47650 9988 33 2084 740 5912 64574 6729 1379 215 1100 8102 62 267 1532 364 359 1198 1878 980 2841 922 113 6987 4 40 399 51171 4565
internal_value=0 0.00626049 -0.0223155 -0.0335735 -0.00928489 0.0118145 0.0137232 -0.0118701 0.0196367 0.0085912 0.0290178 0.0379384 0.0206271 -0.0135566 0.0363531 0.0559632 0.00892828 0.0756788 -0.0208056 -0.0271889 0.00640466 -0.0419831 -0.0312168 -0.0826826 -0.0609391 0.0398307 -0.0124075 -0.0174405 -0.0391232 -0.0245412
internal_weight=0 6913.32 11027.1 4825.19 1240.97 5788.49 5667.03 1063.63 4603.4 2771.87 1405.08 1253.92 476.896 6201.96 1831.53 874.461 258.283 616.178 4465.49 3616.97 848.52 3584.21 2285.91 262.457 1298.31 1783.61 1366.79 1300.27 2377.9 2023.45
internal_count=258884 158590 100294 27533 2117 110940 110200 91900 18300 12117 4949 3570 27326 72761 6183 2470 579 1891 55289 53111 2178 25416 8441 1035 16975 5916 7168 7128 51233 7406
shrinkage=0.05


Tree=18
num_leaves=31
num_cat=0
split_feature=21 6 5 21 19 10 14 0 17 4 5 5 5 1 5 1 3 21 8 3 3 1 1 0 5 8 1 21 3 3
split_gain=1232.48 417.755 402.975 396.738 363.699 326.743 306.525 288.186 287.442 272.927 335.308 327.82 405.272 261.208 411.656 379.736 366.09 419.714 490.502 507.765 318.857 276.201 280.975 268.944 264.981 255.264 362.175 443.441 338.009 328.871
threshold=4.5000000000000009 1.0000000180025095e-35 2.5000000000000004 9.5000000000000018 6.5000000000000009 1.3049999475479128 15.500000000000002 52.500000000000007 1.0000000180025095e-35 1.0000000180025095e-35 44.500000000000007 6.5000000000000009 2.5000000000000004 1.5000000000000002 42.500000000000007 4.5000000000000009 24.285000000000004 6.5000000000000009 18.500000000000004 25.195000000000004 33.875000000000007 33.500000000000007 7.5000000000000009 85.500000000000014 4.5000000000000009 12.500000000000002 6.5000000000000009 10.500000000000002 22.595000000000002 21.885000000000002
decision_type=2 2 2 2 2 10 2 2 2 2 2 2 2 2 2 2 10 2 2 10 10 2 2 2 2 2 2 2 8 10
left_child=1 -1 -3 4 5 7 8 -2 -4 10 11 12 -9 14 -11 24 -17 18 19 -18 21 22 -19 -16 -15 26 28 -28 29 -5
right_child=3 2 6 25 -6 -7 -8 9 -10 13 -12 -13 -14 15 23 16 17 20 -20 -21 -22 -23 -24 -25 -26 -27 27 -29 -30 -31
leaf_value=-0.030442978567345503 -0.028233379804114962 0.044234644907467938 -0.0082213187309281097 -0.076353194146383224 -0.14124971058424646 -0.069651516980118386 -0.29177786081186829 0.068322410696516803 -0.038430067075663224 -0.060662090655593297 -0.095592731255359109 0.042064546712867634 -0.071186891221599019 0.11449585698894665 -0.079956049035303275 -0.017829909262008472 0.040826546245580464 -0.080459665821962942 0.055224659492158636 -0.072585379862583857 -0.084373400674670251 -0.048601595910724299 0.080243347275441912 0.073784144094528978 0.031581453772818506 -0.063074058094292271 -0.071335864389213119 0.051565131813976983 -0.06351365288819541 0.12984714101218242
leaf_weight=5670.4072751531494 377.94498466420919 310.46175819030032 4205.310391617706 31.525677213445306 38.869588620262221 119.37087249569595 9.9417360788211209 80.624965936644003 968.87637122470187 305.78747460991144 50.664700566325337 1739.5332275548717 146.91710480023175 130.87412255164236 36.986917313421145 983.78081007278524 147.10714561375789 28.728202716622036 225.24256976903416 299.87794130656403 40.250611287192442 52.344836257630959 511.12762384838425 123.19384549558163 365.38267419929616 276.06065682775807 94.061764154117554 334.04264006152516 331.36226496391464 50.013952766777948
leaf_count=58160 67509 1440 37694 2286 283 709 80 419 2920 11848 438 11203 2421 606 1305 4371 251 549 366 2119 608 324 1960 109 3542 3521 1719 2714 36756 654
internal_value=0 -0.0209224 -0.0110972 0.00593133 0.0111827 0.0122103 -0.0144109 0.0139409 -0.013878 0.0169664 0.0314111 0.0346822 -0.0217546 0.00800045 -0.0266483 0.0137982 0.00520016 0.0225658 -0.00494168 -0.0352604 0.0518032 0.0610588 0.0716916 0.0382844 0.0534479 -0.0213561 -0.00766221 0.0245617 -0.0410726 0.0501239
internal_weight=0 11165 5494.59 6921.68 5804.61 5765.74 5184.13 5646.37 5174.19 5268.42 2017.74 1967.08 227.542 3250.68 465.968 2784.72 2288.46 1304.68 672.228 446.985 632.451 592.201 539.856 160.181 496.257 1117.07 841.006 428.104 412.902 81.5396
internal_count=258884 100294 42134 158590 110940 110657 40694 109948 40614 42439 14481 14043 2840 27958 13262 14696 10548 6177 2736 2370 3441 2833 2509 1414 4148 47650 44129 4433 39696 2940
shrinkage=0.05


Tree=19
num_leaves=31
num_cat=0
split_feature=21 6 0 0 17 3 1 8 0 12 3 0 10 4 16 1 0 5 10 7 5 10 20 2 12 8 0 0 1 15
split_gain=1111.82 529.794 437.827 466.234 403.98 399.852 720.716 408.421 511.922 366.432 361.76 357.146 348.583 317.506 486.795 382.755 335.115 383.838 301.415 292.429 292.409 291.931 297.419 362.119 434.309 371.651 342.902 303.549 838.389 306.011
threshold=3.5000000000000004 1.0000000180025095e-35 67.500000000000014 54.500000000000007 3.5000000000000004 28.235000000000003 18.500000000000004 8.5000000000000018 64.500000000000014 69.500000000000014 28.045000000000005 89.500000000000014 0.76499998569488536 1.5000000000000002 7.5000000000000009 24.500000000000004 70.500000000000014 4.5000000000000009 0.48999999463558203 2.5000000000000004 45.500000000000007 1.2649999856948855 1.5000000000000002 1.0000000180025095e-35 88.500000000000014 14.500000000000002 71.500000000000014 75.500000000000014 2.5000000000000004 1.5000000000000002
decision_type=2 2 2 2 2 8 2 2 2 2 10 2 8 2 2 2 2 2 8 2 2 8 2 2 2 2 2 2 2 2
left_child=2 9 3 12 -5 6 10 -7 -9 13 -3 21 -1 14 16 -15 -2 -18 -8 -13 -17 -4 23 24 25 26 -23 28 -28 -29
right_child=1 5 11 4 -6 7 18 8 -10 -11 -12 19 -14 15 -16 20 17 -19 -20 -21 -22 22 -24 -25 -26 -27 27 29 -30 -31
leaf_value=0.095143994155377762 -0.036592813631837827 0.03784824553218287 -0.00075525278480155598 0.020430625517123713 -0.17400237266325802 -0.034404804124353587 -0.30988229992985739 -0.14968349225962552 0.031771221294355077 -0.14054733866487054 0.14044923889953517 0.0021963696596113665 -0.067565515344769608 -0.042436942643385253 -0.11917324375324403 0.0069284912036107309 -0.076220244072150778 0.01824969957831617 -0.0053944027058854494 -0.06974422254292087 -0.19858976564208433 -0.13964117131682566 -0.012049300316532294 -0.020246210183990841 -0.42794821025890029 -0.019763990734522022 0.035978844764092986 -0.075778620325421278 -0.0866236805511722 -0.014003284789306864
leaf_weight=36.89546940359287 387.68680390727241 1896.177392142883 624.98814298026264 1187.3614399037324 27.330185241531581 708.31046360195614 8.1873026341199857 41.487687270040624 615.89233989047352 52.715411872486584 89.989941401057877 1310.9506104532629 305.26709648349788 1124.2552737227525 79.407321835053153 801.88279904425144 113.04363363923039 2201.6510129913222 1115.2012671837583 158.31678134948015 17.689144517411478 129.89432138513075 983.42659656330943 1286.2140315789729 7.6576728001236907 728.14844709238969 284.11657611525152 1397.3131271532038 273.832155931741 234.04725542862434
leaf_count=56 66811 17518 796 13008 494 51137 75 2252 2021 587 387 1746 46658 27180 1332 2384 811 7170 3177 427 101 1512 1454 2201 75 1254 970 4090 823 377
internal_value=0 0.00212662 -0.0225726 0.00153378 0.0160559 0.0144889 0.0243935 -0.00806307 0.0203195 -0.00945153 0.0424969 -0.0276313 -0.0500205 -0.00798912 0.00284474 -0.0234933 0.00643015 0.013636 -0.00761352 -0.00555539 0.00249271 -0.0330829 -0.0368774 -0.0425018 -0.0518718 -0.0509268 -0.0607108 -0.0560277 -0.0241925 -0.0669159
internal_weight=0 9253.58 8975.76 1556.85 1214.69 4475.25 3109.56 1365.69 657.38 4778.33 1986.17 7418.91 342.163 4725.62 2781.79 1943.83 2702.38 2314.69 1123.39 1469.27 819.572 5949.64 5324.65 4341.22 3055.01 3047.35 2319.2 2189.31 557.949 1631.36
internal_count=258884 182943 75941 60216 13502 76567 21157 55410 4273 106376 17905 15725 46714 105789 76124 29665 74792 7981 3252 2173 2485 13552 12756 11302 9101 9026 7772 6260 1793 4467
shrinkage=0.05


Tree=20
num_leaves=31
num_cat=0
split_feature=21 5 21 19 4 16 8 18 3 16 13 10 0 1 11 0 2 0 0 16 0 0 4 17 9 12 17 4 5 5
split_gain=987.137 353.693 349.172 318.208 292.777 312.524 377.718 311.678 289.348 287.224 505.443 286.051 255.117 252.704 248.417 245.513 244.105 255.855 242.757 235.966 256.64 269.915 244.775 354.486 235.205 357.661 228.826 227.492 303.461 282.137
threshold=4.5000000000000009 2.5000000000000004 9.5000000000000018 6.5000000000000009 1.5000000000000002 3.5000000000000004 14.500000000000002 1.0000000180025095e-35 23.625000000000004 7.5000000000000009 1.0000000180025095e-35 1.3049999475479128 65.500000000000014 37.500000000000007 5.5000000000000009 39.500000000000007 1.0000000180025095e-35 70.500000000000014 52.500000000000007 9.5000000000000018 79.500000000000014 78.500000000000014 3.5000000000000004 5.5000000000000009 5.5000000000000009 6.5000000000000009 20.500000000000004 1.0000000180025095e-35 44.500000000000007 6.5000000000000009
decision_type=2 2 2 2 2 2 2 2 10 2 2 10 2 2 2 2 2 2 2 2 2 2 2 2 2 2 2 2 2 2
left_child=1 -1 3 11 5 6 8 9 -3 10 14 18 -8 -12 -6 -9 24 -18 -2 20 21 -11 23 -21 -4 -26 -7 28 29 -20
right_child=2 4 16 -5 7 26 12 15 -10 19 13 -13 -14 -15 -16 -17 17 -19 27 22 -22 -23 -24 -25 25 -27 -28 -29 -30 -31
leaf_value=0.025439389830762934 -0.0263588218562925 -0.0042158711887508573 -0.055353026656313524 -0.13133914517278666 -0.037213446938424481 -0.04953045587123707 0.080145365518368442 0.1564570714876731 -0.030324638499880437 0.028700362339367593 -0.11025283881676631 -0.064678895472153608 0.008358277098487429 -0.029049937839649539 0.07493082924584886 -0.0125000485441358 -0.10420257156478174 0.027785318065109588 -0.021037096822473681 -0.30091669083312289 -0.076722144794400884 0.2486863339764761 -0.023314606780586378 0.0073927787005568547 0.1128735583815703 -0.032183366158230566 0.04981164928134213 0.0074817234028675536 -0.093554212193054598 0.038593349040718219
leaf_weight=440.89441674028058 367.80556107021403 3034.9581233674544 517.12189964985009 39.369551603333093 2154.1438357473817 747.5874594427878 171.2548180144513 21.827401515562087 1631.7048495771596 269.09453888516873 381.95173799787881 121.30281676194863 446.27317795529962 127.88989707897417 50.540318579412997 1438.4447925406275 41.381486565980595 325.73320154100657 223.63227240275592 20.079628869774751 56.347190581262112 14.705687731504439 349.38133506290615 17.404162485036068 58.066902122634929 158.45703941368265 62.839280389831401 3266.5748832390527 49.441661770339124 1755.6315757863922
leaf_count=2483 67509 51491 43773 283 18851 4418 812 24 13595 549 3149 709 522 297 40 2388 1432 1213 2840 348 166 16 1081 33 397 835 31 27958 438 11203
internal_value=0 -0.0184722 0.00544769 0.010329 -0.0202328 -0.0129161 -0.008482 -0.02933 -0.0133448 -0.0375427 -0.045018 0.0112933 0.0282665 -0.0898837 -0.0346426 -0.00997456 -0.0203779 0.0129075 0.0129206 -0.00963145 0.0207473 0.0400994 -0.0363417 -0.157765 -0.0370338 0.00671767 -0.0418276 0.0156489 0.0287995 0.0318558
internal_weight=0 11437.3 6924.52 5823.76 10996.4 6094.62 5284.19 4901.81 4666.66 3441.54 2714.53 5784.39 617.528 509.842 2204.68 1460.27 1100.76 367.115 5663.09 727.013 340.147 283.8 386.865 37.4838 733.646 216.524 810.427 5295.28 2028.71 1979.26
internal_count=258884 100294 158590 110940 97811 70869 66420 26942 65086 24530 22337 110657 1334 3446 18891 2412 47650 2645 109948 2193 731 565 1462 381 45005 1232 4449 42439 14481 14043
shrinkage=0.05


Tree=21
num_leaves=31
num_cat=0
split_feature=21 6 3 1 8 0 0 0 17 12 10 10 0 3 3 4 16 1 0 5 7 5 7 17 8 3 12 5 7 17
split_gain=885.468 478.17 352.607 629.625 369.355 456.778 350.662 432.699 355.251 325.56 299.507 296.027 294.229 284.53 272.278 270.074 442.823 346.398 295.743 318.495 316.602 345.227 258.556 246.538 257.698 307.145 352.333 259.58 243 242.491
threshold=3.5000000000000004 1.0000000180025095e-35 28.235000000000003 18.500000000000004 8.5000000000000018 64.500000000000014 67.500000000000014 54.500000000000007 3.5000000000000004 69.500000000000014 0.76499998569488536 0.91500002145767223 89.500000000000014 28.045000000000005 16.985000000000003 1.5000000000000002 7.5000000000000009 24.500000000000004 72.500000000000014 4.5000000000000009 2.5000000000000004 2.5000000000000004 1.0000000180025095e-35 1.0000000180025095e-35 25.500000000000004 24.905000000000005 20.500000000000004 41.500000000000007 2.5000000000000004 7.5000000000000009
decision_type=2 2 8 2 2 2 2 2 2 2 8 10 2 10 10 2 2 2 2 2 2 2 2 2 2 10 2 2 2 2
left_child=6 9 3 11 -4 -6 7 10 -9 15 -1 13 22 14 -3 16 18 23 20 -20 21 -2 -8 24 25 26 -17 -27 -14 -19
right_child=1 2 4 -5 5 -7 12 8 -10 -11 -12 -13 28 -15 -16 17 -18 29 19 -21 -22 -23 -24 -25 -26 27 -28 -29 -30 -31
leaf_value=0.084215650952858767 0.11928673533614786 0.16348647733362334 -0.032824138204010082 -0.0068783466122485206 -0.14230335795626375 0.03000451174829117 -0.036592431291776639 0.019889014323105955 -0.16045438561767311 -0.13249028355675407 -0.065436421288368171 -0.11120371800594382 0.0028910152246108475 0.12707314172567499 0.035085442398382585 -0.087592109366981571 -0.11544283616705862 -0.013154862568023043 -0.072751203753672722 0.017041375784603453 0.04807762146296584 -0.070318788277506677 -0.015193705652074917 -0.094338976067022448 0.13221294975752881 0.011372264938380561 0.017313995671117959 -0.087711873823956191 -0.060427800502924803 0.049235034892980839
leaf_weight=37.686972985509783 26.051365955499932 42.23774691671133 700.70068900147453 1131.38714504987 41.010372433287557 619.03602776257321 4007.271696558455 1184.6389079976361 27.951340718776919 52.7972441771999 296.2294523040764 31.946373507322278 1325.4281049743295 94.096539679332636 1834.7351420249324 348.21062278037425 77.526574604678899 613.3238041246077 103.47516161995009 2165.2409771197708 94.992862024344504 305.96255829872098 2179.3256185278296 176.27154204674298 23.889459130587056 385.57538224942982 103.92468348797411 79.776581300771795 171.08211881108582 208.75133329886012
leaf_count=56 1487 101 51137 3252 2252 2021 10166 13008 494 587 46658 312 1746 383 17109 15451 1332 2233 721 6628 174 65782 3386 2195 92 7508 317 1617 427 252
internal_value=0 0.00201374 0.0137122 0.0229391 -0.0075414 0.0192986 -0.0198695 0.00185322 0.0157319 -0.00902043 -0.0485462 0.0397812 -0.024242 0.0422283 0.0379749 -0.00763726 0.00237287 -0.0219489 0.00576114 0.012946 -0.0324124 -0.0554415 -0.0290544 -0.0400702 -0.0299085 -0.0341298 -0.0634791 -0.005614 -0.00434764 0.00268794
internal_weight=0 9260.92 4495.15 3134.4 1360.75 660.046 9229.61 1546.51 1212.59 4765.77 333.916 2003.02 7683.11 1971.07 1876.97 4712.97 2773.25 1939.72 2695.72 2268.72 427.007 332.014 6186.6 1117.65 941.377 917.487 452.135 465.352 1496.51 822.075
internal_count=258884 182943 76567 21157 55410 4273 75941 60216 13502 106376 46714 17905 15725 17593 17210 105789 76124 29665 74792 7349 67443 67269 13552 27180 24985 24893 15768 9125 2173 2485
shrinkage=0.05


Tree=22
num_leaves=31
num_cat=0
split_feature=21 5 5 3 0 21 11 18 0 12 8 13 0 16 18 12 1 1 12 12 4 7 19 8 3 6 15 8 15 3
split_gain=795.643 329.165 368.865 320.353 382.999 341.551 290.546 274.927 343.235 239.448 255.437 442.513 293.597 247.476 316.098 249.704 269.545 357.53 266.61 225.923 225.466 222.58 221.33 270.872 291.363 214.152 213.582 212.98 208.659 217.03
threshold=4.5000000000000009 11.500000000000002 36.500000000000007 22.215000000000003 77.500000000000014 7.5000000000000009 8.5000000000000018 21.500000000000004 81.500000000000014 81.500000000000014 25.500000000000004 4.5000000000000009 43.500000000000007 2.5000000000000004 25.500000000000004 28.500000000000004 3.5000000000000004 8.5000000000000018 20.500000000000004 2.5000000000000004 4.5000000000000009 1.5000000000000002 1.0000000180025095e-35 2.5000000000000004 21.305000000000003 1.0000000180025095e-35 18.500000000000004 17.500000000000004 5.5000000000000009 23.625000000000004
decision_type=2 2 2 10 2 2 2 2 2 2 2 2 2 2 2 2 2 2 2 2 2 2 2 2 10 2 2 2 2 10
left_child=1 25 7 4 20 6 21 8 22 10 11 12 -5 26 15 16 -15 18 -18 -19 -2 27 23 -3 -25 28 -14 -6 29 -1
right_child=3 2 -4 9 5 -7 -8 -9 -10 -11 -12 -13 13 14 -16 -17 17 19 -20 -21 -22 -23 -24 24 -26 -27 -28 -29 -30 -31
leaf_value=-0.0071429722350202897 -0.029430385019098476 -0.019568295755213259 -0.016908142263972293 -0.074550454579099659 0.034758413511423662 -0.026465458708381198 -0.2472278941284981 0.022949179857433111 -0.021889893702135579 -0.10865028198535412 0.071890498063624172 -0.11728794894233495 0.024888775926954654 -0.072609805584270729 0.078812910353238008 -0.10291852014720577 0.041820369959167193 -0.091525240472649885 0.25295989678025321 -0.0035346973945948423 -0.11449457780173303 -0.025915866673039158 -0.0023156621761068691 -0.053818508205418059 -0.13473677014836141 0.011242100631303986 -0.20144522690067934 -0.13927400048762098 0.04052930818688559 -0.050833685851210453
leaf_weight=803.76548947684933 634.67759661551099 117.78376019530697 7463.093671071576 91.815584220283199 943.03379798261449 632.0254242985975 10.151218920946119 131.39365803636611 500.83550112694502 39.935932181891985 184.62377834436484 65.359119157888927 2782.7913122514146 128.59326821030118 107.23945324262604 69.40858190623112 237.15803243918344 83.920819941267837 15.957257337402551 558.05092701723333 88.797021639533341 204.64193366188556 87.699776798137464 178.34933003800688 295.66657204402145 1512.0566502105212 10.462462980300186 17.91397899761796 146.32541221007705 439.74583539378364
leaf_count=9316 95245 8382 54615 15334 2200 2941 71 113 938 526 514 947 26981 3947 143 638 1707 1274 37 2738 2653 517 185 6598 6671 9324 72 105 86 4066
internal_value=0 -0.0163783 -0.021206 0.00503085 -0.00912681 0.00317708 0.0191116 -0.0456584 -0.0532957 0.0132215 0.0143441 0.0117845 0.0138494 0.0158818 -0.00310543 -0.0111422 -0.00491947 0.00480531 0.0551313 -0.0150371 -0.0398709 0.0214312 -0.0764439 -0.087429 -0.104291 -0.00178022 0.024041 0.0315141 -0.0159477 -0.0225934
internal_weight=0 11676.7 8774.82 6906.56 2531.24 1807.77 1175.74 1311.73 1180.33 4375.32 4335.38 4150.76 4085.4 3993.58 1200.33 1093.09 1023.68 895.087 253.115 641.972 723.475 1165.59 679.499 591.8 474.016 2901.89 2793.25 960.948 1389.84 1243.51
internal_count=258884 100294 77502 158590 103732 5834 2893 22887 22774 54858 54332 53818 52871 37537 10484 10341 9703 5756 1744 4012 97898 2822 21836 21651 13269 22792 27053 2305 13468 13382
shrinkage=0.05


Tree=23
num_leaves=31
num_cat=0
split_feature=21 6 3 1 1 0 12 10 0 0 17 12 12 10 3 0 0 1 13 4 2 0 4 16 1 0 7 5 5 17
split_gain=713.677 425.404 317.59 543.502 347.346 318.392 455.859 318.888 300.136 392.616 315.259 290.387 281.504 273.648 266.389 262.972 251.397 237.738 268.73 474.442 300.017 239.033 236.702 401.554 321.798 258.358 297.784 311.961 285.57 232.429
threshold=3.5000000000000004 1.0000000180025095e-35 28.235000000000003 15.500000000000002 1.5000000000000002 76.500000000000014 9.5000000000000018 1.575000047683716 67.500000000000014 54.500000000000007 3.5000000000000004 7.5000000000000009 69.500000000000014 0.76499998569488536 28.045000000000005 64.500000000000014 89.500000000000014 21.500000000000004 1.0000000180025095e-35 3.5000000000000004 1.0000000180025095e-35 76.500000000000014 1.5000000000000002 7.5000000000000009 24.500000000000004 72.500000000000014 2.5000000000000004 2.5000000000000004 4.5000000000000009 1.0000000180025095e-35
decision_type=2 2 8 2 2 2 2 8 2 2 2 2 2 8 10 2 2 2 2 2 2 2 2 2 2 2 2 2 2 2
left_child=8 12 3 14 -4 7 -7 -6 9 13 -11 -9 22 -1 -3 -13 17 18 -10 20 -20 -21 23 25 29 26 27 -2 -27 -24
right_child=1 2 4 -5 5 6 -8 11 16 10 -12 15 -14 -15 -16 -17 -18 -19 19 21 -22 -23 24 -25 -26 28 -28 -29 -30 -31
leaf_value=0.081937823262223264 0.10502788339850866 0.034442629751038303 -0.050635749823391266 -0.0033753280867228307 -0.15334760076967541 0.055832208009405852 -0.078522727262267375 -0.05223472720023184 -0.02971889558810234 0.019672998303912378 -0.14901952050450268 -0.12902871849932682 -0.12389702412426765 -0.062630297879382832 0.12016450718025345 0.043253506093460639 -0.0033060730097489478 -0.011747398227700736 -0.28158021984846515 -0.17622699750179438 -0.079976113451804637 -0.0013723002108808563 -0.028510823395779306 -0.11163519027698676 0.0028969953476390255 -0.06983266904784706 0.04690020169646443 -0.069936061799288379 0.015734493615319388 -0.091872908311582901
leaf_weight=36.930866240290925 27.948928113793954 1771.772313749243 345.40443005639827 1289.8548470939277 41.398748451145366 424.66469302936457 74.158997744787484 210.02981826366158 4142.8003575343173 1180.2156111361692 28.361461480613798 24.46772710364894 52.304953870363533 287.97747057065135 95.51597771467641 233.80251269531436 1519.8217342253774 2016.8635847494006 40.28203145309817 23.694480896461755 34.054947076365352 111.61672194674611 934.69283355289372 75.445445812190883 828.01386963902041 102.08165332453791 94.024730772478506 288.01994692953303 2176.0579787149327 171.25173603667645
leaf_count=56 1487 16799 45429 3993 370 1001 412 6905 9893 13008 494 757 587 46658 365 536 2173 2982 289 135 102 151 24985 1332 2485 721 174 65782 6628 2195
internal_value=0 0.00190137 0.0128976 0.0215855 -0.0073612 0.00745972 0.035858 -0.0203326 -0.0176437 0.00259663 0.0157143 -0.0085738 -0.00854208 -0.0461979 0.0388275 0.026932 -0.021578 -0.025938 -0.0325138 -0.0877422 -0.189222 -0.0319913 -0.00725766 0.00213143 -0.0206744 0.00532442 -0.0312146 -0.0544597 0.0119003 -0.0383222
internal_weight=0 9260.91 4511.07 3157.14 1353.93 1008.52 498.824 509.699 9422.62 1533.49 1208.58 468.3 4749.84 324.908 1867.29 258.27 7889.13 6369.31 4352.45 209.648 74.337 135.311 4697.54 2763.58 1933.96 2688.13 409.994 315.969 2278.14 1105.94
internal_count=258884 182943 76567 21157 55410 9981 1413 8568 75941 60216 13502 8198 106376 46714 17164 1293 15725 13552 10570 677 391 286 105789 76124 29665 74792 67443 67269 7349 27180
shrinkage=0.05


Tree=24
num_leaves=31
num_cat=0
split_feature=21 6 5 21 19 10 17 8 4 1 21 1 9 3 0 1 1 21 3 8 13 3 3 0 17 1 8 0 17 21
split_gain=645.267 301.356 294.629 283.056 268.297 236.169 222.898 206.29 311.369 285.008 331.465 262.337 231.406 204.911 354.822 385.54 440.065 277.773 430.846 318.819 477.843 306.682 295.004 290.291 340.517 344.655 254.312 241.397 226.33 230.904
threshold=4.5000000000000009 1.0000000180025095e-35 2.5000000000000004 9.5000000000000018 6.5000000000000009 1.3049999475479128 1.0000000180025095e-35 12.500000000000002 1.0000000180025095e-35 6.5000000000000009 10.500000000000002 28.500000000000004 8.5000000000000018 24.285000000000004 69.500000000000014 18.500000000000004 25.500000000000004 6.5000000000000009 33.875000000000007 18.500000000000004 1.0000000180025095e-35 24.345000000000002 32.655000000000008 57.500000000000007 1.0000000180025095e-35 8.5000000000000018 5.5000000000000009 98.500000000000014 5.5000000000000009 5.5000000000000009
decision_type=2 2 2 2 2 10 2 2 2 2 2 2 2 10 2 2 2 2 10 2 2 10 10 2 2 2 2 2 2 2
left_child=1 -1 -3 4 5 13 -4 8 -5 -10 -11 12 -12 14 -2 -16 -17 19 21 20 23 -19 -23 26 -25 28 -15 -18 29 -26
right_child=3 2 6 7 -6 -7 -8 -9 9 10 11 -13 -14 17 15 16 27 18 -20 -21 -22 22 -24 24 25 -27 -28 -29 -30 -31
leaf_value=-0.022407054944929856 -0.039878363267393281 0.041304987200477594 -0.0042046800186640492 -0.047661285187639353 -0.12076073969301282 -0.058957760613801882 -0.029730806365754654 -0.05649119007496383 -0.036963359340639657 -0.05726515102475721 0.066763918958451504 -0.12145651794605948 0.26739624862042616 0.11167589665143102 0.021690664167475712 -0.093481700865566078 -0.006842839556277177 0.18187852614363359 -0.076730112453458899 0.052694859860087997 -0.084283713438094807 0.032821439234817139 0.12085136229369593 -0.024202889170689967 0.07006681439959786 -0.04726774744819872 -0.035589897666661596 0.16637651945096621 -0.086838150035380021 0.21631678108078511
leaf_weight=6051.4056423110305 428.94201328966301 305.80949159362353 4443.1848595657502 290.38339356740471 39.56199732326786 121.92271077347687 1059.0631064285408 272.3058047996019 166.48290925746551 67.511382365657482 253.14555603609188 17.53549662581645 15.236923533491789 108.52868176717311 1779.6730437008664 165.28256976511329 504.08614134788513 39.702761481981725 77.030591485323384 293.74658711929806 165.51027234672802 1077.2311641629785 104.39463937317487 600.44212900754064 124.67469882476144 71.435355618363246 40.165351810341235 20.948930315673351 17.681769892107695 34.44494866929017
leaf_count=58160 70513 1440 37749 26575 283 709 2945 3521 14546 1179 1595 199 35 2986 7621 760 1001 150 3160 609 1815 13112 821 3665 173 328 2908 3 163 160
internal_value=0 -0.0145986 -0.00646301 0.00463375 0.00900382 0.00989265 -0.0091179 -0.018841 -0.00618833 0.0169753 0.0423831 0.0659122 0.0781545 0.0113774 0.00209799 0.00938766 -0.0223301 0.0211416 0.0379579 0.00615241 -0.00560431 0.0451914 0.0405987 0.00745224 -0.00383878 0.0454185 0.0718963 6.86231e-05 0.0828677 0.101726
internal_weight=0 11859.5 5808.06 6898.01 5815.41 5775.84 5502.25 1082.6 810.296 519.912 353.429 285.918 268.382 5653.92 2898.93 2469.99 690.318 2754.99 1298.36 1456.63 1162.88 1221.33 1181.63 997.373 848.679 248.237 148.694 525.035 176.801 159.12
internal_count=258884 100294 42134 158590 110940 110657 40694 47650 44129 17554 3008 1829 1630 109948 79898 9385 1764 30050 17243 12807 12198 14083 13933 10383 4489 824 5894 1004 496 333
shrinkage=0.05


Tree=25
num_leaves=31
num_cat=0
split_feature=21 6 3 1 1 5 0 0 17 3 12 0 12 8 3 11 0 3 3 4 9 16 16 12 9 5 14 1 3 17
split_gain=576.902 374.988 283.017 453.818 317.701 283.235 252.975 357.152 279.439 254.057 249.808 247.519 361.051 245.538 349.68 234.529 337.1 222.369 347.086 293.863 380.825 309.207 245.109 312.129 284.191 239.042 235.822 298.614 284.856 236.113
threshold=3.5000000000000004 1.0000000180025095e-35 28.235000000000003 15.500000000000002 1.5000000000000002 44.500000000000007 67.500000000000014 54.500000000000007 3.5000000000000004 42.115000000000009 69.500000000000014 76.500000000000014 9.5000000000000018 25.500000000000004 29.015000000000004 1.0000000180025095e-35 86.500000000000014 32.305000000000007 35.255000000000003 1.5000000000000002 16.500000000000004 7.5000000000000009 16.500000000000004 3.5000000000000004 7.5000000000000009 7.5000000000000009 2.5000000000000004 30.500000000000004 22.215000000000003 1.5000000000000002
decision_type=2 2 8 2 2 2 2 2 2 10 2 2 2 2 10 2 2 10 10 2 2 2 2 2 2 2 2 2 8 2
left_child=6 10 3 15 -4 11 7 9 -9 -1 17 13 -13 14 -6 -3 -17 19 -19 21 22 26 23 -21 -25 -26 27 29 -28 -2
right_child=1 2 4 -5 5 -7 -8 8 -10 -11 -12 12 -14 -15 -16 16 -18 18 -20 20 -22 -23 -24 24 25 -27 28 -29 -30 -31
leaf_value=-0.059532133582271524 0.0029606037546404244 0.02951484306144906 -0.049349458531092266 -0.0024727658779165299 0.021737602150243004 -0.10652932552351707 -0.019215058893449072 0.019213573397487881 -0.13887730466261994 0.085844354751965252 -0.11697054527213331 0.056396784275422773 -0.068055475848023489 0.084749894066227072 -0.068773894531208232 0.11408948621492106 -0.046848574242838538 0.054762349380606083 -0.032161950104977473 -0.073650386438176327 0.057039201967938574 -0.10831407520609032 0.035477448809579717 -0.012879601248618045 0.006501189251479811 -0.14255490779489899 -0.023399656356585211 -0.18828072810831697 0.060641574023441197 -0.056455198552997521
leaf_weight=284.03909682470839 1792.7244863546803 1664.2948498746264 334.97377258038614 1304.4507424591575 205.73808734514751 52.268416387028992 8082.9871845829184 1175.1776240391191 28.633130801783409 33.608629475813359 52.052914214495104 407.77856471226551 67.99530486902222 57.613266400876455 221.69620052695973 178.06435179605614 39.812111616134644 329.66332418815 176.23209722933825 456.62897756218445 124.58237782469951 64.12902658386156 117.59938529913779 830.67395274725277 39.758368198527023 83.153075170936063 145.91796345601324 21.888148271478713 326.29314452665858 184.40707696846221
leaf_count=46313 67876 16620 45429 3993 3712 428 15725 13008 494 401 587 938 379 140 4384 420 124 3264 4678 20384 116 1190 424 4398 95 628 473 179 667 1417
internal_value=0 0.00178622 0.0120681 0.0201925 -0.00713682 0.00682061 -0.0156945 0.0030093 0.0154533 -0.0441506 -0.00803847 0.0129868 0.0386107 -0.0121471 -0.0252078 0.0359008 0.0846816 -0.00683041 0.0244817 -0.010613 -0.0270195 7.97187e-05 -0.0338738 -0.0396571 -0.0233793 -0.0943395 0.00289256 -0.00461442 0.034672 -0.00258111
internal_weight=0 9280.39 4534.69 3186.62 1348.06 1013.09 9604.45 1521.46 1203.81 317.648 4745.7 960.821 475.774 485.048 427.434 1882.17 217.876 4693.65 505.895 4187.76 1652.4 2535.36 1527.81 1410.21 953.585 122.911 2471.23 1999.02 472.211 1977.13
internal_count=258884 182943 76567 21157 55410 9981 75941 60216 13502 46714 106376 9553 1317 8236 8096 17164 544 105789 7942 97847 26045 71802 25929 25505 5121 723 70612 69472 1140 69293
shrinkage=0.05


Tree=26
num_leaves=31
num_cat=0
split_feature=21 5 5 10 3 21 4 7 13 12 1 4 15 0 8 17 8 13 0 5 3 2 1 20 16 18 14 6 1 0
split_gain=528.33 270.352 313.914 247.089 252.46 251.577 312.854 256.083 266.689 241.645 231.49 254.741 216.824 214.126 210.275 259.961 203.363 521.63 278.496 188.685 186.493 284.585 321.029 183.703 178.564 254.413 228.467 178.84 449.937 278.332
threshold=4.5000000000000009 11.500000000000002 36.500000000000007 1.8249999880790713 20.515000000000004 7.5000000000000009 1.5000000000000002 3.5000000000000004 1.0000000180025095e-35 81.500000000000014 19.500000000000004 2.5000000000000004 18.500000000000004 92.500000000000014 8.5000000000000018 3.5000000000000004 25.500000000000004 4.5000000000000009 43.500000000000007 12.500000000000002 21.975000000000005 1.0000000180025095e-35 9.5000000000000018 4.5000000000000009 2.5000000000000004 25.500000000000004 6.5000000000000009 1.0000000180025095e-35 26.500000000000004 90.500000000000014
decision_type=2 2 2 10 10 2 2 2 2 2 2 2 2 2 2 2 2 2 2 2 8 2 2 2 2 2 2 2 2 2
left_child=1 -1 10 4 5 6 14 8 -8 12 11 20 16 -7 -2 -16 17 18 -6 -13 23 -22 -23 -3 26 -26 27 -20 29 -29
right_child=3 2 -4 -5 9 13 7 -9 -10 -11 -12 19 -14 -15 15 -17 -18 -19 24 -21 21 22 -24 -25 25 -27 -28 28 -30 -31
leaf_value=2.609985985854883e-05 -0.0014631646109401508 0.0098523330034813207 -0.013437069371967784 -0.10609368021966875 -0.073085429091285875 -0.048768336924360348 -0.088198190771060059 -0.18382880800651125 0.020268666241554 -0.10467019798817141 -0.011920346200204645 0.030213083545565619 -0.18477649137222249 0.018860248397880964 0.056676911547205659 -0.15070991244855342 0.059794000299323039 -0.12476996218760994 0.0085092286532812249 -0.12946212048843853 -0.088743543181433335 0.0012038890347347525 -0.26343756226217074 -0.31984377598953262 -0.0070631400151474795 0.067640075431360011 -0.12610809342457835 0.041572083115021502 -0.076876120491080668 -0.10509475810367315
leaf_weight=2979.7132307023276 586.70187753904611 177.14537999831373 7717.832976857957 50.326774107583333 93.169988337554969 547.87526038335636 101.01575813873205 29.497410177951679 129.08784300787374 44.73304952995386 486.24132984678727 21.109808812849224 13.950144712813197 148.84104260057211 337.07515641197097 15.819930352736263 218.35465925442986 70.27306948939804 1348.9165963581181 149.7271886941744 297.53197934952914 205.76147616142407 12.135439456440507 4.3282507918775073 1292.0512395433034 124.99867345858365 26.195437337970361 1620.9311560398783 88.814579340803903 33.006098441779613
leaf_count=22792 33261 1188 54615 489 18494 54438 5601 184 329 606 1109 48 98 299 2039 107 552 1014 16216 2797 17080 529 100 36 11326 150 209 12475 557 146
internal_value=0 -0.0130408 -0.0173328 0.0042919 0.00510039 -0.0104253 0.00345754 -0.0451286 -0.0273484 0.0110166 -0.0395387 -0.0550148 0.0120661 -0.0343207 0.0168814 0.04738 0.0126246 0.0104325 0.0124854 -0.109732 -0.0416017 -0.0569492 -0.0135349 0.00198889 0.0142434 -0.000473532 0.0209322 0.0221781 0.032758 0.0386452
internal_weight=0 12051.5 9071.81 6921.64 6871.31 1895.91 1199.2 259.601 230.104 4975.39 1353.98 867.74 4930.66 696.716 939.597 352.895 4916.71 4698.36 4628.08 170.837 696.903 515.429 217.897 181.474 4534.91 1417.05 3117.86 3091.67 1742.75 1653.94
internal_count=258884 100294 77502 158590 158101 96258 41521 6114 5930 61843 22887 21778 61237 54737 35407 2146 61139 60587 59573 2845 18933 17709 629 1224 41079 11476 29603 29394 13178 12621
shrinkage=0.05


Tree=27
num_leaves=31
num_cat=0
split_feature=21 4 11 1 16 8 0 21 19 0 21 9 3 3 5 8 3 1 10 4 4 9 14 10 5 0 3 10 0 19
split_gain=473.186 262.416 248.54 308.498 233.18 273.284 238.452 230.856 228.992 227.956 203.963 400.392 351.343 367.611 325.048 199.149 235.388 215.746 281.932 225.65 219.864 235.528 192.992 191.064 184.619 188.636 197.568 189.008 277.067 261.26
threshold=4.5000000000000009 1.5000000000000002 2.5000000000000004 8.5000000000000018 3.5000000000000004 14.500000000000002 51.500000000000007 9.5000000000000018 6.5000000000000009 65.500000000000014 1.5000000000000002 1.0000000180025095e-35 23.045000000000005 19.535000000000004 42.500000000000007 9.5000000000000018 24.225000000000005 2.5000000000000004 2.2599999904632573 5.5000000000000009 20.500000000000004 1.0000000180025095e-35 14.500000000000002 1.3049999475479128 2.5000000000000004 91.500000000000014 15.380000000000001 1.8899999856948855 65.500000000000014 2.5000000000000004
decision_type=2 2 2 2 2 2 2 2 2 2 2 2 10 8 2 2 10 2 8 2 2 2 2 10 2 2 8 10 2 2
left_child=1 4 15 -4 5 6 -1 8 23 -7 11 12 13 -8 -14 16 -3 19 -19 -17 -20 -22 -5 -2 -12 26 -26 29 -29 -28
right_child=7 2 3 22 -6 9 10 -9 -10 -11 24 -13 14 -15 -16 17 -18 18 20 -21 21 -23 -24 -25 25 -27 27 28 -30 -31
leaf_value=-0.068162552452468536 0.010137748130553761 -0.066906379313911635 0.12072326953812829 -0.0047894744048055651 -0.028965880169605263 0.075920863297358129 -0.33666425022197854 -0.017246524311831459 -0.11202540949878169 0.010263101725144882 0.051877340628457683 0.0056978008202745352 -0.084408323255731083 -0.021921121040104272 -0.28895163182156058 0.033972345668325965 -0.025580523786157362 0.0085358555406495808 -0.037117228135989888 -0.16164459634899209 0.20508059905447948 0.0022335922776125002 -0.18906181255904397 -0.052945231633320614 0.1211768941674172 0.022714863940599576 -0.0086548976104349491 0.2222876660812903 -0.0015622059700075071 -0.23953409407712978
leaf_weight=149.31373424688354 5682.2265371111571 562.9225243871042 49.194834318011999 1321.1204109941609 928.86839636613149 181.47569007205311 9.4600316430442017 1072.5919427099288 39.477559527149424 486.82367093104403 177.3820269695716 694.21727023506537 135.78888897120487 479.99078495806316 22.665014433674514 263.76746054808609 888.33728659764165 528.38820115383714 1676.3521904242225 15.614950644201597 18.081685154233128 68.606654418166727 14.363333600107579 122.6215188181086 30.043476203922182 701.35937526263297 2644.2125509115285 21.795866885688156 37.790695779025555 12.3100869001355
leaf_count=45388 109948 9988 33 1997 4512 833 104 47650 283 548 409 1067 1023 3159 294 1340 6987 689 5907 381 20 104 87 709 25 715 14526 14 50 94
internal_value=0 -0.0123141 -0.0205122 -0.00224173 -0.00571167 -0.00197762 -0.00590538 0.00407577 0.00798899 0.0280924 -0.00403387 -0.0206852 -0.0489541 -0.0280044 -0.113666 -0.0268022 -0.0416102 -0.0184429 -0.0235006 0.0230391 -0.033102 0.044544 -0.00677135 0.00880518 0.00213132 -0.000428222 -0.0063389 -0.00774938 0.0803187 -0.00972477
internal_weight=0 12120.2 5406.75 1384.68 6713.5 5784.63 5116.33 6916.92 5844.33 668.299 4967.02 1342.12 647.905 489.451 158.454 4022.07 1451.26 2570.81 2291.43 279.382 1763.04 86.6883 1335.48 5804.85 3624.89 3447.51 2746.15 2716.11 59.5866 2656.52
internal_count=258884 100294 27533 2117 72761 68249 66868 158590 110940 1381 21480 5647 4580 3263 1317 25416 16975 8441 6720 1721 6031 124 2084 110657 15833 15424 14709 14684 64 14620
shrinkage=0.05


Tree=28
num_leaves=31
num_cat=0
split_feature=21 2 0 10 7 8 17 0 20 9 0 16 5 13 16 20 20 0 15 0 0 0 0 0 9 3 17 1 18 10
split_gain=423.036 249.721 262.832 357.327 248.12 250.546 226.604 224.446 243.537 221.57 322.231 304.588 269.469 226.545 225.993 214.181 207.728 207.495 205.834 199.728 195.671 283.979 270.729 196.889 379.836 209.418 217.04 207.936 203.771 197.804
threshold=4.5000000000000009 1.0000000180025095e-35 59.500000000000007 0.75499999523162853 1.0000000180025095e-35 7.5000000000000009 20.500000000000004 70.500000000000014 16.500000000000004 2.5000000000000004 80.500000000000014 12.500000000000002 42.500000000000007 4.5000000000000009 9.5000000000000018 16.500000000000004 1.5000000000000002 53.500000000000007 4.5000000000000009 97.500000000000014 41.500000000000007 66.500000000000014 64.500000000000014 71.500000000000014 5.5000000000000009 28.525000000000002 9.5000000000000018 34.500000000000007 15.500000000000002 2.1450001001358037
decision_type=2 2 2 8 2 2 2 2 2 2 2 2 2 2 2 2 2 2 2 2 2 2 2 2 2 10 2 2 2 8
left_child=1 6 3 -3 5 -5 20 8 18 10 14 13 -12 15 16 19 -9 -6 -2 -11 -1 22 -22 24 28 29 27 -27 -23 -25
right_child=7 2 -4 4 17 -7 -8 9 -10 11 12 -13 -14 -15 -16 -17 -18 -19 -20 -21 21 23 -24 25 -26 26 -28 -29 -30 -31
leaf_value=-0.075081257712088012 -0.0073253929978368401 -0.35487143437419838 -0.0032651249609588272 -0.061928025996289007 -0.14850369492633284 0.18526131864513184 0.037922312843939411 0.042887461237726868 -0.12596985766140642 -0.028661777874718315 -0.005020734898859425 0.038211876661921912 0.033490617659379822 -0.11988983535653704 -0.081918558611830172 0.02317981023168085 -0.11229705828244577 0.050161225427131487 -0.19090358767469687 0.080025983269578924 -0.005830068100476208 -0.081388290856918039 0.053956630875561677 0.014358750602552338 0.0028394523237216889 -0.046662713832414805 -0.22074103937233597 0.0089781333832319576 -0.37225057164014019 -0.016778246880524452
leaf_weight=143.20386427786434 1553.2117108429957 5.0947447032667696 3091.4858675552532 12.411372482543809 15.294119649566708 58.893370241858065 191.10479960986413 1194.2189757473534 45.904060589033179 950.35075621609576 1755.6313082403503 314.28406712808646 612.76133003691211 50.891907174140215 39.179493475472555 320.37369998684153 21.960954385343939 93.461586847901344 15.420728519558905 44.236141070723534 815.14554910396691 276.2108427862695 246.64255941321608 562.78336020931602 196.20736674871296 819.3019395499723 16.016814838629216 211.19611068814993 6.1557419113814822 5444.7055521649891
leaf_count=38210 135797 90 4808 1148 95 485 236 8661 313 3947 6272 567 1133 394 578 536 227 57 129 36 36483 2819 1617 555 259 2177 106 230 57 10862
