tree
version=v3
num_class=1
num_tree_per_iteration=1
label_index=0
max_feature_idx=21
objective=binary sigmoid:1
feature_names=age num_ordmeds in_hosp BMI diagnoses_count_DZ01 pandemic_weeks sex_at_birth ordmed_count_A06AD num_diagnoses ordmed_count_N02BE laboratory_lastvalue_LYM ordmed_count_C03CA days_in_hospital ordmed_count_N01AH HOSP_BEFORE diagnoses_count_DG30 diagnoses_count_DZ03 diagnoses_count_DI10 adminmed_count_C03CA ordmed_count_A11EA adminmed_count_A12AX range_time
feature_infos=[18:105] [0:77] [0:1] [11.33:173.34999999999999] [0:93] [0:51] [0:1] [0:78] [0:55] [0:47] [0:43.799999237060547] [0:88] [0:522] [0:37] [0:72] [0:59] [0:115] [0:169] [0:215] [0:119] [0:248] [1:12]
tree_sizes=3355 3374 3388 3396 3369 3378 3402 3417 3411 3422 3411 3436 3443 3418 3447 3461 3450 3433 3434 3452 3439 3472 3444 3441 3424 3432 3467 3404 3443 3443 3420 3454 3444 3435 3413 3447 3474 3438 3447 3462 3435 3446 3464 3435 3452 3462 3477 3449 3456 3450

Tree=0
num_leaves=31
num_cat=0
split_feature=0 21 1 1 10 2 1 0 0 0 2 3 0 15 21 21 21 6 21 19 0 14 16 21 3 20 18 21 9 8
split_gain=8.37549e+06 1.23661e+06 558174 151396 131483 128291 124237 153844 92959.2 72225.9 69472.3 64860.2 61077.2 60199.2 56832.4 48493.2 38154 36167.2 37881.7 35368.3 30176.2 36064.3 34095.4 29052.1 28519.8 36540.5 28959.9 26583.1 26486.3 25409.5
threshold=67.500000000000014 4.5000000000000009 17.500000000000004 21.500000000000004 2.0049999952316289 1.0000000180025095e-35 2.5000000000000004 76.500000000000014 56.500000000000007 83.500000000000014 1.0000000180025095e-35 26.615000000000006 61.500000000000007 4.5000000000000009 3.5000000000000004 3.5000000000000004 2.5000000000000004 1.0000000180025095e-35 7.5000000000000009 10.500000000000002 59.500000000000007 1.5000000000000002 1.0000000180025095e-35 6.5000000000000009 20.905000000000005 1.0000000180025095e-35 1.5000000000000002 8.5000000000000018 1.0000000180025095e-35 29.500000000000004
decision_type=2 2 2 2 8 2 2 2 2 2 2 8 2 2 2 2 2 2 2 2 2 2 2 2 10 2 2 2 2 2
left_child=2 6 5 9 -4 13 7 10 19 11 -2 17 -7 20 -8 -10 -9 -3 -19 -6 -1 -22 -23 -14 -5 26 29 -27 -16 -26
right_child=1 3 4 24 8 12 14 16 15 -11 -12 -13 23 -15 28 -17 -18 18 -20 -21 21 22 -24 -25 25 27 -28 -29 -30 -31
leaf_value=-5.3113040532301063 -3.6036475855732446 -3.228813682559355 2.6416278727875619 2.3366415672483187 -4.7013775384122045 -3.8379913165671349 3.6303317044669194 3.1796160022071343 1.9511872985464365 -0.74348787536416872 1.9930967794855183 -4.1597298084248973 1.2633931359099213 2.457659127794348 -1.2732680340718812 -2.2300285400959399 0.96676087876660599 1.0855903021288844 -3.0164514535420239 2.2803238713455416 -4.6993869417633025 1.0777742189718991 -5.3450920229619685 -3.9132927567969125 -4.6952825443598423 2.3166008267446569 0.40993881660665021 -3.2950820728501542 2.2529588095103135 3.2213326592992759
leaf_weight=887.88997959531844 17.227078344672918 18.901105261407793 21.911372986622155 20.177736824378371 23.302256260998551 26.541026425547898 424.49249023664743 70.38364168535918 15.076177083887162 54.328879657201469 8.1764044407755154 54.835558847524226 12.105648635886608 2.5631984733045092 6.1397545337676993 12.840829695574937 26.933453815057874 16.327971720136706 8.5887019662186486 1.9671058058738697 100.66515095438808 5.4492804920300824 3.3281841222196817 3.4921095976606003 7.6945629818364996 15.662334862165155 8.6880506789311749 2.4390125321224323 40.141873783431947 1.1673481399193404
leaf_count=178148 2874 3013 946 993 4394 4551 10017 2289 857 5987 458 9752 853 120 741 1793 2056 1208 1333 99 18978 404 670 604 1450 777 759 392 2042 37
internal_value=-5.29484 1.91523 -4.78115 -1.39416 -0.617919 -5.08119 3.07958 1.6627 -1.96077 -2.20747 -1.80227 -3.0137 -2.3787 -5.19508 3.44893 0.0279768 2.56719 -1.5795 -0.328371 -4.15788 -5.21474 -4.43137 -1.35761 0.104409 0.834487 -0.0156945 -1.64138 1.56047 1.78517 -3.65245
internal_weight=0 802.306 1117.13 208.811 75.0977 1042.03 593.495 122.721 53.1864 152.982 25.4035 98.6533 42.1388 999.896 470.774 27.917 97.3171 43.8178 24.9167 25.2694 997.333 109.443 8.77746 15.5978 55.829 35.6513 17.55 18.1013 46.2816 8.86191
internal_count=258595 46178 212417 25701 8089 204328 20477 7677 7143 21293 3332 15306 6008 198320 12800 2650 4345 5554 2541 4493 198200 20052 1074 1457 4408 3415 2246 1169 2783 1487
shrinkage=1


Tree=1
num_leaves=31
num_cat=0
split_feature=21 0 4 4 21 1 19 7 8 3 10 1 17 10 1 21 0 12 2 18 7 13 5 4 8 0 0 7 3 3
split_gain=11679.6 5738.94 3982.86 2637.1 4474.82 2128.4 6104.47 4981.16 19272 4621.8 2600.93 1974.21 4461.69 1776.94 2011.93 2611.44 3447.89 3708.52 2700.54 2648.77 3358.25 2090.75 3947.21 2110.87 2614.99 1500.13 2780.98 6637.26 3967.68 6084.26
threshold=4.5000000000000009 66.500000000000014 1.0000000180025095e-35 44.500000000000007 5.5000000000000009 14.500000000000002 2.5000000000000004 1.5000000000000002 3.5000000000000004 18.365000000000006 1.8899999856948855 21.500000000000004 64.000000000000014 1.0850000381469729 2.5000000000000004 3.5000000000000004 82.500000000000014 29.500000000000004 1.0000000180025095e-35 1.5000000000000002 1.0000000180025095e-35 1.0000000180025095e-35 3.5000000000000004 6.5000000000000009 28.500000000000004 51.500000000000007 60.500000000000007 1.0000000180025095e-35 33.275000000000013 34.270000000000003
decision_type=2 2 2 2 2 2 2 2 2 8 10 2 2 8 2 2 2 2 2 2 2 2 2 2 2 2 2 2 10 8
left_child=1 5 -3 11 -5 6 7 10 -9 -8 25 12 -2 -4 -15 16 17 18 19 20 21 23 -23 -16 -25 -1 27 28 -27 -30
right_child=3 2 13 4 -6 -7 9 8 -10 -11 -12 -13 -14 14 15 -17 -18 -19 -20 -21 -22 22 -24 24 -26 26 -28 -29 29 -31
leaf_value=-0.051517793359758701 0.03771164488392708 -0.04988760010220801 -0.029067189617352614 3.6671034329095722 -0.2806736757180095 -0.055161759064063454 5.5439892392780772 4.1912353635735426 -0.064367181487706357 -0.050475758585780198 1.4656202671183127 -0.031876433649290666 2.3549901366059571 -0.081383682517324266 -0.58245427040940723 -0.090605219205329809 -0.1368279043292637 -0.12344743980948254 -0.22475996473844964 -0.22811022743218579 -0.348838588637641 -0.20403684586899354 -1.760393765982418 -1.8821749954717923 -0.025120470372557442 0.1616977764965061 0.029759036801665358 3.9318100480694884 2.1150249865666093 -0.050617099772080842
leaf_weight=278.32094147335738 4423.0152841648087 2265.9918177463114 324.2212701421231 1.3283094218932086 1.5617964528501032 594.91107087396085 0.89374381303787109 3.5360455769114187 10.743147997185586 0.62899324670434009 3.2170639857649794 1272.1122129037976 2.0781963942572466 693.74343091621995 80.226235693320632 544.02473425911739 602.96587076596916 195.11790385842323 161.91030361317098 73.892953719012439 87.32017408311367 6.0624121427536037 12.42028674809262 6.8827349198982102 2.6162314042448997 93.827966670971364 374.5206673713401 1.2555662104859937 6.874326812103388 6.1399355935864159
leaf_count=54109 150556 7249 644 9 35 4281 1 14 161 100 52 7527 31 4126 1109 2092 2486 748 949 441 735 33 462 275 5 13347 6022 58 139 799
internal_value=0 -0.0745106 -0.0991353 0.0237848 1.53375 0.0160703 0.0704024 0.0642157 0.989474 3.2331 0.0469261 0.0230188 0.0387999 -0.139113 -0.153575 -0.181815 -0.222176 -0.304325 -0.386147 -0.483133 -0.57951 -0.765655 -1.2499 -0.665904 -1.3707 0.0409282 0.0942409 0.317648 0.275175 1.09331
internal_weight=0 6432.27 5057.4 5700.1 2.89011 1374.87 779.958 778.436 14.2792 1.52274 764.156 5697.21 4425.09 2791.4 2467.18 1773.44 1229.42 626.449 431.331 269.421 195.528 108.208 18.4827 89.7252 9.49897 760.939 482.618 108.098 106.842 13.0143
internal_count=258595 100437 21354 158158 44 79083 74802 74701 175 101 74526 158114 150587 14105 13461 9335 7243 4757 4009 3060 2619 1884 495 1389 280 74474 20365 14343 14285 938
shrinkage=0.05


Tree=2
num_leaves=31
num_cat=0
split_feature=21 0 4 1 1 0 0 9 5 16 1 21 0 4 5 5 16 2 21 0 8 1 1 10 3 6 4 3 5 1
split_gain=9736.27 4033.69 2573.04 1768.2 1301.56 1364.58 1772.83 2872.38 6996.84 1470.31 6925.47 1454.65 2859.25 2713.46 1889.85 3431.88 4115.98 1174.38 1336.18 1134.17 1306.47 1333.75 1129.53 1017.55 998.716 1204.14 916.084 1202.91 1577.25 1176.04
threshold=4.5000000000000009 66.500000000000014 1.0000000180025095e-35 30.500000000000004 14.500000000000002 55.500000000000007 60.500000000000007 2.5000000000000004 4.5000000000000009 8.5000000000000018 7.5000000000000009 1.5000000000000002 58.500000000000007 1.5000000000000002 28.500000000000004 29.500000000000004 1.0000000180025095e-35 1.0000000180025095e-35 3.5000000000000004 87.500000000000014 14.500000000000002 1.0000000180025095e-35 76.000000000000014 0.7150000035762788 26.425000000000004 1.0000000180025095e-35 2.5000000000000004 16.525000000000002 43.500000000000007 1.0000000180025095e-35
decision_type=2 2 2 2 2 2 2 2 2 2 2 2 2 2 2 2 2 2 2 2 2 2 2 8 10 2 2 8 2 2
left_child=1 4 24 26 5 -1 11 9 -9 -8 -11 12 -7 14 -14 -16 -17 18 19 20 -4 -22 23 -5 -3 -26 29 28 -28 -2
right_child=3 2 17 22 -6 6 7 8 -10 10 -12 -13 13 -15 15 16 -18 -19 -20 -21 21 -23 -24 -25 25 -27 27 -29 -30 -31
leaf_value=-0.036619078206320377 0.0044263101730550036 -0.031477385361576675 -0.22906062302020203 -0.47637215326428245 -0.050532435999668814 -0.058242994023709672 0.014461479889249241 5.0274484589525832 -0.17577728310179858 -0.18752472178014648 4.2553916555149476 0.16924772529865079 -0.051024395738033648 -0.089760241205744745 4.4074283367747915 -0.0988205142971747 2.4291477357260831 -0.06679869060637543 -0.075228716861201791 -0.089795144495059973 0.49905231087803181 -0.13248812416748712 0.49177907418389943 -0.057708721728863981 -0.2509124020171995 -0.05924877009748232 0.068408346222596075 -0.013814320646273755 0.70724259551108759 0.062934472579638981
leaf_weight=340.27259325841442 1285.4244258506224 1965.8570935949683 684.70594333531335 14.89153294439893 616.35925404727459 9.4726183153688925 417.84297557547688 0.98465570155531112 1.8790790382772682 3.5849880818277589 1.1612111609429119 142.81629608152434 1.5746489674784223 3.5680465633049598 1.1215890524908898 2.6809045164845884 4.0315069383941591 907.70895245485008 676.26851563481614 430.25273611396551 8.5124563053250295 467.13649192528101 9.1409908756613714 571.48790234699845 120.20853868871927 257.46665565669537 36.697976781986654 1287.077375988476 13.114803511649368 2588.2679953891784
leaf_count=61293 93894 5552 5591 168 4281 1167 5857 8 64 116 33 5553 150 273 9 229 50 2573 2662 1357 30 1892 8 3176 846 851 95 22875 8 37934
internal_value=0 -0.0655165 -0.085522 0.021875 0.00582654 0.0431388 0.0890818 0.0350962 1.61328 0.0244014 0.899485 0.22806 0.60221 1.08432 1.52957 1.84727 1.41949 -0.114857 -0.134101 -0.159131 -0.184841 -0.121186 -0.0597434 -0.068341 -0.0457841 -0.120253 0.0312032 -0.00448377 0.236602 0.0435195
internal_weight=0 7065.47 5518.12 5806.1 1547.35 930.991 590.719 425.453 2.86373 422.589 4.7462 165.266 22.4493 12.9767 9.40865 7.834 6.71241 3174.59 2266.88 1590.61 1160.35 475.649 595.52 586.379 2343.53 377.675 5210.58 1336.89 49.8128 3873.69
internal_count=258595 100437 21354 158158 79083 74802 13509 6078 72 6006 149 7431 1878 711 438 288 279 14105 11532 8870 7513 1922 3352 3344 7249 1697 154806 22978 103 131828
shrinkage=0.05


Tree=3
num_leaves=31
num_cat=0
split_feature=21 0 4 1 10 0 9 1 17 17 5 1 0 21 12 2 4 13 1 3 3 15 8 5 5 5 21 1 0 19
split_gain=8379.2 3004.76 1883.2 1562.01 1036.69 965.575 918.043 1575.88 2784.64 3244.68 909.242 886.294 877.294 864.008 1030.52 854.276 822.503 1078.31 1407.86 5478.83 1376.86 3810.98 3700.15 9265.06 3956.01 6585.31 6679.67 1545.11 1422.78 6010.38
threshold=4.5000000000000009 66.500000000000014 1.0000000180025095e-35 30.500000000000004 1.0950000286102297 78.500000000000014 4.5000000000000009 1.5000000000000002 2.5000000000000004 4.5000000000000009 12.500000000000002 14.500000000000002 51.500000000000007 3.5000000000000004 10.500000000000002 1.0000000180025095e-35 2.5000000000000004 1.5000000000000002 29.500000000000004 26.065000000000001 29.415000000000003 24.500000000000004 1.0000000180025095e-35 2.5000000000000004 9.5000000000000018 7.5000000000000009 5.5000000000000009 3.5000000000000004 69.500000000000014 1.5000000000000002
decision_type=2 2 2 2 8 2 2 2 2 2 2 2 2 2 2 2 2 2 2 8 8 2 2 2 2 2 2 2 2 2
left_child=1 11 -3 16 -4 6 7 8 -6 -10 -9 12 -1 14 -12 -7 17 18 20 -20 22 -22 23 -2 25 -25 -27 -26 29 -24
right_child=3 2 4 -5 5 15 -8 10 9 -11 13 -13 -14 -15 -16 -17 -18 -19 19 -21 21 -23 28 24 27 26 -28 -29 -30 -31
leaf_value=-0.051586003135242392 3.0439280270756899 -0.042035706906504697 -0.020166204488705652 -0.054675190535804455 -0.10115570292259315 -0.10630207124057019 -0.0859954691469135 -0.12723327202774817 1.3919469736595189 -0.27768238343418533 -0.39175794193817609 -0.046430847963425441 0.054882852739812818 -0.14827342587312856 -0.19059458379203431 -0.029306429451404672 -0.0043503633316896466 -0.097184716634516111 -0.068011160506589896 1.8742046250001874 0.0042420559628236956 2.1071330035995932 0.12325669279850529 0.75668283446058793 0.01905319758088031 8.3349654934533302 -0.050299220341682965 0.95754322276413939 0.039062101833882035 1.866101543433313
leaf_weight=257.22259864956141 3.2312759123742572 2420.2710981350392 368.11877193301916 617.79604258132167 157.87785092741251 1476.2642734348774 416.43082573101856 181.81043453898747 6.9274090677499753 5.0174284130334854 161.52112689858768 636.71576840244234 780.78556775860488 114.54154029628262 105.08411340462044 476.5416157040745 1344.8165101264603 136.27816331386566 12.62514039129019 5.0969727486371985 1520.1140827573836 2.1575433518737546 362.67750902334228 12.180000480264422 47.388635890092701 0.5962857832200833 0.39471129653975368 4.832987328991293 1793.7167909052223 5.0152048952877513
leaf_count=54289 55 7249 654 3352 2070 5232 1254 809 62 84 1677 4281 20513 698 553 1012 22978 3392 60 15 94570 12 25155 297 796 11 70 32 7246 117
internal_value=0 -0.0590857 -0.0758879 0.0205279 -0.0994984 -0.108913 -0.145277 -0.178966 -0.0454645 0.690619 -0.219238 1.15843e-05 0.0284994 -0.263125 -0.312468 -0.0875129 0.0293756 0.0409864 0.045981 0.49058 0.0438811 0.00722252 0.0689051 0.430361 0.301215 1.07559 4.99514 0.105908 0.057429 0.147029
internal_weight=0 7565.13 5890.41 5868.92 3470.14 3102.02 1149.21 732.78 169.823 11.9448 562.957 1674.72 1038.01 381.147 266.605 1952.81 5251.12 3906.31 3770.03 17.7221 3752.31 1522.27 2230.03 68.6239 65.3926 13.171 0.990997 52.2216 2161.41 367.693
internal_count=258595 100437 21354 158158 14105 13451 7207 5953 2216 146 3737 79083 74802 2928 2230 6244 154806 131828 128436 75 128361 94582 33779 1261 1206 378 81 828 32518 25272
shrinkage=0.05


Tree=4
num_leaves=31
num_cat=0
split_feature=21 0 0 6 10 0 2 21 8 1 0 10 16 1 0 5 21 8 3 21 3 21 8 0 6 8 1 0 16 0
split_gain=6900.77 2446.24 1443.39 1381.22 1362.01 1229.88 1229.59 1182.63 1041.04 1373.53 1056.36 918.321 915.978 1000.27 913.61 2936 2677.22 1477.65 3389.43 3434.35 1932.31 1473.09 2686.31 1589.62 1911.97 1657.22 1133.05 1027.66 897.532 957.031
threshold=4.5000000000000009 67.500000000000014 86.500000000000014 1.0000000180025095e-35 43.699998855590827 76.500000000000014 1.0000000180025095e-35 3.5000000000000004 7.5000000000000009 1.5000000000000002 75.500000000000014 2.2150000333786015 36.500000000000007 30.500000000000004 61.500000000000007 2.5000000000000004 5.5000000000000009 2.5000000000000004 29.080000000000002 5.5000000000000009 22.585000000000004 10.500000000000002 3.5000000000000004 73.500000000000014 1.0000000180025095e-35 11.500000000000002 3.5000000000000004 57.500000000000007 1.0000000180025095e-35 58.500000000000007
decision_type=2 2 2 2 8 2 2 2 2 2 2 8 2 2 2 2 2 2 10 2 8 2 2 2 2 2 2 2 2 2
left_child=1 -1 3 7 5 -2 12 8 -3 10 -10 -11 13 -6 15 16 -8 18 20 -20 -16 -19 26 24 25 -24 -23 -17 -29 -30
right_child=4 2 -4 -5 6 -7 14 -9 9 11 -12 -13 -14 -15 17 27 -18 21 19 -21 -22 22 23 -25 -26 -27 -28 28 29 -31
leaf_value=-0.0024188368098669233 -0.17224749588982216 -0.21468313218840895 -0.035487525461143504 -0.060132227580309172 0.019020008265833669 -0.0028601877967501881 1.7091622369387984 -0.057685133368313171 0.32451782038366589 -0.037906829926723701 -0.036218194298077537 -0.17600498926829483 0.31186015277320289 -0.063756902196802592 0.54392258640765101 -0.051303587096766246 0.37236805092338865 0.010709881678957506 2.1237902717182551 -0.10238944326260296 0.034326833650634381 0.68678381545518619 -0.087752752313065688 0.045832697775313097 -0.090059284817340463 1.4843266628230629 1.9300296975510127 -0.051643472712165073 1.2642716626846049 0.35559035625734031
leaf_weight=1812.8679734366015 169.12331106164493 385.21601063665003 2144.9840878732502 2217.2671744031832 4110.2641557292081 292.49672648729756 5.6574165122583535 537.71889339759946 24.343055356293917 155.42337475717068 122.01563068293035 533.93039984256029 25.555594249162823 400.51878253044561 24.545825412496924 46.267331248149276 11.081931221298872 708.85118133900687 4.5227264240384093 2.808143500238657 76.823115481063724 6.7139615491032583 2.2578530069440585 80.453496717847884 5.810944980941712 6.5093255741521716 2.5206646323204041 9.0526074301451462 3.7995714414864787 12.206731740385294
leaf_count=79960 1610 3111 4528 7551 145643 928 21 1967 136 324 273 2587 142 2314 61 2067 127 3429 19 91 374 50 96 445 163 22 22 355 42 137
internal_value=0 -0.0534346 -0.0685443 -0.0863782 0.017601 -0.0649185 0.0244692 -0.119469 -0.146679 -0.115333 0.0237811 -0.144869 0.0133613 0.0116701 0.0743657 0.228229 0.824166 0.0596664 0.232806 1.27104 0.157722 0.0365207 0.211995 0.132881 0.613282 1.07946 1.02614 0.08837 0.346255 0.571293
internal_weight=0 7933.77 6120.9 3975.91 6007.84 461.62 5546.22 1758.65 1220.93 835.712 146.359 689.354 4536.34 4510.78 1009.88 88.0656 16.7393 921.817 108.7 7.33087 101.369 813.117 104.266 95.0316 14.5781 8.76718 9.23463 71.3262 25.0589 16.0063
internal_count=258595 100437 20477 15949 158158 2538 155620 8398 6431 3320 409 2911 148099 147957 7521 2749 148 4772 545 110 435 4227 798 726 281 118 72 2601 534 179
shrinkage=0.05


Tree=5
num_leaves=31
num_cat=0
split_feature=21 0 4 1 10 5 13 1 8 0 11 12 3 3 16 0 0 5 3 3 5 5 21 0 19 19 8 1 0 0
split_gain=5870.33 2010.21 1265.1 1185.86 812.461 802.907 795.95 772.326 1474.33 1125.62 1075.96 1033.07 940.344 3069.02 4904.27 969.229 1414.12 1179.68 1858.85 11551.2 1273.27 945.784 857.875 929.312 1052.06 1937.46 762.866 739.719 755.777 885.913
threshold=4.5000000000000009 66.500000000000014 1.0000000180025095e-35 35.500000000000007 0.73500001430511486 12.500000000000002 1.5000000000000002 1.0000000180025095e-35 4.5000000000000009 58.500000000000007 8.5000000000000018 32.500000000000007 23.345000000000002 23.235000000000003 1.0000000180025095e-35 78.500000000000014 74.500000000000014 34.500000000000007 19.975000000000005 19.845000000000002 33.500000000000007 40.500000000000007 5.5000000000000009 57.500000000000007 5.5000000000000009 6.5000000000000009 12.500000000000002 19.500000000000004 67.500000000000014 76.500000000000014
decision_type=2 2 2 2 10 2 2 2 2 2 2 2 8 8 2 2 2 2 10 8 2 2 2 2 2 2 2 2 2 2
left_child=1 6 -3 4 7 -6 -1 11 12 10 22 -2 13 15 -15 16 17 18 19 -9 -20 -18 -10 24 -24 -26 -8 28 -14 -30
right_child=3 2 -4 -5 5 -7 26 8 9 -11 -12 -13 27 14 -16 -17 21 -19 20 -21 -22 -23 23 -25 25 -27 -28 -29 29 -31
leaf_value=0.015565393310209872 -0.011058238283726981 -0.033982958149117864 -0.078816702130212912 -0.06649268035322449 0.030189871631908862 -0.14608328947771912 -0.19427946630771356 -0.092091142116272381 0.22083838663836783 0.013602904282818299 0.50120146059914927 0.30602897514576227 -0.078372119348757985 -0.12455925569994308 4.3591120149939657 0.037507420641095184 0.36234063449604847 0.024037976962037154 0.1336525573206738 7.3314813633552838 1.0551148683131364 0.9439407120185257 -0.05648299448167076 0.28556654954623473 1.3696246384508328 -0.48985722867607706 -0.019131704558931689 0.32583913612720933 0.21740358282982586 0.043205855043164397
leaf_weight=1401.3805833016522 1432.0986426924355 2602.5003206003457 3979.3665529031423 408.02654953137971 120.05560711398721 139.85248582391068 92.410912826191634 2.3148578675463827 87.320688097272068 2992.8911120304838 17.338198002893478 26.15598681429401 91.160966320428997 1.3197497292421749 1.1338659524917603 83.987722262740135 23.509277477860451 59.41377980215475 23.920207579154525 0.67734191613271821 4.4456755034625521 9.9479466155171377 130.91577776381746 28.745640507899225 3.5176035501062861 2.3278989349491894 189.97817160515115 25.992315419949591 92.408335391432047 347.27975491993129
leaf_count=75591 101118 7249 14105 2049 404 1253 2623 200 3112 18322 55 103 9428 43 1 252 45 803 724 10 20 27 17151 523 6 54 869 185 1034 1236
internal_value=0 -0.0486177 -0.0610892 0.0158743 0.0217204 -0.06466 0.000133564 0.0258107 0.0370921 0.022426 0.120169 -0.0053708 0.0994447 0.189422 1.94744 0.168706 0.257406 0.154989 0.4031 1.58838 0.27807 0.53527 0.0940384 0.0271393 -0.0271792 0.629109 -0.0764482 0.0654033 0.0526514 0.0798166
internal_weight=0 8265.64 6581.87 6156.76 5748.73 259.908 1683.77 5488.82 4030.57 3263.06 270.166 1458.25 767.512 210.67 2.45362 208.217 124.229 90.7719 31.3581 2.9922 28.3659 33.4572 252.828 165.507 136.761 5.8455 282.389 556.841 530.849 439.688
internal_count=258595 100437 21354 158158 156109 1657 79083 154452 53231 39223 20901 101221 14008 2125 44 2081 1829 1757 954 210 744 72 20846 17734 17211 60 3492 11883 11698 2270
shrinkage=0.05


Tree=6
num_leaves=31
num_cat=0
split_feature=21 0 7 4 0 0 19 4 3 1 0 9 0 10 8 3 21 0 1 21 5 3 5 0 9 1 6 18 0 2
split_gain=4882.94 1683.12 1048.29 996.906 832.084 752.01 1172.58 765.751 866.291 738.673 796.725 725.751 701.164 661.427 659.446 648.711 662.583 684.346 1431.22 4548.85 3086.76 1453.57 2367.6 658.953 634.754 623.247 603.352 585.898 585.671 607.022
threshold=4.5000000000000009 66.500000000000014 2.5000000000000004 1.0000000180025095e-35 34.500000000000007 52.500000000000007 1.5000000000000002 2.5000000000000004 16.525000000000002 14.500000000000002 51.500000000000007 16.500000000000004 33.500000000000007 1.0850000381469729 12.500000000000002 26.425000000000004 1.5000000000000002 75.500000000000014 1.0000000180025095e-35 2.5000000000000004 39.500000000000007 24.415000000000003 46.500000000000007 81.500000000000014 2.5000000000000004 35.500000000000007 1.0000000180025095e-35 3.5000000000000004 60.500000000000007 1.0000000180025095e-35
decision_type=2 2 2 2 2 2 2 2 8 2 2 2 2 8 2 10 2 2 2 2 2 10 2 2 2 2 2 2 2 2
left_child=1 9 5 15 12 6 -2 27 -9 10 -1 -6 -4 -5 25 16 -3 18 19 20 -18 22 -22 -19 -8 -11 -17 -7 -12 -30
right_child=2 3 4 13 11 7 24 8 -10 14 28 -13 -14 -15 -16 26 17 23 -20 -21 21 -23 -24 -25 -26 -27 -28 -29 29 -31
leaf_value=-0.051619151401480982 -0.047995791426479806 -0.072412669074271005 -0.31124251099395778 -0.010548746778847783 -0.071927083098319897 0.04426455773544484 0.4002591473987539 0.17565534993122781 -0.01245277691820057 -0.082729897333571653 0.10422663505921428 0.066633266809346309 0.69437410979588454 -0.077159731542504148 -0.0026840611232771807 -0.16115280880839719 -0.16427701621274865 -0.10131934590108893 0.022043038209908234 -0.037588059431693445 -0.12759700661115397 2.312490184090374 2.1659558642073558 -0.0052345208807729081 -0.30737618831050545 -0.37964947605604227 -0.042454136848340644 -0.047537525252328114 0.065765289742741734 -0.048981265433742906
leaf_weight=247.11893473239616 558.05537080764771 475.92335452884436 2.3405208508484048 413.20757694356143 589.61265310971066 3378.5055081774481 21.916218441445384 64.109013918787241 1351.280835644342 227.41843178868294 313.8548373542726 112.54228840023279 6.6822242736816406 3799.1901424126117 417.58757838746533 167.37397657893598 3.2189379064366213 207.82705507427454 216.74517982965335 23.656124287284911 2.2455925513058883 4.2308630235493183 2.255246086511761 1261.7941156663001 3.704721405170857 19.16269301250577 297.08028353005648 183.22897470183671 265.71143793128431 203.54898921586573
leaf_count=54289 97081 1569 117 644 3495 40582 99 79 15708 2480 14435 198 1 13461 1548 846 117 765 518 435 94 4 9 2041 94 253 851 704 5514 564
internal_value=0 -0.0444876 0.0135718 -0.0554888 -0.0435876 0.020882 -0.0328108 0.0271787 -0.00393256 0.000147678 0.0266546 -0.0497185 0.433515 -0.0706256 -0.0409689 -0.031539 -0.0201933 -0.00576083 0.0703058 0.36409 1.15921 1.64711 1.02164 -0.0188224 0.297937 -0.105805 -0.0852292 0.0395419 0.0513546 0.0159922
internal_weight=0 8569.15 6271.98 6874.75 711.178 5560.8 583.676 4977.12 1415.39 1694.4 1030.23 702.155 9.02275 4212.4 664.169 2662.35 2197.9 1721.97 252.352 35.6068 11.9506 8.7317 4.50084 1469.62 25.6209 246.581 464.454 3561.73 783.115 469.26
internal_count=258595 100437 158158 21354 3811 154347 97274 57073 15787 79083 74802 3693 118 14105 4281 7249 5552 3983 1177 659 224 107 103 2806 193 2733 1697 41286 20513 6078
shrinkage=0.05


Tree=7
num_leaves=31
num_cat=0
split_feature=21 0 10 0 0 2 6 3 1 0 3 16 1 12 12 21 0 0 0 6 16 5 0 0 0 3 3 8 12 17
split_gain=4228.07 1423.7 971.467 897.428 883.125 824.703 703.657 716.262 650.642 712.729 647.852 632.268 722.025 618.348 561.98 755.877 814.079 562.981 1022.28 2522.28 2582.88 2602.3 1715.95 1100.52 2059.82 990.178 599.975 540.853 528.909 523.848
threshold=4.5000000000000009 66.500000000000014 43.699998855590827 85.500000000000014 76.500000000000014 1.0000000180025095e-35 1.0000000180025095e-35 46.07500000000001 14.500000000000002 51.500000000000007 18.120000000000001 36.500000000000007 30.500000000000004 28.500000000000004 1.0000000180025095e-35 5.5000000000000009 89.500000000000014 62.500000000000007 78.500000000000014 1.0000000180025095e-35 1.5000000000000002 5.5000000000000009 75.500000000000014 74.500000000000014 75.500000000000014 28.185000000000006 28.265000000000004 12.500000000000002 7.5000000000000009 5.5000000000000009
decision_type=2 2 8 2 2 2 2 10 2 2 10 2 2 2 2 2 2 2 2 2 2 2 2 2 2 10 10 2 2 2
left_child=1 8 4 6 -2 11 7 -3 9 -1 -8 12 14 -7 15 17 -17 -4 19 20 23 -22 -23 -19 -25 -21 -27 -10 -6 -12
right_child=2 3 5 -5 28 13 10 -9 27 -11 29 -13 -14 -15 -16 16 -18 18 -20 25 21 22 -24 24 -26 26 -28 -29 -30 -31
leaf_value=-0.051662305747199821 -0.1379207881293259 -0.089709248266172659 -0.054170083390454739 -0.027713812011442143 0.034931699598395191 0.061857182657169621 0.0069640613578391261 0.14351102837916183 -0.094077215017947524 0.047306485669234809 -0.051356842975776563 0.22915977744433233 -0.054790665063918491 -0.20464790920417553 0.029154005028060967 -0.046665382741867906 0.043565391365774968 -0.051300799628087437 0.016567518698362399 -0.0063547906383217556 3.3123051067025027 -0.051908058883614619 1.7913941137511153 1.9313541057640027 0.35983066041084899 0.88955777746716758 -0.050985371273968495 -0.0025451505703639166 -0.1252200081208184 -0.14994083771797759
leaf_weight=234.87529180571437 193.45200999919325 2004.0486932060739 89.60343026323244 2707.6735960803926 231.58260209299624 1115.557443421334 465.53857999132015 33.471341930795461 262.7551411553286 806.77525425842032 1847.1788280644687 32.443947321269661 420.88049012003466 22.198251507245004 2484.7788183861412 1043.1001011934131 328.76205100119114 9.9001276511698997 178.65493824798614 67.119743193499744 1.4866982009261835 2.3613814692944288 2.7132662199437618 2.5217421716079107 12.042146920226514 5.3048396110534659 2.4921206030994654 418.3401743741706 66.316414236091077 145.35470628569601
leaf_count=54289 1610 8371 14969 5271 526 7190 1622 24 2733 20513 5381 142 2314 331 27551 100167 637 619 636 620 18 114 19 30 95 1 167 1548 402 685
internal_value=0 -0.0406888 0.0127759 -0.0504543 -0.0547381 0.0184739 -0.0641508 -0.085878 0.000143661 0.0249906 -0.046141 0.00919932 0.00766518 0.0566575 0.0138782 -0.00786033 -0.0250419 0.0551293 0.0895414 0.212601 0.591709 1.47262 0.933652 0.355446 0.63194 0.0556 0.588935 -0.0378567 -0.000720271 -0.0585485
internal_weight=0 8926.01 6313.27 7203.27 491.351 5821.92 4495.59 2037.52 1722.75 1041.65 2458.07 4684.17 4651.72 1137.76 4230.84 1746.06 1371.86 374.2 284.597 105.942 31.0254 6.56135 5.07465 24.464 14.5639 74.9167 7.79696 681.095 297.899 1992.53
internal_count=258595 100437 158158 21354 2538 155620 16083 8395 79083 74802 7688 148099 147957 7521 145643 118092 100804 17288 2319 1683 895 151 133 744 125 788 168 4281 928 6066
shrinkage=0.05


Tree=8
num_leaves=31
num_cat=0
split_feature=21 0 7 0 5 5 21 18 10 0 10 0 18 0 5 3 3 1 0 2 8 1 3 3 13 0 21 3 17 6
split_gain=3640.55 1210.22 865.647 781.98 730.923 817.021 774.753 749.86 638.824 621.983 926.271 617.281 769.099 632.902 1897.71 6111.15 9896.22 603.086 1989.43 1117.86 1115.89 582.903 531.55 531.483 528.69 566.444 519.458 576.237 514.596 512.496
threshold=4.5000000000000009 67.500000000000014 2.5000000000000004 86.500000000000014 12.500000000000002 37.500000000000007 3.5000000000000004 1.5000000000000002 1.435000002384186 65.500000000000014 1.5049999952316286 43.500000000000007 11.500000000000002 44.500000000000007 5.5000000000000009 24.465000000000003 24.530000000000005 1.5000000000000002 75.500000000000014 1.0000000180025095e-35 7.5000000000000009 29.500000000000004 37.475000000000001 46.07500000000001 1.0000000180025095e-35 51.500000000000007 1.5000000000000002 22.675000000000004 3.5000000000000004 1.0000000180025095e-35
decision_type=2 2 2 2 2 2 2 2 10 2 8 2 2 2 2 10 8 2 2 2 2 2 10 10 2 2 2 8 2 2
left_child=1 24 8 4 29 7 17 -6 11 10 -4 12 -2 14 15 -13 -17 18 19 -7 26 -12 28 -8 25 -1 27 -20 -15 -3
right_child=2 3 9 -5 5 6 23 -9 -10 -11 21 13 -14 22 -16 16 -18 -19 20 -21 -22 -23 -24 -25 -26 -27 -28 -29 -30 -31
leaf_value=-0.054674956823540281 -0.053831192874093853 -0.063347108232212651 -0.21796072870861247 -0.023485163035502816 -0.16312297575126844 0.25941578115702135 -0.024231792168352535 -0.025004128223864355 -0.12895924500737041 -0.059294530700389515 -0.1327973051996896 -0.050736851041518219 0.34797757215648645 0.030066332234553652 0.10921833989163195 9.3210183799545572 -0.050474275018555115 -0.090957742936799119 -0.081983111668262595 -0.11214779253539645 -0.0019094046758171051 0.18793497588049707 -0.12531987287928781 0.28401474114607533 -0.04638344666616355 0.029056560790204862 -0.12749505475504347 -0.48564661455189856 -0.026310721133931361 -0.0026332145378756221
leaf_weight=245.58736925455742 371.05886157695204 598.25534074753523 23.449457738548517 2432.9300384055823 389.68960501998663 78.839426945894957 798.36728000734001 131.40508361533284 72.63523501646705 621.30570589611307 17.170130022801459 2.523781202267855 12.304134368896483 4645.6642981893383 29.273667247034609 0.53354474762454596 0.5968095581047238 1628.930960342288 14.068402130156754 27.234997406601906 211.43068496976048 80.970198763534427 59.374130684882402 14.233360990881918 487.05859004083322 1137.6626686166273 143.77749029360712 23.793726117350161 443.39534220704809 829.52410288155079
leaf_count=53414 70760 1853 130 4528 2582 997 2204 234 736 2897 417 400 1 73702 2639 2 96 5091 43 95 337 367 2262 5 5199 21347 634 285 3749 1589
internal_value=0 -0.0374802 0.0116781 -0.0466489 -0.0581746 -0.0705898 -0.0603646 -0.128293 0.0183638 -0.0390554 0.0643633 0.0202868 -0.040935 0.0248165 0.243327 1.31769 4.37302 -0.0762235 -0.0281391 0.164015 -0.0799942 0.131821 0.023419 -0.0188326 -0.00158389 0.0141906 -0.170886 -0.335658 0.0251544 -0.028073
internal_weight=0 9192.79 6380.26 7322.48 4889.55 3461.77 2940.68 521.095 5637.36 742.895 121.59 5564.72 383.363 5181.36 32.9278 3.65414 1.13035 2128.08 499.145 106.074 393.07 98.1403 5148.43 812.601 1870.31 1383.25 181.64 37.8621 5089.06 1427.78
internal_count=258595 100437 158158 20477 15949 12507 9691 2816 154347 3811 914 153611 70761 82850 3137 498 98 7482 2391 1092 1299 784 79713 2209 79960 74761 962 328 77451 3442
shrinkage=0.05


Tree=9
num_leaves=31
num_cat=0
split_feature=21 4 0 10 2 11 0 14 0 12 5 4 4 4 21 12 7 4 0 12 0 19 0 13 9 3 13 11 3 12
split_gain=3063.6 1060.87 881.611 775.147 763.231 760.579 688.501 625.508 606.006 548.321 536.011 825.514 2642.29 589.365 543.066 628.728 607.884 676.318 761.234 1192.62 524.806 837.101 534.31 1589.02 3567.54 549.847 470.535 575.76 746.083 456.884
threshold=4.5000000000000009 1.5000000000000002 66.500000000000014 43.699998855590827 1.0000000180025095e-35 3.5000000000000004 76.500000000000014 12.500000000000002 51.500000000000007 28.500000000000004 36.500000000000007 17.500000000000004 18.500000000000004 7.5000000000000009 11.500000000000002 32.500000000000007 2.5000000000000004 1.0000000180025095e-35 80.500000000000014 8.5000000000000018 65.500000000000014 1.0000000180025095e-35 68.500000000000014 1.0000000180025095e-35 2.5000000000000004 27.350000000000005 1.0000000180025095e-35 1.0000000180025095e-35 19.425000000000004 7.5000000000000009
decision_type=2 2 2 8 2 2 2 2 2 2 2 2 2 2 2 2 2 2 2 2 2 2 2 2 2 10 2 2 10 2
left_child=1 2 8 6 10 -3 -2 -7 -1 -6 11 -5 -13 14 16 -16 20 18 19 -18 21 -12 23 25 -25 -22 -4 28 -28 -8
right_child=3 5 26 4 9 7 29 -9 -10 -11 13 12 -14 -15 15 -17 17 -19 -20 -21 22 -23 -24 24 -26 -27 27 -29 -30 -31
leaf_value=-0.050399270175704149 -0.11814546836872673 -0.066381007073897422 -0.025227259023928368 -0.017753261444467223 0.056641980582757212 -0.010891309903434218 0.032984817323544073 -0.35461231461565801 0.042632817141703527 -0.19570811113223718 -0.049786128105680783 1.7877581167504877 0.10440450156622445 -0.07448207788889101 0.070735008803488902 0.37363973976957837 1.0400293494405406 -0.097492282849372669 -0.043515698197116759 0.1427262601218382 -0.0052326902419078955 0.1985303309230235 0.035221732318584976 2.900525879055726 -0.054242212975571628 0.28051997786463623 -0.7257491892101493 -0.042839289718486107 -0.15331746844417363 -0.11436368469624787
leaf_weight=225.04557791445404 210.44970003864728 3027.8752447604493 4154.4198411430698 1916.3404647794086 1133.2668859506957 962.28707582002971 233.13940154854208 13.420711629092692 787.86935845576227 21.943053571972996 333.12379060941748 2.5397663051262525 28.380445353221148 154.25362498918548 69.816140588838607 22.701856242492795 4.5261185211129513 194.88133502891287 41.708857266232371 20.364595423452556 40.053357091732323 37.789715931983665 1852.6681010941975 1.6834364049136628 2.5982351433485746 29.040196978021413 6.0627552615478626 216.47855052724481 93.13036226388067 67.938836012035608
leaf_count=48221 1610 25495 10481 82705 7190 1663 526 128 13469 331 49879 44 201 2069 2120 28 23 1149 153 95 869 188 8158 31 60 327 100 463 417 402
internal_value=0 -0.0344426 -0.020155 0.0102842 0.0153969 -0.0540099 -0.0487624 -0.0156191 0.0219633 0.0518486 0.00653631 -0.013618 0.242674 0.0205266 0.026055 0.145061 0.0217515 -0.0504838 0.0870707 0.305892 0.0299746 -0.0244869 0.0404627 0.172792 1.10749 0.11487 -0.0296989 -0.0885488 -0.188305 -0.000264632
internal_weight=0 9486.59 5483.01 6419.21 5907.68 4003.58 511.528 975.708 1012.91 1155.21 4752.47 1947.26 30.9202 2805.21 2650.96 92.518 2558.44 261.481 66.5996 24.8907 2296.96 370.914 1926.04 73.3752 4.28167 69.0936 4470.09 315.672 99.1931 301.078
internal_count=258595 100437 73151 158158 155620 27286 2538 1791 61690 7521 148099 82950 245 65149 63080 2148 60932 1420 271 118 59512 50067 9445 1287 91 1196 11461 980 517 928
shrinkage=0.05


Tree=10
num_leaves=31
num_cat=0
split_feature=21 0 1 0 3 5 0 10 2 0 4 0 21 12 14 8 12 2 7 1 12 19 21 20 1 0 3 3 4 17
split_gain=2667.52 898.432 692.135 813.253 851.17 721.239 715.938 1396.76 672.938 597.917 596.648 748.677 1395.43 1215.54 1044.52 1022.99 969.11 874.644 854.644 704.97 579.358 568.795 554.225 754.53 529.857 576.102 521.34 499.701 505.913 484.883
threshold=4.5000000000000009 66.500000000000014 21.500000000000004 65.500000000000014 28.085000000000004 2.5000000000000004 61.500000000000007 2.8550000190734868 1.0000000180025095e-35 87.500000000000014 1.5000000000000002 80.500000000000014 7.5000000000000009 1.5000000000000002 1.5000000000000002 2.5000000000000004 32.500000000000007 1.0000000180025095e-35 6.5000000000000009 1.5000000000000002 22.500000000000004 1.5000000000000002 3.5000000000000004 4.5000000000000009 14.500000000000002 51.500000000000007 28.045000000000005 19.425000000000004 21.500000000000004 6.5000000000000009
decision_type=2 2 2 2 8 2 2 8 2 2 2 2 2 2 2 2 2 2 2 2 2 2 2 2 2 2 8 10 2 2
left_child=1 24 3 4 5 -2 7 -4 9 22 11 12 15 17 16 -5 -15 -14 -17 -12 -9 26 -3 -24 25 -1 -7 -10 -29 -26
right_child=2 8 6 10 -6 21 -8 20 27 -11 19 -13 13 14 -16 18 -18 -19 -20 -21 -22 -23 23 -25 29 -27 -28 28 -30 -31
leaf_value=-0.051810610371662805 0.19281757326676291 -0.070261609896563493 -0.14593119974594546 0.1614933276304413 -0.060551297524100448 -0.02249054132834687 -0.034200634453872288 0.16640202300922291 0.021722182500984819 -0.024338248335505061 -0.088107137349598338 0.026119793558889288 -0.051769087742550436 0.39350037709449148 0.13659105928301468 -0.01891219501161016 1.1997368556734289 0.19744468942597326 0.45461364527426362 0.016665038631367191 -0.12771036156308591 0.1897030989897962 -0.016373782687986331 -0.20637398900277734 -0.025989334639710343 0.04275237943180947 0.28757838243581207 -0.033017264478587632 0.27980766625788683 -0.3040717667968289
leaf_weight=200.91211535828188 58.856528686592355 2903.6403113804699 60.199141590856016 121.49318730505183 586.17214508843608 382.46164380689152 1306.390771451639 152.35875930311158 631.25395956076682 1791.6519728116691 189.80253157671541 1905.39309681952 64.247444310691208 55.681152286008 49.375389334280044 353.07389300037175 3.9946470297873011 77.889200021512806 9.7930877506732923 1041.8503767424263 18.811398035380989 38.539894390851259 936.67167444969527 55.339798045344651 698.53380808490328 812.06301099946722 14.054563634563236 1643.5119904316962 13.026925366371868 16.035676771309227
leaf_count=54289 1150 10732 294 1114 97000 28509 5191 1516 671 3329 3006 5424 2968 429 522 2675 15 722 8 6772 557 88 2962 309 4021 20513 198 3335 16 260
internal_value=0 -0.0319508 0.00945936 0.0185575 -0.0198075 0.028547 -0.0198431 0.0612245 -0.0390321 -0.0482439 0.0292577 0.0426604 0.0855078 0.18114 0.306712 0.0359134 0.447469 0.0847971 -0.00613264 0.000519236 0.134079 0.00632368 -0.0592384 -0.026973 0.000739675 0.0239969 -0.0115001 -0.0161322 -0.0305572 -0.0322298
internal_weight=0 9702.64 6490.44 4952.68 1080.08 493.913 1537.76 231.369 7975.1 5687.3 3872.59 2640.94 735.548 251.188 109.051 484.36 59.6758 142.137 362.867 1231.65 171.17 435.056 3895.65 992.011 1727.54 1012.98 396.516 2287.79 1656.54 714.569
internal_count=258595 100437 158158 150600 126945 29945 7558 2367 21354 17332 23655 13877 8453 4656 966 3797 444 3690 2683 9778 2073 28795 14003 3271 79083 74802 28707 4022 3351 4281
shrinkage=0.05


Tree=11
num_leaves=31
num_cat=0
split_feature=21 4 0 11 10 2 12 0 5 4 5 0 0 15 10 0 4 5 12 5 3 14 0 6 3 1 0 9 5 2
split_gain=2328.87 818.812 696.616 629.474 626.033 557.554 540.605 522.178 509.813 478.612 539.701 617.142 1143.09 986.094 476.518 472.701 425.943 475.978 420.639 413.099 402.284 391.921 391.137 405.824 435.619 458.13 527.099 1690.86 487.804 415.437
threshold=4.5000000000000009 1.5000000000000002 66.500000000000014 3.5000000000000004 0.73500001430511486 1.0000000180025095e-35 28.500000000000004 56.500000000000007 41.500000000000007 1.0000000180025095e-35 36.500000000000007 67.500000000000014 83.500000000000014 4.5000000000000009 0.79500001668930065 54.500000000000007 17.500000000000004 5.5000000000000009 60.500000000000007 8.5000000000000018 16.525000000000002 12.500000000000002 83.500000000000014 1.0000000180025095e-35 15.505000000000001 3.5000000000000004 75.500000000000014 1.0000000180025095e-35 7.5000000000000009 1.0000000180025095e-35
decision_type=2 2 2 2 10 2 2 2 2 2 2 2 2 2 10 2 2 2 2 2 8 2 2 2 8 2 2 2 2 2
left_child=1 2 7 -3 5 8 -7 14 9 10 -2 -12 13 -13 -1 -6 -11 -18 20 -17 -10 -5 23 -4 -25 26 27 29 -28 -26
right_child=4 3 22 21 15 6 -8 -9 18 16 11 12 -14 -15 -16 19 17 -19 -20 -21 -22 -23 -24 24 25 -27 28 -29 -30 -31
leaf_value=-0.022284702303927855 -0.011003305413614904 -0.056921481670325486 -0.065853271066842717 -0.0077733861396221673 -0.31960816262734421 0.046956631404738207 -0.17525365668501228 0.044566235224067358 0.1101189201887431 -0.027203470310403516 -0.044344428757224538 0.16732745751935574 0.025514363524392316 0.84563416933463265 -0.36848176180753706 0.026289030130454888 0.42461123045481347 0.039662390578673747 -0.22959887653559782 -0.081966250346230951 0.022506554161393091 -0.24062928745170839 -0.012032335843702351 0.23905947476744405 0.14378463047541098 -0.055801117018717844 0.033203766632630131 1.065210282004567 -0.08820193537269172 0.0010039631612426263
leaf_weight=293.07244271761738 834.11543888039887 3244.3707257852948 930.13093060988467 1005.659797467757 15.89828152884729 1247.9830902088434 27.984849941683933 696.79822199372575 143.78386569675058 1787.2117994935252 133.02626322046854 142.43233202118427 328.84395275078714 5.5674791773781171 10.28862283984199 141.23303721053526 10.408925235737113 35.137036692816764 15.721419234760104 234.35154750803486 1476.1033976008184 18.400888371281326 2546.2496337741613 15.79116998799145 73.874227521941066 602.50221903831698 149.24953175894916 4.1344666746444991 185.66286023985595 164.14179192110896
leaf_count=53706 50055 25495 3578 1663 283 7454 367 7772 113 52046 23390 1001 722 36 212 375 44 351 218 1353 20350 128 4262 12 1020 1563 124 38 655 209
internal_value=0 -0.0295918 -0.0171429 -0.0461339 0.00875622 0.0126353 0.0420831 0.0207282 0.00498638 -0.00639381 0.0151346 0.0508832 0.0774491 0.192844 -0.0340261 -0.0525623 -0.0233555 0.127637 0.0277852 -0.0412585 0.0302832 -0.0119575 -0.0252506 -0.0410855 -0.0218132 -0.0253056 0.00653425 0.0627331 -0.034099 0.0453195
internal_weight=0 9940.33 5671.9 4268.43 6579.8 6188.32 1275.97 1000.16 4912.35 3276.74 1443.99 609.87 476.844 148 303.361 391.483 1832.76 45.546 1635.61 375.585 1619.89 1024.06 4671.74 2125.49 1195.36 1179.57 577.063 242.15 334.912 238.016
internal_count=258595 100437 73151 27286 158158 156147 7821 61690 148326 127645 75204 25149 1759 1037 53918 2011 52441 395 20681 1728 20463 1791 11461 7199 3621 3609 2046 1267 779 1229
shrinkage=0.05


Tree=12
num_leaves=31
num_cat=0
split_feature=21 4 7 0 19 6 3 5 17 0 14 3 3 0 11 16 17 16 0 0 3 10 20 1 8 14 3 13 3 0
split_gain=2045.46 705.812 587.515 647.241 641.864 548.795 592.199 541.542 512.306 471.353 590.647 449.37 440.819 426.164 421.96 519.289 420.931 418.007 414.96 446.87 407.918 515.631 403.472 402.34 388.358 387.174 385.013 384.375 377.399 489.321
threshold=4.5000000000000009 1.0000000180025095e-35 2.5000000000000004 52.500000000000007 1.5000000000000002 1.0000000180025095e-35 27.350000000000005 11.500000000000002 3.5000000000000004 65.500000000000014 3.5000000000000004 21.135000000000002 37.475000000000001 60.500000000000007 1.0000000180025095e-35 21.500000000000004 64.000000000000014 11.500000000000002 73.500000000000014 59.500000000000007 33.915000000000006 1.8899999856948855 17.500000000000004 1.0000000180025095e-35 9.5000000000000018 1.5000000000000002 46.07500000000001 2.5000000000000004 19.535000000000004 67.500000000000014
decision_type=2 2 2 2 2 2 10 2 2 2 2 10 10 2 2 2 2 2 2 2 10 10 2 2 2 2 10 2 8 2
left_child=1 5 3 4 -2 6 17 13 12 10 24 18 22 20 15 26 27 -1 19 -9 21 -7 -5 -13 -4 -11 28 -10 -3 -30
right_child=2 14 9 8 -6 7 -8 11 16 25 -12 23 -14 -15 -16 -17 -18 -19 -20 -21 -22 -23 -24 -25 -26 -27 -28 -29 29 -31
leaf_value=-0.018291936994529977 -0.05690980300695786 -0.0051258143248262738 -0.082676375684088588 0.027198821011204591 0.14165348891686522 -0.018075898167228415 -0.10878137467502531 -0.039144783685384009 -0.067497514049869409 -0.14576229056678955 -0.19408028194154478 0.016448379381147748 -0.12739244405466171 0.030315931035210544 -0.021865956366711334 -0.29502110917609015 0.20188189012701249 -0.56003337206557047 -0.014028850186797845 0.11704165850834264 0.31207871754677652 0.35651778537177337 -0.0984077277138352 -0.070510238799074851 0.13492266539928896 -0.034193818691272838 0.10603995583934306 0.038561888165109082 -0.016736450070467999 -0.064001668691319846
leaf_weight=1705.2460457056295 469.25740683393087 444.61000139045063 25.749714280478656 4689.4142817978282 44.564258645521477 38.550993498880416 207.97865915088914 63.849521366646513 335.14033095026389 89.710399695672095 21.288071948569268 198.6946126637049 47.624917458277196 603.96111876703799 2551.8599766070256 21.17665167665109 18.661101020872593 3.5681805107742539 350.52146010380238 161.9748958949931 26.923007487785071 12.06073162704706 64.817192798480392 402.41849292535335 100.6713312540669 583.81083137076348 40.796819729497656 114.6522387964651 691.31015780128655 2633.8256528987549
leaf_count=26148 97081 1410 238 51414 193 4629 3239 12547 3437 690 364 2362 1561 1217 5235 268 22 120 645 1184 120 2 326 2620 312 2207 186 313 29595 8910
internal_value=0 -0.0274825 0.0082598 0.0138786 -0.0396882 -0.0103464 -0.0291188 0.0090101 0.019101 -0.0313149 0.0495728 -0.0115209 0.0239701 0.0444827 -0.0376182 -0.0481089 -0.030809 -0.0194231 0.0200245 0.0728816 0.154835 0.0711895 0.0254864 -0.0417665 0.0906016 -0.0490543 -0.0467367 -0.0404629 -0.0483901 -0.054175
internal_weight=0 10159.3 6605.36 5784.13 513.822 3775.75 1916.79 1858.95 5270.31 821.23 147.709 1177.46 4801.86 681.496 6383.58 3831.72 468.454 1708.81 576.346 225.824 77.5347 50.6117 4754.23 601.113 126.421 673.521 3810.54 449.793 3769.75 3325.14
internal_count=258595 100437 158158 154347 97274 54833 29507 25326 57073 3811 914 19358 53301 5968 45604 40369 3772 26268 14376 13731 4751 4631 51740 4982 550 2897 40101 3750 39915 38505
shrinkage=0.05


Tree=13
num_leaves=31
num_cat=0
split_feature=21 4 4 0 5 12 0 21 8 0 15 14 7 11 0 0 20 20 16 3 7 5 13 12 2 5 3 21 14 3
split_gain=1801.11 634.722 562.12 587.33 692.481 675.35 560.542 816.215 899.988 554.266 542.404 496.572 494.046 487.899 454.131 450.65 423.917 550.451 422.066 434.141 435.964 429.621 407.534 423.05 553.99 426.358 435.185 393.142 376.958 375.021
threshold=4.5000000000000009 1.5000000000000002 1.5000000000000002 66.500000000000014 2.5000000000000004 9.5000000000000018 80.500000000000014 7.5000000000000009 2.5000000000000004 66.500000000000014 4.5000000000000009 12.500000000000002 2.5000000000000004 2.5000000000000004 56.500000000000007 44.500000000000007 13.500000000000002 12.500000000000002 36.500000000000007 22.635000000000002 7.5000000000000009 43.500000000000007 1.0000000180025095e-35 1.5000000000000002 1.0000000180025095e-35 38.500000000000007 19.155000000000005 10.500000000000002 14.500000000000002 22.745000000000001
decision_type=2 2 2 2 2 2 2 2 2 2 2 2 2 2 2 2 2 2 2 10 2 2 2 2 2 2 8 2 2 8
left_child=1 9 3 4 -2 10 7 8 -5 14 -6 18 27 -3 -1 -7 17 -10 19 20 -4 -21 23 24 -9 26 -25 -8 -15 -27
right_child=2 13 11 6 5 15 12 22 16 -11 -12 -13 -14 28 -16 -17 -18 -19 -20 21 -22 -23 -24 25 -26 29 -28 -29 -30 -31
leaf_value=-0.03212458366417216 0.12100220556216035 -0.049922582124385918 -0.033726652282046639 0.13431867764086811 -0.048065304807642227 0.16981153445297115 0.028907917583070198 -0.051665222366800323 -0.016848577050103338 -0.021680642034607952 -0.7045884160815028 -0.23416535230178226 -0.065545584780213786 -0.010598169574981324 0.041461400699564416 -0.058632862341788231 -0.38927314899667587 0.30678286475373195 0.1460535839417948 0.010381688378478875 -0.2554173722563931 -0.094218856059207559 -0.029028608624587216 0.39133872127214925 0.1384146754277161 -0.14062520003285026 0.049562547736158348 -0.052550288166238218 -0.30529020349854524 0.26784457086667041
leaf_weight=300.22279505454935 80.945369559107348 3246.5904681355751 836.6670850829687 136.19652433879673 645.75751950521953 62.648754145484418 1845.7624540911056 57.371801041532308 412.28069913643412 4870.9752452417742 3.1614316795021287 24.49726663925685 173.6211290853098 1240.5711680160603 695.12200896441936 32.938762520556338 7.3596657179296008 13.571347400546072 43.717505112290382 1602.0884285020875 22.780474215280265 104.57281716354191 43.968404271174222 10.751746401190756 115.51080553326756 5.9337038658559313 69.645148682408035 161.04600988142192 10.947426760569213 106.02145771775395
leaf_count=53918 3318 25074 16936 991 98816 853 4667 2586 2688 11461 48 236 701 2120 7772 602 77 3 73 21369 228 1188 329 50 663 78 597 840 92 221
internal_value=0 -0.025568 0.00781977 0.0196677 -0.0178863 -0.0329868 0.0294805 0.060919 0.0222089 -0.0147332 -0.0512638 -0.0101006 0.0153704 -0.0396985 0.0192659 0.0910913 -0.0130371 -0.00653487 -0.00799737 -0.0106219 -0.0396028 0.00397246 0.114784 0.132097 0.0753359 0.183113 0.0952694 0.0223709 -0.0131759 0.246195
internal_weight=0 10364.4 6618.82 3984.49 825.452 744.506 3159.04 978.611 569.408 5866.32 648.919 2634.32 2180.43 4498.11 995.345 95.5875 433.212 425.852 2609.83 2566.11 859.448 1706.66 409.203 365.235 172.883 192.352 80.3969 2006.81 1251.52 111.955
internal_count=258595 100437 158158 118128 103637 100319 14491 8283 3759 73151 98864 40030 6208 27286 61690 1455 2768 2691 39794 39721 17164 22557 4524 4195 3249 946 647 5507 2212 299
shrinkage=0.05


Tree=14
num_leaves=31
num_cat=0
split_feature=21 5 10 2 13 1 0 0 5 1 4 5 0 10 0 3 5 12 11 7 3 4 1 8 21 4 4 15 15 7
split_gain=1592.93 605.772 527.285 497.858 496.686 632.762 624.331 475.682 414.688 502.307 470.39 487.336 403.854 403.496 434.229 437.698 409.061 396.058 375.38 511.155 519.457 451.382 445.026 360.047 454.591 389.241 554.785 511.807 354.667 355.632
threshold=4.5000000000000009 2.5000000000000004 43.699998855590827 1.0000000180025095e-35 1.0000000180025095e-35 14.500000000000002 66.500000000000014 84.500000000000014 42.500000000000007 22.500000000000004 1.0000000180025095e-35 36.500000000000007 51.500000000000007 1.0049999952316286 83.500000000000014 46.07500000000001 43.500000000000007 28.500000000000004 1.0000000180025095e-35 1.5000000000000002 18.725000000000005 1.0000000180025095e-35 15.500000000000002 1.0000000180025095e-35 2.5000000000000004 3.5000000000000004 6.5000000000000009 5.5000000000000009 1.5000000000000002 3.5000000000000004
decision_type=2 2 8 2 2 2 2 2 2 2 2 2 2 8 2 10 2 2 2 2 10 2 2 2 2 2 2 2 2 2
left_child=1 -1 7 8 6 -6 12 -2 10 -10 11 -4 -3 -8 15 28 -16 -5 19 21 -21 -7 -20 24 -18 27 -27 -25 29 -15
right_child=2 4 3 17 5 18 13 -9 9 -11 -12 -13 -14 14 16 -17 23 -19 22 20 -22 -23 -24 25 -26 26 -28 -29 -30 -31
leaf_value=0.030474222894853537 -0.074595399822071667 -0.051597637487380221 -0.010729531964161262 0.04383147167447736 -0.17845666008249189 -0.38269636316495403 0.018291341438093415 0.022401905323115315 0.05010953046953396 -0.040468772557521057 -0.018228938045501426 0.042904202686561255 0.026961196356732484 -0.056480244877864461 -0.0077395476042187092 0.1262669695976949 -0.76009615129480546 -0.16749646310751098 0.24946254662528011 -0.37758841380250702 -0.020817366160500953 -0.11001594886169819 -0.03053287512001155 -0.028653882521915638 -0.14052990113180461 -0.4289359462734722 -0.069982656081136546 -0.41360872119805958 0.0029174031090925777 -0.00304170331461845
leaf_weight=488.66307971347123 350.80325629364233 198.23636257345788 824.91246228269301 1208.414159075357 90.743242148135323 16.13486238475889 464.45333672431298 197.59087314549834 813.69962162338197 188.52110504661687 2202.4538524169475 870.46231094840914 936.22805778915063 2607.056861324847 2551.1324138268828 37.976316078566015 3.8089644685387638 22.585340895224363 14.361754752695559 10.554570464417337 305.93428784841672 255.55458339798497 1196.0481837359257 574.4292876534164 13.293229877948759 15.423060104250906 35.636533409357071 8.7660469152033311 353.08487109979615 353.56004456826486
leaf_count=2502 2139 52018 50023 7190 2458 538 502 399 9173 819 57431 30653 20021 10242 4073 21 62 331 16 111 651 1985 2689 1129 59 156 96 88 547 473
internal_value=0 -0.0238887 0.00732603 0.0115275 -0.0265339 -0.0496333 -0.0211811 -0.0396465 0.00438609 0.0330714 -0.00298957 0.0168078 0.0132338 -0.0267438 -0.0299352 -0.0425152 -0.016769 0.0399542 -0.0431338 -0.0759019 -0.0327153 -0.12621 -0.0272107 -0.0521343 -0.278518 -0.0460301 -0.178408 -0.0344402 -0.0444495 -0.0500986
internal_weight=0 10531.1 6679.44 6131.05 10042.4 1889.33 8153.09 548.394 4900.05 1002.22 3897.83 1695.37 1134.46 7018.62 6554.17 3351.68 3202.49 1231 1798.59 588.178 316.489 271.689 1210.41 651.357 17.1022 634.255 51.0596 583.195 3313.7 2960.62
internal_count=258595 100437 158158 155620 97935 8448 89487 2538 148099 9992 138107 80676 72039 17448 16946 11283 5663 7521 5990 3285 762 2523 2705 1590 121 1469 252 1217 11262 10715
shrinkage=0.05


Tree=15
num_leaves=31
num_cat=0
split_feature=21 5 17 1 8 8 0 0 1 0 10 13 4 8 15 14 12 1 5 17 10 0 12 8 12 11 20 1 3 18
split_gain=1431.83 664.446 551.464 493.599 829.961 728.571 487.666 653.143 1171.67 543.311 528.736 442.127 419.642 406.143 368.166 358.861 358.544 372.664 357.881 697.516 336.026 329.804 325.203 795.707 401.541 550.219 407.027 416.069 327.814 577.075
threshold=3.5000000000000004 3.5000000000000004 3.5000000000000004 1.0000000180025095e-35 8.5000000000000018 5.5000000000000009 60.500000000000007 55.500000000000007 12.500000000000002 87.500000000000014 0.75499999523162853 1.5000000000000002 1.5000000000000002 15.500000000000002 24.500000000000004 5.5000000000000009 11.500000000000002 1.0000000180025095e-35 42.500000000000007 9.5000000000000018 1.0199999809265139 52.500000000000007 22.500000000000004 33.500000000000007 20.500000000000004 1.0000000180025095e-35 17.500000000000004 39.500000000000007 19.040000000000003 1.0000000180025095e-35
decision_type=2 2 2 2 2 2 2 2 2 2 8 2 2 2 2 2 2 2 2 2 10 2 2 2 2 2 2 2 10 2
left_child=1 -1 3 4 14 11 7 20 -9 10 -8 21 -6 -4 -2 -15 -12 -18 -19 -20 -3 -5 23 24 26 -26 -7 -28 -24 -30
right_child=2 6 13 5 12 22 9 8 -10 -11 16 -13 -14 15 -16 -17 17 18 19 -21 -22 -23 28 -25 25 -27 27 -29 29 -31
leaf_value=0.016875749971982455 -0.036449404641130327 -0.040913289690319279 -0.072872160527191185 -0.069532988047886685 0.068172968615551 0.0079425527636580902 0.016116638914663865 0.11837891798672753 -0.047503731607796501 -0.011638225010030253 -0.057760634176545617 -0.092601829566648641 -0.089003940958543026 0.01456536657301786 0.1782126295825277 -0.098043195308115519 0.053924735960758564 -0.020175099191589382 -0.064680072143473544 -0.56048873602897731 -0.31617531574081709 0.05094659674661222 0.029321219283387125 0.46914086625432855 0.1349477638796111 -0.080035442626508746 -0.22485511284288703 0.012951099013961537 -0.10392108497670501 -0.0085992428915401785
leaf_weight=825.54207917395979 1412.1254499714123 246.74452747718897 387.48996383952908 58.924863782944158 343.18444982892834 3291.3913774915272 352.86450918903574 247.77724491525441 186.62828991259448 1915.277711853385 2995.3691994735273 59.096454285201617 48.462890163995326 414.33321070158854 20.26095556654036 85.317918851971626 125.41649407008663 1110.6840019531082 460.36070832796395 7.2046019807457915 11.608790096128358 1577.1513267990667 232.47007164172828 9.4241397976875287 127.76909717870876 38.800421458669007 38.373464886331931 35.325730510056019 232.47447906050365 500.85239320062101
leaf_count=3287 108493 46018 4031 10917 4894 33495 340 5244 636 3006 13956 1714 2090 1405 19 479 183 1916 1183 89 201 10178 438 14 239 154 330 56 2492 1098
internal_value=0 -0.0257434 0.00295238 0.00708719 -0.015777 0.0138116 -0.0303366 0.00967222 0.0471128 -0.0343148 -0.0429119 0.0417543 0.0487237 -0.0344558 -0.033413 -0.00466311 -0.0473446 -0.0290311 -0.0356233 -0.0723199 -0.0532819 0.0466074 0.00330149 0.0103158 0.00909143 0.0848699 0.00534045 -0.110869 -0.0224164 -0.0388175
internal_weight=0 8485.48 8913.23 8026.09 1824.03 6202.05 7659.94 692.759 434.406 6967.18 5051.9 1695.17 391.647 887.141 1432.39 499.651 4699.04 1703.67 1578.25 467.565 258.353 1636.08 4506.88 3541.08 3531.66 166.57 3365.09 73.6992 965.797 733.327
internal_count=258595 76059 182536 176621 115496 61125 72772 52099 5880 20673 17667 22809 6984 5915 108512 1884 17327 3371 3188 1272 46219 21095 38316 34288 34274 393 33881 386 4028 3590
shrinkage=0.05


Tree=16
num_leaves=31
num_cat=0
split_feature=21 4 10 21 7 0 6 3 0 1 5 1 5 4 4 21 1 18 20 5 3 12 0 0 2 6 5 0 8 8
split_gain=1276.04 506.16 462.863 489.948 473.95 458.069 444.93 442.046 441.149 503.463 567.266 762.574 429.88 429.782 493.241 414.173 582.555 401.359 385.506 359.936 358.329 355.824 347.297 371.194 345.341 343.998 338.173 333.289 326.609 326.221
threshold=4.5000000000000009 1.0000000180025095e-35 0.73500001430511486 5.5000000000000009 3.5000000000000004 57.500000000000007 1.0000000180025095e-35 26.425000000000004 58.500000000000007 21.500000000000004 42.500000000000007 19.500000000000004 11.500000000000002 1.0000000180025095e-35 17.500000000000004 10.500000000000002 19.500000000000004 48.500000000000007 8.5000000000000018 12.500000000000002 21.135000000000002 2.5000000000000004 73.500000000000014 59.500000000000007 1.0000000180025095e-35 1.0000000180025095e-35 33.500000000000007 80.500000000000014 4.5000000000000009 7.5000000000000009
decision_type=2 2 10 2 2 2 2 10 2 2 2 2 2 2 2 2 2 2 2 2 10 2 2 2 2 2 2 2 2 2
left_child=1 6 3 4 -2 -5 7 -1 26 10 13 21 -8 -10 15 -15 24 28 -9 -4 22 25 23 -14 -17 -12 -7 -13 -11 -3
right_child=2 29 19 5 -6 8 12 18 9 17 11 27 20 14 -16 16 -18 -19 -20 -21 -22 -23 -24 -25 -26 -27 -28 -29 -30 -31
leaf_value=-0.013639385689404974 0.039080311680992283 -0.049552833493696984 0.010525722416015662 -0.044006514350781088 -0.07368364510521011 0.17817447226952662 0.041862371757713984 -0.11097916131184804 0.025158873520995058 0.14778756278164981 0.026848558643901933 0.21117225978699705 -0.036725885811984972 -0.036697329380559147 0.14877569972922305 -0.041450783190708815 0.22165646586023732 0.067332708330349836 0.030279438104283747 -0.084403997880633935 -0.032848235058177404 0.075403475068026526 -0.0085603553902505024 0.10934674976674293 0.077977298066840214 -0.13464420533349652 -0.075665139800360132 0.61117924842970384 -0.047516619043858871 -0.023350434029984185
leaf_weight=1731.5262363109505 1642.2372897646856 1524.5018554715498 171.67971000121906 493.13010136678349 98.787289059022442 61.896436579525471 695.38521754741669 225.13992186472751 1228.4189874960575 22.054261241108179 149.42923658154905 18.016077433712784 59.345753238303587 1000.3281887129415 44.01205688342452 156.27665835875086 35.251700836233795 94.93497790209949 61.490972462110221 238.66723951126914 651.12714420922566 363.23422319721431 375.19567344337702 162.79654917586595 98.797984010539949 42.312730203382671 16.650304187787697 7.3246013168245545 728.8134874929674 5379.5723911731329
leaf_count=25730 23005 26789 521 95946 462 990 5968 3735 10398 77 957 34 12547 14014 150 3298 97 108 42 1490 4982 631 645 1184 524 621 1080 28 3727 18815
internal_value=0 -0.0209613 0.00676678 0.0101172 0.032682 0.00150357 -0.006716 -0.0231602 0.00702072 0.00471022 0.0139242 0.0585629 0.0103568 0.00381734 -0.0158253 -0.0214383 0.0311373 -0.0295331 -0.0806749 -0.0446876 -0.00719158 0.0463154 0.0207754 0.0703232 0.00480726 -0.00878892 0.124366 0.326792 -0.0417802 -0.0291362
internal_weight=0 10866.1 6712.25 6301.91 1741.02 4560.88 3962.01 2018.16 4067.75 3989.21 3143.4 580.317 1943.85 2563.09 1334.67 1290.65 290.326 845.803 286.631 410.347 1248.47 554.976 597.338 222.142 255.075 191.742 78.5467 25.3407 750.868 6904.07
internal_count=258595 100437 158158 156147 23467 132680 54833 29507 36734 34664 30752 2271 25326 28481 18083 17933 3919 3912 3777 2011 19358 2209 14376 13731 3822 1578 2070 62 3804 45604
shrinkage=0.05


Tree=17
num_leaves=31
num_cat=0
split_feature=21 5 17 1 8 8 0 0 1 0 10 3 10 0 0 12 8 20 4 12 3 15 12 1 17 0 0 8 0 4
split_gain=1136.81 549.55 480.82 439.525 734.923 620.411 408.12 568.63 1000.42 450.507 445.257 391.452 364.141 372.267 338.135 322.407 502.594 326.866 384.021 343.187 346.307 308.778 291.795 327.623 292.64 787.5 358.311 297.852 290.553 3437.04
threshold=3.5000000000000004 3.5000000000000004 3.5000000000000004 1.0000000180025095e-35 8.5000000000000018 4.5000000000000009 60.500000000000007 55.500000000000007 12.500000000000002 87.500000000000014 0.75499999523162853 24.915000000000003 0.98500001430511486 58.500000000000007 59.500000000000007 22.500000000000004 33.500000000000007 17.500000000000004 4.5000000000000009 18.500000000000004 28.915000000000003 24.500000000000004 11.500000000000002 1.0000000180025095e-35 7.5000000000000009 82.500000000000014 72.500000000000014 16.500000000000004 56.500000000000007 3.5000000000000004
decision_type=2 2 2 2 2 2 2 2 2 2 8 10 10 2 2 2 2 2 2 2 8 2 2 2 2 2 2 2 2 2
left_child=1 -1 3 4 21 14 7 -3 28 10 -8 -6 13 -4 -5 16 17 19 -19 -7 -21 -2 -12 -24 27 26 -26 -25 29 -9
right_child=2 6 12 5 11 15 9 8 -10 -11 22 -13 -14 -15 -16 -17 -18 18 -20 20 -22 -23 23 24 25 -27 -28 -29 -30 -31
leaf_value=0.016368591714500148 -0.03503831422308458 -0.050338517447055454 0.098796231577679028 -0.051938253021788006 0.06378989132840987 0.0082985686644424812 0.016396792276567516 -0.050883786229900099 -0.042390185629140764 -0.0096527423847886269 -0.050693353176339023 -0.088015100654827094 -0.17374804466772034 -0.033565083382505211 0.052621482553715807 -0.020501095979098799 0.32254390407659944 -0.20076088768878556 0.0050509254189233894 0.07520136067202185 -0.15456201292536942 0.15281933231860167 0.052820719502337167 -0.049003084048617626 -0.33475652897285774 -0.54595050962571745 -0.042638039491491857 -0.0044988320347985142 0.095594012512157003 2.05837234438378
leaf_weight=822.45452748588286 1382.9978262977675 252.9109667633893 56.90311456262134 83.111378727830015 346.10870001791045 3666.2918334318092 355.01732461713254 10.421756984200327 194.61423854937311 1965.4564404785633 3159.2155458843772 48.405784870265052 43.080282725626603 799.38300200784579 1109.9762840520125 979.62139815965202 12.940672777593134 39.388033981435001 53.382838062942028 298.81286552781239 17.352214466081932 22.22557657957077 124.59288007952273 694.70935435779393 11.535047046840189 9.2773932479321939 116.69641151791438 819.38356510386802 245.81947695603594 2.3707136497832826
leaf_count=3287 108493 46219 1118 11037 4512 39560 340 1019 636 3006 13956 2472 314 4483 5227 4068 14 327 91 540 261 19 183 1604 92 112 247 1133 4057 168
internal_value=0 -0.0225423 0.00277015 0.00663909 -0.0151375 0.0128989 -0.0265617 0.00972543 0.0432425 -0.0300931 -0.037687 0.0451639 -0.0319054 -0.0247692 0.0453378 0.00526202 0.0114355 0.0104476 -0.0823313 0.0126088 0.0625912 -0.0320671 -0.0415774 -0.0253633 -0.0312614 -0.1011 -0.0689155 -0.0249187 0.107684 0.340006
internal_weight=0 8784.48 8959.98 8060.62 1799.74 6260.88 7962.02 706.137 453.226 7255.88 5290.43 394.514 899.366 856.286 1193.09 5067.79 4088.17 4075.23 92.7709 3982.46 316.165 1405.22 4935.41 1776.19 1651.6 137.509 128.231 1514.09 258.612 12.7925
internal_count=258595 76059 182536 176621 115496 61125 72772 52099 5880 20673 17667 6984 5915 5601 16264 44861 40793 40779 418 40361 801 108512 17327 3371 3188 451 339 2737 5244 1187
shrinkage=0.05


Tree=18
num_leaves=31
num_cat=0
split_feature=21 4 4 3 1 8 16 11 15 14 0 14 1 8 16 1 3 3 5 0 8 0 3 17 1 8 9 8 8 8
split_gain=1028.49 439.106 396.229 468.287 400.002 771.103 495.305 501.001 390.341 542.16 372.647 367.011 364.471 509.955 361.527 357.782 349.68 349.084 340.881 334.378 329.456 322.509 319.689 317.86 614.891 431.986 302.921 282.303 279.446 446.455
threshold=4.5000000000000009 1.5000000000000002 1.5000000000000002 34.055000000000007 1.0000000180025095e-35 8.5000000000000018 3.5000000000000004 8.5000000000000018 4.5000000000000009 1.5000000000000002 66.500000000000014 12.500000000000002 1.5000000000000002 4.5000000000000009 2.5000000000000004 10.500000000000002 16.525000000000002 22.635000000000002 43.500000000000007 51.500000000000007 22.500000000000004 52.500000000000007 16.970000000000002 6.5000000000000009 19.500000000000004 16.500000000000004 7.5000000000000009 4.5000000000000009 10.500000000000002 9.5000000000000018
decision_type=2 2 2 10 2 2 2 2 2 2 2 2 2 2 2 2 8 10 2 2 2 2 8 2 2 2 2 2 2 2
left_child=1 10 3 4 5 8 15 22 -2 -10 19 12 -4 -14 -3 21 -15 20 -19 -1 26 -6 -8 -16 -25 -26 -18 -17 29 -29
right_child=2 14 11 -5 6 -7 7 -9 9 -11 -12 -13 13 16 23 27 17 18 -20 -21 -22 -23 -24 24 25 -27 -28 28 -30 -31
leaf_value=-0.042679029767143835 -0.037435803495242226 -0.043795864098817562 -0.061310097075190695 -0.10644149877321492 -0.060922727186867059 0.063900332641378108 0.04994024665977629 0.076421613662525173 0.024637106649214809 0.42472594432612482 -0.014995155452159434 -0.19035735794701514 0.089994321063245314 0.080102350173950496 -0.01153096586236913 -0.12617845197695687 -0.043766410000090392 0.0092683812840510648 -0.086930065276315097 0.032272778742066847 0.03184796526423838 0.055412697401363689 -0.07954243129805022 -0.29150762471971781 -0.31399684414034579 -0.019828125133196959 -0.15685777491653563 0.006415838914392076 -0.019621864214591691 0.1139274376193633
leaf_weight=182.42440576653462 841.38709145411849 2357.8287309970183 275.04690354631748 76.53966666595079 61.965314924833365 298.0287826473359 59.228215892799199 96.684741626027972 45.662613308057189 10.395115263760088 5234.1049512235331 27.518975901999511 146.06577692413703 110.93256748258136 2378.6708179372799 36.438516995636746 471.91629693179857 1358.1378215962322 98.787081848829985 807.39519697823562 125.96834546164609 1543.819705714006 244.2736228283029 28.53233016980812 13.485380958765743 167.40642957971431 67.70742472121492 289.12281775474548 313.58391285431571 144.98451925185509
leaf_count=48221 80469 18935 17859 4325 12339 4062 83 112 145 6 11461 236 1906 150 7623 866 4732 13455 865 13469 261 7902 3583 314 109 305 566 2166 1714 356
internal_value=0 -0.0185121 0.00621522 0.016063 0.0184156 -0.00578331 0.0287841 -0.022698 -0.0289243 0.0988279 -0.00967477 -0.00869961 -0.00681642 -0.000517526 -0.029633 0.0374047 -0.00643693 -0.0109599 0.00274563 0.0184591 -0.04096 0.0509235 -0.054274 -0.0167303 -0.0757846 -0.0417582 -0.0579562 0.0097201 0.0163431 0.0423229
internal_weight=0 11169.8 6744.2 4062.11 3985.57 1195.47 2790.1 400.187 897.445 56.0577 6223.92 2682.08 2654.56 2379.52 4945.92 2389.91 2233.45 2122.52 1456.92 989.82 665.592 1605.79 303.502 2588.09 209.424 180.892 539.624 784.13 747.691 434.107
internal_count=258595 100437 158158 118128 113803 84682 29121 3778 80620 151 73151 40030 39794 21935 27286 25343 20029 19879 14320 61690 5559 20241 3666 8351 728 414 5298 5102 4236 2522
shrinkage=0.05


Tree=19
num_leaves=31
num_cat=0
split_feature=21 5 17 1 8 8 8 3 0 0 17 12 8 4 5 5 14 0 1 0 2 8 1 10 8 3 15 2 3 3
split_gain=916.401 468.691 414.876 368.629 613.344 514.922 347.97 342.979 331.516 463.069 326.248 299.733 358.628 311.284 323.11 382.414 283.635 279.028 362.894 584.082 337.928 343.891 4716.42 272.208 415.152 523.966 285.095 309.038 376.705 272.088
threshold=3.5000000000000004 3.5000000000000004 3.5000000000000004 1.0000000180025095e-35 8.5000000000000018 3.5000000000000004 15.500000000000002 24.915000000000003 67.500000000000014 87.500000000000014 6.5000000000000009 22.500000000000004 33.500000000000007 17.500000000000004 45.500000000000007 47.500000000000007 5.5000000000000009 55.500000000000007 12.500000000000002 60.500000000000007 1.0000000180025095e-35 2.5000000000000004 2.5000000000000004 2.2949999570846562 5.5000000000000009 21.440000000000001 1.5000000000000002 1.0000000180025095e-35 20.250000000000004 19.155000000000005
decision_type=2 2 2 2 2 2 2 10 2 2 2 2 2 2 2 2 2 2 2 2 2 2 2 8 2 10 2 2 10 10
left_child=1 -1 3 4 -2 -5 -4 -6 10 23 17 12 13 14 -7 -16 -8 -3 19 -19 21 22 -21 24 25 -10 27 -25 -29 -13
right_child=2 8 6 5 7 11 16 -9 9 -11 -12 29 -14 -15 15 -17 -18 18 -20 20 -22 -23 -24 26 -26 -27 -28 28 -30 -31
leaf_value=0.016114975113918881 -0.029867318401356448 -0.047351900713506284 -0.064613550667378131 0.047787933261083326 0.057553540189852231 0.011251877558895271 0.014831913410737037 -0.086677093367459074 -0.059101433847004718 -0.0079746658328054259 -0.17785634033037037 0.026423935174998234 0.24902881965026094 0.087607094464080992 -0.11723714137827178 0.051501643477032691 -0.082585193127039547 0.091657788357960623 -0.013637995272017598 -0.050687665350429095 -0.078711455573983735 0.0096326342849612986 2.6109021907130976 -0.054832322040408402 -0.0025258341148190837 -0.58329417784182114 -0.0029878682136511596 0.02382696898101502 -0.044071486669582771 -0.033771887481476831
leaf_weight=821.87222693138756 1366.5441695289919 243.08444704802241 395.63758953905199 862.67052385653369 351.59313514165115 4157.369474031846 425.27000558120199 46.692401535110548 15.380255626514556 2010.1447407416999 25.835410320811206 251.02744088729378 15.868608973920344 128.4585835179314 103.77097693446558 49.638683002092876 90.644923221087083 280.65904257562943 648.23439082075492 14.600609401008116 110.54896738007665 124.13719953244436 1.8786055664531875 2690.5850243549794 731.71675239875913 6.9084992595016947 424.72306728456169 308.16078870370984 605.97400498017669 744.39126870897599
leaf_count=3287 108512 46006 4031 10087 4512 45516 1405 2472 38 3006 478 464 14 424 915 40 479 5184 1391 1159 392 3040 55 8767 943 89 641 277 1306 3665
internal_value=0 -0.0198908 0.00263914 0.0062474 -0.0139542 0.0118947 -0.0293367 0.0406449 -0.0234809 -0.0281119 -0.00176845 0.00621374 0.0117561 0.0109079 0.00862231 -0.0626384 -0.00228402 0.00142821 0.0114766 0.0420885 -0.0133017 0.0381218 0.25273 -0.0365741 -0.0090011 -0.221577 -0.0417337 -0.0462989 -0.0211825 -0.0185915
internal_weight=0 9064.44 8989.58 8078.03 1764.83 6313.2 911.553 398.286 8242.57 6793.59 1448.98 5450.53 4455.11 4439.24 4310.78 153.41 515.915 1423.14 1180.06 531.824 251.165 140.616 16.4792 4783.45 754.006 22.2888 4029.44 3604.72 914.135 995.419
internal_count=258595 76059 182536 176621 115496 61125 5915 6984 72772 15067 57705 51038 46909 46895 46471 955 1884 57227 11221 9830 4646 4254 1214 12061 1070 127 10991 10350 1583 4129
shrinkage=0.05


Tree=20
num_leaves=31
num_cat=0
split_feature=21 6 4 21 0 7 10 1 5 1 0 12 17 12 5 0 5 0 21 3 20 3 11 10 0 8 5 20 3 1
split_gain=831.807 415.232 395.381 387.98 426.546 376.474 377.691 357.011 423.277 1263.06 412.198 404.716 388.464 388.273 347.014 337.766 538.624 443.899 607.388 480.569 328.713 413.999 327.913 327.589 325.589 309.132 302.119 303 287.888 305.127
threshold=4.5000000000000009 1.0000000180025095e-35 1.0000000180025095e-35 5.5000000000000009 56.500000000000007 3.5000000000000004 0.60500001907348644 21.500000000000004 42.500000000000007 20.500000000000004 60.500000000000007 48.500000000000007 3.5000000000000004 2.5000000000000004 11.500000000000002 72.500000000000014 4.5000000000000009 76.500000000000014 7.5000000000000009 25.435000000000006 13.500000000000002 24.290000000000003 1.0000000180025095e-35 1.1050000190734866 87.500000000000014 28.500000000000004 42.500000000000007 1.0000000180025095e-35 21.135000000000002 1.0000000180025095e-35
decision_type=2 2 2 2 2 2 10 2 2 2 2 2 2 2 2 2 2 2 2 8 2 10 2 8 2 2 2 2 10 2
left_child=1 -1 14 5 -5 6 -2 8 12 13 23 20 15 24 -3 16 -6 18 19 -17 26 -22 -20 -9 -10 -13 -12 -28 -16 -30
right_child=3 2 -4 4 7 -7 -8 10 9 -11 11 25 -14 -15 28 17 -18 -19 22 -21 21 -23 -24 -25 -26 -27 27 -29 29 -31
leaf_value=-0.025895827038757493 0.036186887399914533 0.039560624526988629 -0.016523951425876753 -0.047261733038588716 0.055181223331460208 -0.057473349664544683 -0.088894532510816499 -0.21556723466266697 -0.08761540153660434 0.77418725423502477 -0.026301420740344764 0.037214841043240743 -0.06813615829399379 0.071003121367875108 0.020813924076633815 -0.19195051182609019 -0.067212832850594303 0.0062600952447101873 0.074684890481930888 0.036405475404172036 -0.26550590905896915 -0.054670514621838522 0.2042235729609764 0.096102107314582338 0.041259277148216866 -0.16809380715404798 -0.08475635687754908 -0.35820051168218969 0.024425685579243059 -0.04783352180956521
leaf_weight=5743.0772547573433 1640.1718188768718 695.8145282760961 3713.8860078094003 463.03130920988042 126.31413131766021 127.55671190330759 62.657444046461023 9.1918897330760938 86.52903619944118 5.952230527997016 592.96076212846674 245.75511570298113 179.10082113323733 393.38941364479251 614.23562094836961 30.487674836069345 311.711011469597 1771.4030272178352 142.59037357382476 94.305935693904757 37.594065898098052 61.167644042521715 74.315945585723966 101.85721294954419 113.0241022258997 19.812637213617563 46.064138645073399 12.987063722684978 208.70257592038251 487.00610557873733
leaf_count=58381 22980 5968 16730 94005 2729 519 356 52 1721 34 2702 476 2203 722 14376 290 17274 7772 1889 660 329 246 140 356 165 123 296 119 2362 2620
internal_value=0 -0.0163989 -0.00686303 0.00572567 -0.00158629 0.0253781 0.0315844 0.00315938 0.0113948 0.0494612 -0.0211593 -0.031153 0.00304467 0.042186 0.0110253 0.00804189 -0.0319178 0.0163251 0.0685032 -0.019383 -0.0499184 -0.134926 0.119067 0.0703042 -0.0146226 0.0218978 -0.0370421 -0.144895 -0.00413213 -0.0261568
internal_weight=0 11462.7 5719.64 6749.93 4919.55 1830.39 1702.83 4456.51 3329.12 598.895 1127.39 1016.34 2730.23 592.943 2005.76 2551.13 438.025 2113.1 341.7 124.794 750.774 98.7617 216.906 111.049 199.553 265.568 652.012 59.0512 1309.94 695.709
internal_count=258595 100437 42056 158158 134303 23855 23336 40298 35599 2642 4699 4291 32957 2608 25326 30754 20003 10751 2979 950 3692 575 2029 408 1886 599 3117 415 19358 4982
shrinkage=0.05


Tree=21
num_leaves=31
num_cat=0
split_feature=21 5 4 10 0 19 17 1 20 4 8 3 3 13 1 0 0 1 0 6 17 1 4 16 1 3 5 6 21 5
split_gain=741.812 394.262 386.16 454.967 404.353 499.506 376.38 405.717 369.938 338.358 336.166 324.054 366.433 322.055 633.49 344.893 480.521 530.632 332.72 343.693 359.305 499.316 1040.03 468.084 319.744 422.534 353.361 303.88 501.497 578.041
threshold=3.5000000000000004 5.5000000000000009 1.0000000180025095e-35 1.2150000333786013 66.500000000000014 1.5000000000000002 2.5000000000000004 1.5000000000000002 1.0000000180025095e-35 8.5000000000000018 33.500000000000007 25.315000000000001 25.255000000000006 1.0000000180025095e-35 15.500000000000002 60.500000000000007 55.500000000000007 18.500000000000004 87.500000000000014 1.0000000180025095e-35 1.0000000180025095e-35 1.0000000180025095e-35 2.5000000000000004 12.500000000000002 1.0000000180025095e-35 19.425000000000004 33.500000000000007 1.0000000180025095e-35 7.5000000000000009 42.500000000000007
decision_type=2 2 2 10 2 2 2 2 2 2 2 8 10 2 2 2 2 2 2 2 2 2 2 2 2 10 2 2 2 2
left_child=1 -1 3 4 5 -2 7 11 27 -8 -10 12 -4 15 -15 16 -3 -18 19 20 23 22 -22 24 -17 26 -26 -9 -29 -30
right_child=2 13 6 -5 -6 -7 9 8 10 -11 -12 -13 -14 14 -16 18 17 -19 -20 -21 21 -23 -24 -25 25 -27 -28 28 29 -31
leaf_value=0.0053777096285834332 -0.038429519653494247 -0.050028466614548753 -0.010639327360553674 -0.17320611693451249 0.02479749259608546 0.099982992668344053 -0.054679029178740284 -0.003284064273332098 -0.030694825263692452 0.020562593590320061 0.12613505173078551 -0.064647520116436735 0.2251490948809094 -0.19379125166423486 -0.036034377062859634 -0.10567604916824824 0.075800335863554266 -0.16423126701275248 -0.0024695179540389542 -0.015301040994017679 -0.0075514243042870428 -0.028981735943015563 0.41638852876814403 -0.32102441056145942 -0.17062307006618849 -0.068060108509937212 0.011448384110448191 0.0094846985742832995 0.055410549748458861 0.2863692859812707
leaf_weight=1553.6091489797691 510.61929115711246 151.86027490498964 344.61841622553766 31.675944102578796 2900.2849174265284 74.720791518688202 631.27797319716774 1390.855880723102 777.58216199325398 195.74851757718716 35.739810551400296 400.39673703920562 17.304852497181855 66.599666879905271 1430.0739929619303 252.88237859681249 302.94296563370153 24.918773114681244 1759.6465752609074 2217.0603781403915 50.567288019228727 454.79207466274966 20.264497143332846 16.793025296065025 28.768429782008752 635.35158785080421 361.65438812144566 1159.7210972852772 525.00669920258224 28.565314062172547
leaf_count=9114 91866 40107 7867 352 10401 149 4961 17754 2781 701 47 34491 66 1800 4073 3051 4759 113 2461 6268 145 925 38 156 215 2177 657 5926 5035 139
internal_value=0 -0.0176171 0.00249078 0.0154327 0.0171469 -0.0207607 -0.00577542 -0.000280272 0.00621405 -0.0368701 -0.0238032 -0.0336538 0.000634565 -0.0222124 -0.0430543 -0.0172433 0.0234999 0.057557 -0.0206145 -0.0285213 -0.0446163 -0.00974959 0.113735 -0.0587633 -0.0553189 -0.0429045 -0.00196761 0.0140789 0.0281742 0.0673284
internal_weight=0 9327.79 9024.12 3517.3 3485.63 585.34 5506.82 4679.79 3917.47 827.026 813.322 762.32 361.923 7774.18 1496.67 6277.5 479.722 327.862 5797.78 4038.13 1821.07 525.624 70.8318 1295.45 1278.66 1025.77 390.423 3104.15 1713.29 553.572
internal_count=258595 76059 182536 102768 102416 92015 79768 74106 31682 5662 2828 42424 7933 66945 5873 61072 44979 4872 16093 13632 7364 1108 183 6256 6100 3049 872 28854 11100 5174
shrinkage=0.05


Tree=22
num_leaves=31
num_cat=0
split_feature=4 21 14 3 5 3 11 5 21 6 21 1 0 11 1 16 8 1 8 16 11 15 12 1 18 14 12 13 1 0
split_gain=688.174 453.827 446.46 415.208 413.851 480.118 364.233 656.922 549.341 380.993 375.9 601.398 333.984 329.21 305.119 361.163 302.332 298.584 622.009 411.989 432.488 327.976 423.63 286.076 278.681 357.205 275.144 268.226 335.633 291.286
threshold=1.5000000000000002 4.5000000000000009 12.500000000000002 34.055000000000007 43.500000000000007 16.525000000000002 1.5000000000000002 42.500000000000007 8.5000000000000018 1.0000000180025095e-35 4.5000000000000009 2.5000000000000004 66.500000000000014 11.500000000000002 16.500000000000004 2.5000000000000004 4.5000000000000009 1.0000000180025095e-35 8.5000000000000018 3.5000000000000004 8.5000000000000018 4.5000000000000009 1.5000000000000002 10.500000000000002 7.5000000000000009 5.5000000000000009 24.500000000000004 1.0000000180025095e-35 15.500000000000002 66.500000000000014
decision_type=2 2 2 10 2 8 2 2 2 2 2 2 2 2 2 2 2 2 2 2 2 2 2 2 2 2 2 2 2 2
left_child=1 27 4 17 6 -6 7 9 14 -2 -11 -12 13 -8 26 -16 -13 18 21 23 -21 -3 -23 -19 25 -7 -9 29 -29 -1
right_child=2 3 -4 -5 5 24 12 8 -10 10 11 16 -14 -15 15 -17 -18 19 -20 20 -22 22 -24 -25 -26 -27 -28 28 -30 -31
leaf_value=0.0229658664497705 -0.043586697230814125 -0.035494238248967337 -0.14726637974167298 -0.10431336884925467 0.078192226989604485 -0.059798947183213449 0.058574329711259678 0.046400799017157449 0.3701929354632148 -0.032146929403892709 -0.1009972950941654 0.10784646805805308 -0.0039613939932450866 -0.18884711300089635 -0.27200054726649497 -0.014741584578599105 0.014946833081897041 0.044910542664777335 0.056612489408795333 -0.050978597900255489 0.06943896911739933 -0.096411632415968937 0.1811554307870733 0.0084349413673804018 -0.01410573762146955 -0.26457641939071314 -0.19431002863479846 -0.18304541374081582 -0.029405968203754795 -0.0085286011032517112
leaf_weight=860.2609174749814 1895.4257769057149 792.19012968993047 66.636244389577769 72.590099128894508 78.01578526943922 883.13111441925867 346.18596507178154 448.93059064820409 11.603390550706534 1067.6258016935026 104.24802360311151 100.39777838857844 1728.5177545357728 13.987515186890958 16.179143297253177 87.024847753345966 685.87182975991163 1627.1580308877164 301.78674387698993 305.9858780275099 98.590120742097497 21.024627610109746 39.709650559350848 802.74045989144361 388.42879378143698 21.821986823226325 12.194029871840028 38.004039938852657 549.74694919324247 5008.5062656163936
leaf_count=59434 34422 80469 423 4325 60 5873 867 2257 104 6674 6109 434 3240 184 216 208 5240 20241 4062 3666 112 120 31 5102 667 218 120 1419 1817 10481
internal_value=0 0.00110045 -0.0183881 0.0141948 -0.0172996 -0.0422655 -0.0120469 -0.0201631 0.0296445 -0.0276071 -0.0121393 0.0118475 0.00516533 0.0489656 0.0226423 -0.0550717 0.0268091 0.0163513 -0.00508065 0.0250822 -0.0216343 -0.0269093 0.0850689 0.0328605 -0.0495314 -0.0647369 0.0400354 -0.00713716 -0.0393403 -0.00391205
internal_weight=0 10518.3 7956.23 4061.78 7889.59 1371.4 6518.19 4429.5 575.932 3853.57 1958.14 890.518 2088.69 360.173 564.329 103.204 786.27 3989.19 1154.71 2834.47 404.576 852.924 60.7343 2429.9 1293.38 904.953 461.125 6456.52 587.751 5868.77
internal_count=258595 191279 67316 118128 66893 6818 60075 55784 2905 52879 18457 11783 4291 1051 2801 424 5674 113803 84682 29121 3778 80620 151 25343 6758 6091 2377 73151 3236 69915
shrinkage=0.05


Tree=23
num_leaves=31
num_cat=0
split_feature=4 21 3 14 5 3 11 5 21 6 21 1 0 11 1 16 1 8 16 11 15 12 3 3 8 21 8 8 21 1
split_gain=613.215 408.406 387.328 371.511 357.685 426.791 325.225 587.398 356.423 339.183 332.453 557.154 305.006 293.054 274.719 286.688 267.879 561.988 370.199 390.734 291.758 355.392 270.527 266.949 265.195 261.384 292.462 297.206 255.372 254.712
threshold=1.5000000000000002 4.5000000000000009 34.055000000000007 12.500000000000002 43.500000000000007 16.525000000000002 1.5000000000000002 42.500000000000007 8.5000000000000018 1.0000000180025095e-35 4.5000000000000009 2.5000000000000004 66.500000000000014 11.500000000000002 16.500000000000004 2.5000000000000004 1.0000000180025095e-35 8.5000000000000018 3.5000000000000004 8.5000000000000018 4.5000000000000009 1.5000000000000002 17.725000000000005 16.970000000000002 4.5000000000000009 6.5000000000000009 3.5000000000000004 1.0000000180025095e-35 8.5000000000000018 10.500000000000002
decision_type=2 2 10 2 2 8 2 2 2 2 2 2 2 2 2 2 2 2 2 2 2 2 8 8 2 2 2 2 2 2
left_child=1 -1 16 4 6 -6 7 9 14 -2 -11 -12 13 -8 -9 -16 17 20 29 23 22 -22 -3 -20 -13 26 27 -24 -26 -18
right_child=3 2 -4 -5 5 -7 12 8 -10 10 11 24 -14 -15 15 -17 18 -19 19 -21 21 -23 25 -25 28 -27 -28 -29 -30 -31
leaf_value=-0.0067316789369696282 -0.040958996494625026 0.12510153677401045 -0.10343297309565853 -0.13122108616373082 0.075148824969503938 -0.045830668663132561 0.05635742705164775 0.038498295083752333 0.26755292549503706 -0.029960812278959414 -0.099532381818635926 0.1005475197066404 -0.0037537354744894185 -0.17353275208677227 -0.23369616979038554 -0.013863510370287976 0.042408012877285697 0.053341808650354941 0.046640704138204772 0.066439994551921899 -0.093772231665927186 0.15916357246638591 -0.076540106374708552 -0.071184273860017203 0.027986692599811038 -0.06623560859795917 -0.092584903675796221 0.048864944688892159 -0.053506535713280096 0.0080174119091407699
leaf_weight=6499.6853287241538 1915.6399829531292 25.714064631843939 69.623203589813784 70.924980124807917 77.139319162815809 1326.723775762599 341.92434613290243 455.75998379755765 15.133544646669177 1087.7121752784005 100.58702145353891 102.2503159281332 1732.8196003248449 14.448439938016234 17.84154660673812 87.887018359499052 1636.7620317578549 304.21069207391702 59.67408205755055 97.9057830972597 20.547623537480831 42.846210723742843 62.287010571686551 247.25719343917444 569.14623679663055 417.11045962257776 76.77215941529721 195.65724455064628 115.66989255952649 802.32896784733748
leaf_count=73151 34422 251 4325 423 60 6758 867 2377 104 6674 6109 434 3240 184 216 208 20241 4062 83 112 120 31 7815 3583 2904 57148 5413 9842 2336 5102
internal_value=0 0.0010391 0.0134834 -0.0172932 -0.0162781 -0.0391831 -0.011374 -0.018989 0.0281069 -0.0259683 -0.0114308 0.0112755 0.0049101 0.047037 0.0216533 -0.05096 0.015524 -0.00489493 0.0237459 -0.0205335 -0.0259622 0.0771804 -0.0343716 -0.0482765 0.0254368 -0.0398259 -0.00691516 0.0185828 0.014222 0.0310954
internal_weight=0 10558.4 4058.7 8031.61 7960.68 1403.86 6556.82 4467.63 576.622 3891.01 1975.37 887.653 2089.19 356.373 561.489 105.729 3989.07 1145.15 2843.93 404.837 840.935 63.3938 777.541 306.931 787.066 751.827 334.716 257.944 684.816 2439.09
internal_count=258595 191279 118128 67316 66893 6818 60075 55784 2905 52879 18457 11783 4291 1051 2801 424 113803 84682 29121 3778 80620 151 80469 3666 5674 80218 23070 17657 5240 25343
shrinkage=0.05


Tree=24
num_leaves=31
num_cat=0
split_feature=4 5 13 21 0 12 0 21 8 0 11 1 14 3 5 3 21 11 5 3 21 0 0 6 21 1 0 3 8 11
split_gain=546.308 371.283 359.145 364.866 473.241 567.656 436.474 433.386 571.915 385.486 363.381 350.048 322.138 312.141 291.175 375.395 290.097 271.498 528.619 320.261 326.278 341.557 377.584 296.11 291.2 513.012 272.464 264.529 259.008 257.537
threshold=1.5000000000000002 2.5000000000000004 1.5000000000000002 4.5000000000000009 66.500000000000014 9.5000000000000018 80.500000000000014 7.5000000000000009 2.5000000000000004 75.500000000000014 4.5000000000000009 18.500000000000004 14.500000000000002 20.905000000000005 43.500000000000007 16.525000000000002 10.500000000000002 1.5000000000000002 42.500000000000007 26.815000000000001 3.5000000000000004 81.500000000000014 75.500000000000014 1.0000000180025095e-35 4.5000000000000009 2.5000000000000004 66.500000000000014 30.315000000000001 27.500000000000004 11.500000000000002
decision_type=2 2 2 2 2 2 2 2 2 2 2 2 2 8 2 8 2 2 2 8 2 2 2 2 2 2 2 10 2 2
left_child=1 -1 3 -3 5 -5 7 8 -6 -10 -4 16 14 -11 17 -16 -8 18 23 -20 27 22 -22 -2 -25 -26 29 -21 -27 -19
right_child=12 2 10 4 6 -7 11 -9 9 13 -12 -13 -14 -15 15 -17 -18 26 19 20 21 -23 -24 24 25 28 -28 -29 -30 -31
leaf_value=0.045044365748154402 -0.038505756517392159 -0.0063195863578118837 -0.065930495932328789 -0.048604775059971531 0.10959395264507626 0.081487450159842864 0.020603232112538589 0.085177089797925029 -0.080559683016948574 0.14392144743836008 0.016821258646167108 -0.063883321553852623 -0.1541209393560532 -0.002926596037567212 0.072207594105744052 -0.041723452358244595 -0.050607469389738841 0.052573919969575271 -0.010268648212445483 0.044874006054329847 -0.10571838736994731 -0.10645017124804641 0.22129386041947072 -0.028107699335500582 -0.097959975153414772 0.025924723947921148 -0.0043679873459964731 -0.16936107701915268 -0.36988156006093736 -0.15991503747282831
leaf_weight=457.34577760042157 1935.3840833737922 5896.6942385272705 401.03807089425391 498.7034144080244 125.98092572018504 100.80314657354029 1761.1249792771414 455.08200012729503 136.33132401038893 44.78927468508482 198.23991426429711 152.52107774256729 42.163621306535788 188.41696688113734 76.289418496191502 1382.9870544162113 155.65938302874565 340.3955422929721 290.97318661876488 179.00897578860167 10.114647783106191 12.006311576347796 69.35225130431354 1107.1089511934842 97.178867673501372 780.37075310247019 1743.7523146998137 15.670303090941159 4.155216362560167 14.883041134453377
leaf_count=5608 34446 69135 4907 96664 958 1242 4315 4213 1597 77 246 691 296 864 60 6796 762 879 1097 477 940 74 124 6678 6109 5616 3281 193 66 184
internal_value=0 0.000978935 -0.00101339 0.00135088 0.0138475 -0.0267306 0.021903 0.0499487 0.017595 -0.0137688 -0.0385564 0.00901935 -0.0162766 0.0252768 -0.0155555 -0.0357673 0.0148203 -0.0110869 -0.0180117 0.0266681 0.0642272 0.142116 0.179671 -0.0245827 -0.0110337 0.0104052 0.00376327 0.0276296 0.0238283 0.0436725
internal_weight=0 10572.7 10115.4 9516.11 3619.41 599.507 3019.91 950.6 495.518 369.538 599.278 2069.31 8101.79 233.206 8059.63 1459.28 1916.78 6600.35 4501.32 577.126 286.152 91.4732 79.4669 3924.2 1988.81 881.705 2099.03 194.679 784.526 355.279
internal_count=258595 191279 185671 180518 111383 97906 13477 7709 3496 2538 5153 5768 67316 941 67020 6856 5077 60164 55820 2905 1808 1138 1064 52915 18469 11791 4344 670 5682 1063
shrinkage=0.05


Tree=25
num_leaves=31
num_cat=0
split_feature=4 5 21 0 12 0 21 8 21 12 0 0 14 0 3 17 5 0 20 11 0 10 9 6 14 21 12 3 9 3
split_gain=487.265 339.63 318.218 477.146 480.37 313.662 421.96 558.251 316.593 305.603 293.699 284.214 281.081 280.844 269.251 263.833 258.726 249.883 234.372 229.43 266.183 260.48 267.643 257.653 288.381 278.718 484.02 330.459 358.866 258.617
threshold=1.5000000000000002 2.5000000000000004 4.5000000000000009 66.500000000000014 9.5000000000000018 80.500000000000014 7.5000000000000009 2.5000000000000004 10.500000000000002 17.500000000000004 82.500000000000014 75.500000000000014 14.500000000000002 97.500000000000014 20.905000000000005 5.5000000000000009 45.500000000000007 44.500000000000007 18.500000000000004 1.5000000000000002 66.500000000000014 0.83499997854232799 3.5000000000000004 1.0000000180025095e-35 10.500000000000002 7.5000000000000009 8.5000000000000018 28.085000000000004 1.5000000000000002 18.855000000000004
decision_type=2 2 2 2 2 2 2 2 2 2 2 2 2 2 8 2 2 2 2 2 2 10 2 2 2 2 2 10 2 10
left_child=1 -1 -3 4 -4 6 7 -5 10 11 -7 -9 16 -10 -13 -12 19 -6 -8 23 21 -21 -23 29 25 -25 27 -27 -29 -2
right_child=12 2 3 5 17 8 18 9 13 -11 15 14 -14 -15 -16 -17 -18 -19 -20 20 -22 22 -24 24 -26 26 -28 28 -30 -31
leaf_value=0.043349991252866156 -0.00029630797028469856 -0.0079289014107157465 -0.049087082523366014 0.098945194990906371 0.11562940607778721 -0.08934250947477175 0.07644961079545709 -0.061959010619814014 -0.08881040269490266 -0.18176208796171914 0.019312596546807045 0.13441281628147189 -0.1422959402827329 0.081351149252254756 -0.00014103444409353772 -0.093181850930432339 -0.042654791099124241 -0.049845325947630297 -0.28725817072389381 0.052228834184143938 -0.0067104178852802543 0.010075248909318536 -0.23439960165087417 -0.012534629692810249 -0.33362942791568734 0.022995881726608422 -0.10852451921630397 -0.063402956527367313 0.17959444374328207 -0.038236786794395072
leaf_weight=451.61013451591134 588.19109314691741 6275.567553526198 527.23953063582303 132.38527056388557 76.43475396221038 68.114533404819667 503.43845615442842 147.63577425875701 137.69056906644255 27.009071289328858 1920.0021617973689 46.463751247152686 43.350867952569388 29.431436914950609 186.07004947494715 53.574594629695639 748.31474819075083 32.521978549310006 4.468677917495369 364.70908890070859 1938.1580297206528 35.129146484658122 16.431559786200523 2173.4743025955977 6.7247617457760489 212.45460498344619 50.636464011040516 18.741477815317921 80.267904496053234 1900.0682342202199
leaf_count=5608 13237 71230 98864 958 853 951 4323 1550 898 280 3937 68 296 23 811 267 2925 602 56 1017 3678 57 108 13425 93 4495 911 1298 367 25409
internal_value=0 0.000921796 -0.000962636 0.0102686 -0.0293363 0.0180064 0.0405409 0.00975116 0.00731997 -0.0192483 0.0127358 -0.00770258 -0.0153167 -0.0588437 0.0267448 0.0162588 -0.0146399 0.0662376 0.0732496 -0.0118012 0.00108088 0.0373573 -0.0678349 -0.0178303 -0.00663556 -0.00576832 0.0348458 0.0581543 0.133597 -0.0292682
internal_weight=0 10619.7 10168 3892.48 636.196 3256.28 1047.47 539.564 2208.81 407.179 2041.69 380.17 8176.65 167.122 232.534 1973.58 8133.3 108.957 507.907 7384.99 2354.43 416.27 51.5607 5030.56 2542.3 2535.57 362.1 311.464 99.0094 2488.26
internal_count=258595 191279 185671 114441 100319 14122 8046 3667 6076 2709 5155 2429 67316 921 879 4204 67020 1455 4379 64095 4860 1182 165 59235 20589 20496 7071 6160 1665 38646
shrinkage=0.05


Tree=26
num_leaves=31
num_cat=0
split_feature=21 5 17 8 1 8 8 13 3 10 13 12 0 0 1 19 0 5 10 12 8 3 3 1 15 4 0 11 15 12
split_gain=441.695 312.988 283.493 291.094 261.174 448.689 326.706 284.608 277.08 260.229 234.353 540.019 362.276 575.762 408.001 297.738 273.318 273.324 226.883 220.673 219.814 219.063 249.596 214.834 212.477 208.687 208.379 209.063 207.049 242.752
threshold=3.5000000000000004 3.5000000000000004 3.5000000000000004 15.500000000000002 1.0000000180025095e-35 8.5000000000000018 5.5000000000000009 1.5000000000000002 24.915000000000003 0.76499998569488536 1.0000000180025095e-35 4.5000000000000009 60.500000000000007 55.500000000000007 18.500000000000004 6.5000000000000009 87.500000000000014 45.500000000000007 0.81499999761581432 60.500000000000007 5.5000000000000009 25.315000000000001 25.255000000000006 15.500000000000002 24.500000000000004 1.5000000000000002 52.500000000000007 2.5000000000000004 1.5000000000000002 1.0000000180025095e-35
decision_type=2 2 2 2 2 2 2 2 10 8 2 2 2 2 2 2 2 2 10 2 2 8 10 2 2 2 2 2 2 2
left_child=1 -1 4 20 5 21 7 26 25 -3 12 18 13 -11 -15 23 28 -18 -12 -5 -4 22 -2 -13 -23 -7 -6 -28 29 -14
right_child=2 9 3 19 6 8 -8 -9 -10 10 11 15 16 14 -16 -17 17 -19 -20 -21 -22 24 -24 -25 -26 -27 27 -29 -30 -31
leaf_value=0.016127050003907933 -0.0054569471346563887 0.017717222989962006 0.032377610334777061 0.0071778320900886539 -0.070145058158448084 0.059220149332924146 0.0027757372727638474 -0.078095374076838406 -0.085792803458888178 -0.056113363245409976 -0.12485061512346676 -0.17721864395518208 -0.043959080770953077 0.075894985008709434 -0.12799475160775772 -0.26029630222277639 0.0051123417162333186 -0.057487740651027942 -0.037833355894967419 -0.14708898988517446 -0.071881321851443636 -0.04533070379073071 0.1763540731088506 -0.015371112009646137 0.10047836147188599 -0.087916130270711212 0.0364579630586244 -0.14575688186957478 0.0076103002904130057 -0.018367869816644955
leaf_weight=834.1852450936567 386.16131314018276 541.17657646420412 59.416916728019714 509.18277209682856 48.763480514171533 328.77794457552955 4711.7143307244987 61.091666639200412 43.119229089934379 148.81431735050865 205.10181871862733 20.854418468035874 1460.2874772269279 332.58373875846155 26.490728661417961 12.819834382622501 1690.692729793489 194.41954656690359 118.00809205998667 24.287328698672354 338.98734462232096 846.71897181076929 19.847391084302217 1219.0837558208732 25.744897320866585 26.004887011018582 1648.2496085807215 15.893448894843457 462.71403107070364 2535.8476204698381
leaf_count=3287 12025 525 481 1645 10917 3464 38316 1714 2472 43646 3099 251 8659 5180 104 96 2103 482 260 239 3550 96355 125 2396 7 1048 10033 145 606 5365
internal_value=0 -0.0131678 0.00213148 -0.0239953 0.00511441 -0.0124781 0.00966158 0.0279503 0.0338895 -0.0158924 -0.0180507 -0.0354364 -0.0140521 0.0265812 0.060853 -0.0205717 -0.0173051 -0.00134387 -0.0930697 0.000154516 -0.0563324 -0.0269092 0.00343073 -0.0180932 -0.0410281 0.0484353 0.0317325 0.0347177 -0.0240532 -0.0277195
internal_weight=0 9803.08 9093.96 931.874 8162.09 1676.37 6485.71 1774 397.902 8968.89 8427.72 1575.87 6851.85 507.889 359.074 1252.76 6343.96 1885.11 323.11 533.47 398.404 1278.47 406.009 1239.94 872.464 354.783 1712.91 1664.14 4458.85 3996.14
internal_count=258595 76059 182536 5915 176621 115496 61125 22809 6984 72772 72247 6102 66145 48930 5284 2743 17215 2585 3359 1884 4031 108512 12150 2647 96362 4512 21095 10178 14630 14024
shrinkage=0.05


Tree=27
num_leaves=31
num_cat=0
split_feature=4 13 1 2 0 10 0 5 0 0 21 8 0 12 1 0 1 0 0 5 3 3 5 12 8 17 16 21 19 14
split_gain=417.069 301.52 320.781 309.53 339.519 412.998 270.411 316.1 535.016 243.56 243.194 347.756 263.871 274.843 483.076 440.781 356.244 344.412 515.799 358.792 591.054 326.483 307.918 281.086 275.74 272.529 256.633 436.518 253.942 241.71
threshold=1.5000000000000002 1.5000000000000002 25.500000000000004 1.0000000180025095e-35 59.500000000000007 1.794999957084656 66.500000000000014 4.5000000000000009 62.500000000000007 51.500000000000007 1.5000000000000002 21.500000000000004 92.500000000000014 1.5000000000000002 6.5000000000000009 49.500000000000007 1.0000000180025095e-35 72.500000000000014 75.500000000000014 40.500000000000007 37.670000000000009 31.255000000000006 46.500000000000007 31.500000000000004 4.5000000000000009 11.500000000000002 2.5000000000000004 11.500000000000002 3.5000000000000004 14.500000000000002
decision_type=2 2 2 2 2 8 2 2 2 2 2 2 2 2 2 2 2 2 2 2 8 10 2 2 2 2 2 2 2 2
left_child=1 3 -3 10 5 -5 7 -6 -9 -7 11 28 13 16 17 -16 22 -15 19 20 24 -18 -12 25 -19 -17 -20 -28 -1 -2
right_child=29 2 -4 4 6 9 -8 8 -10 -11 12 -13 -14 14 15 23 21 18 26 -21 -22 -23 -24 -25 -26 -27 27 -29 -30 -31
leaf_value=-0.02093706332994116 -0.013287662385116375 -0.098937039831093962 -0.013473501384208645 -0.12478905629442257 0.0081250556423015912 -0.056805069236373622 0.016574204823932681 -0.0027288188335278037 -0.22945533779311142 0.10676335917572309 -0.040998676899812569 -0.55974910556161717 0.023173948553222048 -0.057777833882306943 0.085238140631659243 -0.028966341881945936 0.0080432742462590492 0.28887388649179235 0.037421249843831897 0.090727074643728325 0.7069156418651521 -0.1331504209854755 0.14537842864473369 0.024101723262727557 -0.097069677425873135 -0.28952499828868666 -0.095666580347272989 0.15014821902625711 -0.47097723273216341 -0.13026408778813772
leaf_weight=1141.6301453982596 8236.4602545775342 140.53501930547645 501.97410993825179 24.672716170782223 156.74774069432169 25.387726186076179 2431.3388532564277 58.31900614593178 46.980584313161671 219.77320312941447 1054.5681027785176 3.0163161404198027 1140.3209548038431 96.377301429514773 108.98151492141187 1029.795373352943 1115.9021686546621 14.312717437744146 764.83385784551501 105.9247722402215 6.572709083557128 42.501462177780923 22.636721454677172 290.8061367997434 6.8395433193072668 10.134325927589087 86.649834568612278 22.815861796960235 3.1431513810530296 44.398868661315646
leaf_count=16979 67020 4025 1257 278 350 1730 4650 335 437 1209 115600 66 1513 7976 1914 3802 22960 1 1174 66 1 2799 812 521 131 141 481 25 46 296
internal_value=0 0.00103847 -0.0321668 0.00316535 0.01673 0.0702014 0.011373 -0.0368846 -0.103885 0.089825 -0.00252175 -0.0235854 0.00156217 -0.00359393 0.00764564 -0.0114364 -0.0163842 0.0325231 0.0411574 0.13264 0.292769 0.00286292 -0.0370821 -0.0193537 0.16408 -0.0315055 0.027173 -0.0444316 -0.0221727 -0.0139148
internal_weight=0 10673.5 642.509 10031 2963.22 269.834 2693.39 262.047 105.3 245.161 7067.76 1147.79 5919.97 4779.65 2544.04 1439.72 2235.61 1104.33 1007.95 133.65 27.725 1158.4 1077.2 1330.74 21.1523 1039.93 874.3 109.466 1144.77 8280.86
internal_count=258595 191279 5282 185997 8989 3217 5772 1122 772 2939 177008 17091 159917 158404 16233 6378 142171 9855 1879 199 133 25759 116412 4464 132 3943 1680 506 17025 67316
shrinkage=0.05


Tree=28
num_leaves=31
num_cat=0
split_feature=21 5 17 8 10 1 0 0 0 1 17 2 21 2 15 5 3 3 1 1 4 0 1 8 1 21 12 4 4 13
split_gain=385.266 279.244 250.737 259.124 244.704 266.316 301.319 548.488 500.125 1112.01 590.227 424.747 345.793 345.691 387.463 295.154 329.114 270.415 736.749 528.413 448.762 245.393 232.378 389.13 279.344 298.979 280.164 249.172 309.689 388.643
threshold=3.5000000000000004 5.5000000000000009 3.5000000000000004 15.500000000000002 1.075000047683716 4.5000000000000009 75.500000000000014 87.500000000000014 72.500000000000014 1.0000000180025095e-35 3.5000000000000004 1.0000000180025095e-35 2.5000000000000004 1.0000000180025095e-35 2.5000000000000004 45.500000000000007 22.925000000000004 1.0000000180025095e-35 2.5000000000000004 3.5000000000000004 3.5000000000000004 77.500000000000014 1.0000000180025095e-35 8.5000000000000018 22.500000000000004 5.5000000000000009 41.500000000000007 17.500000000000004 2.5000000000000004 1.5000000000000002
decision_type=2 2 2 2 8 2 2 2 2 2 2 2 2 2 2 2 10 10 2 2 2 2 2 2 2 2 2 2 2 2
left_child=1 -1 22 -4 -3 6 8 13 17 10 11 -10 15 14 21 -9 -17 18 -6 20 -20 -8 23 -2 26 -26 27 28 29 -24
right_child=2 4 3 -5 5 -7 7 12 9 -11 -12 -13 -14 -15 -16 16 -18 -19 19 -21 -22 -23 24 -25 25 -27 -28 -29 -30 -31
leaf_value=0.007039522146971621 -0.02544884444415731 0.010183437362680806 -0.052719493009659335 0.00048222782284837836 0.0013802120221721005 -0.026127291405655447 -0.18463016581188565 -0.0051443091395054746 0.24087471124656107 -0.0078624042127884344 0.64695918711024825 -0.0016550294717666105 0.044017753524119588 0.0036047328142254885 0.015265920147476917 -0.087728326985942073 -0.49696423776218701 -0.038257282439948283 0.24182566176596176 -0.15530863654484445 0.73864633022625503 -0.064969448215350764 0.024703218248657392 0.031513445498415546 0.011688637497436712 -0.028688034711287752 -0.11371281386865462 0.095196688186753503 -0.007945687095828621 -0.11714027097050334
leaf_weight=1612.9406145843095 1246.1195578307379 823.50796854542568 399.92454625008395 535.11940093874 229.9097286061151 4546.4995738828875 45.928019510116428 503.05471782013774 66.196686980081722 148.39139401586726 7.1357555775903156 24.821836665272713 436.37731202319264 328.00926448404789 151.93562139291316 35.823278110474348 5.6937762685120097 309.97550319024595 16.229465958080262 5.7689827260328448 6.313357943086884 638.25719686597586 3371.2367144952877 394.81288364488864 981.9837992543471 860.01047127437778 41.357309811282903 99.687066460261121 1088.8640391658992 48.993526380858384
leaf_count=9114 108512 925 4031 1884 31345 14132 414 670 460 369 31 35 351 446 188 106 63 14837 479 296 35 1763 36516 6984 2096 4540 685 328 14077 2883
internal_value=0 -0.0120027 0.00224814 -0.0222725 -0.0156899 -0.0185284 -0.00685599 -0.0166879 0.0190298 0.0785001 0.209064 0.174734 0.010855 -0.0398968 -0.0569624 -0.0157191 -0.143852 -0.00677481 0.0310175 0.271691 0.380966 -0.073002 0.00506724 -0.0117436 0.00931629 -0.00716287 0.0158439 0.0170065 0.0152779 0.0226714
